nep4 3 Li Sb Te 
cutoff 8 4 82 11
n_max 4 4
basis_size 8 8
l_max 4 2 0
ANN 30 0
  8.6343876e-05
 -4.5347324e-04
  2.0654425e-04
  7.2787974e-05
 -4.7334038e-06
 -2.3480132e-04
 -1.7374920e-04
 -9.7752818e-05
  1.3799708e-04
  8.1378203e-05
  1.7587685e-05
 -5.1034748e-04
  9.7583797e-05
  1.9170307e-04
 -2.9093320e-05
 -4.5380148e-05
 -1.5161625e-05
 -4.2028711e-05
  1.5917787e-04
  1.5983294e-05
  3.0586653e-04
  4.5233912e-05
 -1.2807143e-05
 -3.8872899e-05
  9.4408633e-06
 -3.9787727e-05
  1.8971038e-04
  3.3609103e-05
  1.1184187e-04
 -1.8865212e-04
  2.1284588e-05
 -2.0398127e-03
  2.6450527e-05
  6.2049199e-05
 -1.9341813e-04
 -9.1259099e-05
  9.3378985e-05
 -7.4395401e-05
  8.8949673e-05
 -4.0905114e-05
  2.5015080e-04
 -9.8988594e-06
  7.3379648e-05
 -2.4371590e-04
 -3.4821878e-05
 -1.6114664e-04
  2.3107605e-05
  9.9390083e-05
  9.2355454e-05
 -2.0223547e-04
 -3.4580322e-04
  6.8603136e-02
 -1.5212547e-04
 -1.1971487e-04
  8.7524004e-06
  1.3830555e-04
  3.4214379e-05
 -3.2939832e-04
  1.3967673e-04
 -1.0962936e-05
 -8.4172498e-05
 -2.4230099e-05
 -1.3753983e-05
  1.1626588e-04
  1.1524144e-04
  3.7739272e-05
  2.9148240e-04
 -3.3700617e-04
 -4.4892498e-05
 -4.2073475e-04
 -2.4080928e-05
  1.0544260e-04
  9.6173944e-06
  2.9779450e-05
 -8.4957458e-07
  3.8011243e-05
  2.4544288e-05
 -8.5070540e-05
  1.5082143e-04
  1.7131605e-04
 -2.8016776e-04
 -5.4383097e-05
  1.8440373e-06
  6.1579194e-04
  2.7853341e-05
 -6.5441622e-05
  3.2859429e-05
 -3.9990759e-04
  5.2919579e-05
 -3.2034273e-05
 -9.1415866e-05
 -2.3603291e-06
 -5.3141532e-05
 -1.4287472e-05
 -1.0912152e-04
  8.4200856e-06
 -7.1003116e-05
  2.7400705e-05
 -9.7532778e-05
  4.6520872e-05
 -6.9148678e-05
  8.6794171e-06
  3.4089804e-05
  2.0065824e-04
 -1.9971565e-04
  1.1998612e-04
  4.3073880e-05
 -1.4797032e-04
 -3.4441453e-04
 -1.5035333e-06
 -8.8928835e-05
  5.7609039e-05
 -1.1750563e-04
 -3.2175207e-04
 -4.5512763e-05
 -1.4441703e-05
  6.8383374e-06
  4.9484515e-05
  1.2283475e-04
 -4.8823509e-05
 -7.2144401e-05
  1.1080111e-01
  2.5809664e-04
  8.7672590e-05
  5.7200079e-05
  2.9858787e-05
 -6.0675379e-06
 -2.5047190e-04
  1.2160607e-04
 -6.7428038e-05
 -8.8962361e-06
 -2.1224128e-04
  3.0702844e-04
  8.2475839e-05
  5.3089741e-05
 -1.2044579e-04
 -5.0937706e-06
  6.4857551e-05
 -5.0988085e-05
  1.3287412e-03
 -4.0420203e-04
 -7.4169577e-05
 -1.5719020e-04
 -3.2314160e-04
 -8.1804064e-05
 -1.6613510e-04
  2.2391530e-05
  1.3911993e-04
 -1.6465499e-04
 -9.7452823e-05
 -1.6873344e-05
  1.8125767e-02
 -6.4085827e-05
  1.8066535e-04
 -1.5650169e-04
 -5.4576999e-04
  2.4275803e-04
 -8.9664100e-05
 -3.0808143e-05
 -3.0269608e-04
  4.3711876e-05
 -2.5607125e-04
  1.0113614e-05
  1.4274745e-04
 -2.5746089e-05
 -1.6785417e-04
 -5.8382830e-05
  3.6812367e-04
  4.3815722e-05
 -6.7137080e-05
 -4.8505426e-06
 -2.3013523e-05
  2.0002366e-04
 -5.9109894e-05
  3.5126803e-05
  1.6979608e-04
 -8.5514570e-05
 -1.5374077e-05
  8.3217137e-06
  8.8491634e-06
  1.3006655e-07
 -8.9773050e-05
 -3.7034915e-05
 -2.5464378e-05
 -5.5241948e-05
 -1.9377303e-05
 -9.8872231e-05
 -5.6613138e-04
 -8.3142248e-07
 -9.5182833e-05
 -4.4431006e-05
  2.6245829e-05
 -3.8138089e-05
  4.9650043e-05
 -1.7214203e-04
 -1.7499762e-04
 -4.8464695e-05
  1.4947362e-04
  1.4729708e-04
  9.9838544e-05
  9.8118835e-05
 -1.1004148e-04
  9.1120164e-05
  2.5849085e-05
 -6.5891189e-05
  4.0786411e-04
  1.2405982e-05
  3.3658871e-04
  5.3487624e-05
 -2.4428018e-05
  2.3619206e-05
 -1.7316246e-02
 -2.5166746e-05
 -4.4117176e-05
  1.3190774e-05
 -6.3792970e-05
 -8.5176234e-06
  1.1388996e-04
 -7.3959469e-05
 -2.1455763e-04
  1.8618204e-05
  5.5650373e-05
 -4.2387110e-05
  8.0322083e-05
  7.2361386e-06
  3.7230813e-05
  3.5770681e-06
  2.6479532e-04
 -2.0651286e-04
  1.4260624e-04
  6.4740375e-06
  8.0391903e-05
 -5.4388489e-05
  8.2647450e-05
 -1.0247675e-04
  8.2052247e-06
 -1.3993646e-05
  1.9275951e-05
 -1.8997060e-04
  1.2696077e-04
 -1.4162956e-05
 -1.8089169e-01
  3.9140725e-01
 -1.5299617e-01
  3.3188619e-05
 -4.5198601e-04
  2.5527106e-04
  1.9796553e-05
  1.7112762e-06
  5.5170254e-05
  4.6938683e-05
 -4.5658238e-05
 -7.0259412e-05
 -4.4244283e-05
  1.3598987e-05
  4.1734980e-05
 -8.2547427e-05
  3.0508425e-04
  8.1676139e-05
 -3.6705701e-04
 -9.6139011e-05
  2.1781711e-04
  9.8092969e-05
  3.4786128e-05
  6.5182379e-05
  5.3904303e-05
 -1.8388843e-04
  5.4941559e-04
  3.8998936e-05
 -6.8540052e-05
 -1.2977899e-04
  6.0036389e-05
  6.7926660e-05
 -9.5487369e-05
  2.9835149e-04
 -8.2764513e-05
 -3.4362740e-05
 -3.6043799e-05
 -2.5163152e-05
 -1.0120014e-04
  3.9781276e-05
 -1.4375552e-04
 -1.3673799e-04
 -2.4834264e-04
  1.7455628e-05
  2.4114584e-04
 -2.3516304e-04
  3.7625763e-05
  1.8780243e-05
 -1.0174818e-04
 -6.5052067e-05
 -3.4999572e-05
 -6.4891710e-06
 -1.0554735e-04
  1.4805078e-04
 -9.5043230e-05
 -1.8784629e-05
  6.5158420e-05
 -1.0932135e-04
  1.5552963e-05
  6.0652437e-05
  1.2674181e-04
 -3.2698110e-05
 -1.8409078e-04
 -1.8167890e-05
 -5.6866105e-05
 -5.8749970e-04
 -4.4208482e-05
 -1.1893267e-04
  2.0167429e-04
 -4.4162365e-04
  2.1072126e-04
  1.4631066e-06
 -3.7902582e-04
 -4.8179709e-06
  1.5013190e-05
 -1.0321387e-04
  3.8677576e-05
  1.5921913e-05
 -2.0319782e-04
  3.0024808e-05
 -1.2674872e-05
 -2.7507043e-04
  2.7151142e-05
 -4.7046320e-05
  3.3603636e-05
  1.9767916e-05
 -1.0250798e-05
  8.7014116e-05
 -1.6778901e-04
 -6.7817811e-05
 -9.6273765e-02
  3.8536356e-05
  1.7870298e-05
  4.5275930e-05
  2.2081844e-05
 -1.5991724e-04
  4.3772470e-05
  4.6585112e-05
 -1.8884067e-04
  6.1678002e-05
 -3.4613236e-05
  5.7512276e-05
 -8.7756343e-05
  3.2836315e-04
 -1.9416862e-04
  7.2495069e-04
  1.2185747e-05
 -6.1719084e-06
  1.8503355e-05
  1.1701290e-04
 -2.7463084e-05
  5.7231489e-05
  1.8126877e-04
  1.4838454e-04
 -2.7425975e-05
 -2.8028074e-04
 -6.6780805e-05
  3.7983780e-05
 -3.4288627e-05
 -1.1389533e-04
 -7.1047543e-05
  7.4175572e-05
 -3.4826287e-05
 -2.8975193e-05
  4.5756282e-05
  1.1468863e-04
 -2.9549217e-05
  5.5374519e-05
  4.8996997e-04
  1.7315044e-05
  1.6337692e-05
 -1.0772501e-05
 -3.0484566e-04
  4.9891358e-05
 -8.2263548e-05
  6.3597572e-06
  1.0792001e-04
  1.0870161e-04
  3.2740556e-02
  1.8699764e-05
 -6.6864712e-05
  2.6202893e-06
  1.3717162e-04
 -3.1511485e-05
  1.4906345e-04
  5.4465495e-06
 -5.8362766e-06
 -1.6014143e-04
 -1.3624030e-04
 -6.5746582e-01
 -1.3371391e+00
  7.1622694e-01
 -1.5870533e+00
  8.6624527e-01
  6.0405323e-06
  1.2361065e-01
 -1.2451114e-01
 -8.7339744e-05
 -1.0615654e-01
 -1.4967732e-04
 -1.0115504e-04
  4.4044086e-01
 -7.1818795e-06
  1.3507234e-03
 -3.6305838e-04
  8.1823561e-03
  5.0953235e-02
  2.0509173e-05
  2.4487540e-01
  6.7643668e-05
 -7.9249468e-05
  1.9369087e-01
  1.2007841e-05
 -7.0147603e-03
  8.5390035e-05
  3.3372129e-05
 -3.2204963e-04
  2.7758013e-05
  1.6445242e-03
 -5.1166517e-06
 -4.5598321e-05
  6.0879088e-06
 -1.1008194e-04
  2.9932187e-05
  1.4553602e-04
  1.1192861e-05
 -3.5577457e-05
 -7.2581082e-05
 -9.5416426e-06
 -3.1018277e-05
  2.1660131e-05
  9.5659612e-05
  1.8826799e-05
  1.5532618e-04
 -7.4403921e-05
  2.0668448e-04
  2.5239533e-05
 -9.1917893e-05
  1.1414066e-04
  7.8375415e-05
 -1.5539359e-04
 -2.3120151e-04
 -3.3716602e-05
 -1.1300002e-04
  1.4709542e-04
 -2.4393463e-05
  1.2629325e-05
  5.9206854e-05
 -1.8666453e-04
  1.2771942e-04
  1.4512529e-05
  1.7681542e-04
 -1.5164040e-04
 -2.2464681e-04
  2.3785651e-05
  2.3205897e-04
  5.7394564e-04
 -9.4699943e-05
  2.5083487e-05
 -6.8028050e-05
 -9.4617746e-04
  1.1190698e-04
 -9.8780263e-05
 -6.1884930e-05
 -7.0922665e-04
 -7.9568454e-05
  1.7784425e-04
 -1.0997986e-04
 -5.8867224e-04
  8.4248595e-06
  6.1467865e-05
  2.5917080e-04
  1.5858295e-05
  1.6196237e-04
  4.6078891e-05
 -1.4584743e-04
  5.2576121e-05
  1.5934966e-05
 -3.2316995e-04
 -1.3981764e-04
  7.1041097e-05
 -2.4132238e-04
 -8.5621636e-05
  4.1661767e-04
  7.6794153e-05
  1.6344633e-05
 -1.7075483e-05
 -2.4886456e-05
  1.2965570e-04
  1.3633386e-05
 -3.9794188e-05
 -8.8811394e-06
 -4.8561480e-05
 -1.4015297e-04
 -5.7495621e-05
  4.9361148e-05
 -1.4111018e-04
 -2.7505189e-04
  1.5041182e-06
  1.7222237e-04
  1.6797565e-04
 -1.3881681e-06
 -1.1352947e-04
  1.0530365e-04
 -3.6598165e-05
  1.3852156e-04
  2.8243359e-05
 -6.6531087e-05
  8.9157338e-06
  1.7560110e-04
  6.9946349e-05
 -2.3395632e-04
 -2.5014454e-04
  4.0982937e-07
  3.5814533e-04
 -8.4405059e-05
  5.3893822e-05
  1.9039499e-04
  2.2215726e-04
 -2.2085010e-04
 -8.7689434e-05
  2.5360243e-04
  1.7825789e-04
  1.4470708e-04
  2.6977170e-04
  1.8847003e-04
 -5.5954020e-05
 -1.4780710e-05
  7.2362949e-05
 -2.2876354e-04
 -8.0601516e-05
  9.2485156e-05
  1.5768575e-04
  7.0373360e-05
 -9.5268413e-05
  2.5536248e-04
 -6.4385589e-05
  7.6654200e-05
  3.2231048e-05
 -4.6145213e-01
  4.1410524e-02
  5.5043031e-03
  8.5424542e-01
  1.0777582e-01
 -1.2603082e-04
  7.3015966e-02
 -1.8486882e-02
  2.9218352e-05
  8.1834900e-05
  1.1373316e-05
 -7.8727461e-02
  3.4416271e-03
 -2.3722867e-04
 -5.3361589e-01
 -2.6012810e-06
  4.9441992e-03
 -8.8159448e-01
 -3.8752874e-05
  2.6669833e-01
  7.1625116e-05
 -2.0085320e-04
  1.5207917e-02
 -2.7898554e-04
 -1.1854036e-01
  4.9506420e-05
 -8.4283020e-06
  4.4852920e-04
 -4.2104184e-05
  1.7204823e-02
  3.9535917e-05
 -3.9488924e-01
  2.8900737e-01
  6.3459238e-04
  6.9224705e-05
 -5.2481373e-05
 -1.7752437e-04
 -1.1951641e-04
  1.0583813e-06
  1.4668434e-04
 -2.2601369e-05
  5.0924922e-05
  1.6064855e-04
  3.5351466e-05
 -2.7957116e-05
  4.5307144e-05
 -1.1390507e-04
  2.6923151e-05
  1.6846818e-05
  1.8729421e-04
 -2.2863991e-05
  2.3909323e-04
  2.2889075e-03
 -9.7711472e-06
 -6.2253108e-05
 -1.9593617e-05
 -3.8634615e-05
  3.4312543e-04
  2.6335640e-04
 -7.7598306e-06
  1.0762588e-04
 -1.5564718e-05
 -2.6307929e-05
  1.2027667e-04
  7.5339063e-05
  8.0606165e-05
  1.5128062e-04
  7.8760153e-05
 -1.6974071e-05
 -3.9408904e-05
  4.0406176e-05
  1.7427241e-04
 -2.6660216e-05
 -2.2988550e-06
  1.2265479e-04
 -2.3270314e-04
 -1.5446608e-04
 -9.3764320e-05
 -2.4729886e-04
 -1.2788882e-04
  6.4811538e-05
 -1.4425340e-04
 -1.3444772e-04
  1.3106827e-04
  1.6565016e-06
  6.6571389e-05
 -1.4014060e-04
 -9.3628238e-05
  6.9049158e-05
 -4.6294465e-04
  1.0100746e-04
  1.4126817e-05
  1.2138342e-04
  4.2724804e-04
  1.0365409e-04
 -1.4734053e-04
 -1.3390787e-04
  4.0654315e-05
  2.3431542e-06
  1.2871691e-05
 -2.0745171e-04
  1.1958336e-04
  6.1853287e-05
  1.7102213e-04
  1.7994115e-04
  1.1709247e-05
  3.1778451e-05
  1.0147656e-04
 -2.7715828e-04
  5.4805854e-04
  1.2976356e-04
 -1.0224467e-04
 -1.0163537e-04
  7.7855242e-05
  8.2009668e-05
  1.5715290e-05
 -8.4850952e-05
  1.0737087e-04
  1.4115305e-04
 -4.5234356e-05
 -1.8330431e-05
 -1.8460017e-04
 -1.5955697e-05
  2.1102339e-04
  5.0749758e-04
  1.6553749e-05
  9.5609736e-05
 -8.6230757e-05
  3.6488645e-04
 -1.5016881e-06
  4.4563596e-05
  2.3611941e-04
 -4.5503484e-04
  3.8404099e-04
 -8.0037345e-05
 -5.2702228e-05
 -6.3331005e-05
  2.8181213e-07
 -1.2237042e-05
  5.3387052e-05
  6.0961429e-05
 -8.3924868e-05
  2.9375247e-04
 -7.3679083e-05
 -9.1353555e-05
 -6.4957319e-05
  4.3512253e-05
 -4.7133799e-06
 -3.0415633e-05
  1.2550203e-04
  1.1915079e-05
 -3.3023109e-05
  6.6766537e-05
  7.5379378e-01
 -1.4717418e-05
  9.2694630e-05
 -9.3917415e-06
 -1.7280645e-04
 -3.4414421e-04
 -6.3313241e-04
 -2.5303059e-04
 -1.1085413e-04
 -9.4074836e-05
  6.3156571e-05
  1.2633317e-04
  1.0713300e-05
  1.6768732e-05
 -1.4039254e-04
 -1.1697043e-04
 -7.0232316e-05
 -4.4588465e-05
  1.3244699e-04
 -1.8716961e-04
  8.6246691e-05
  1.4440803e-04
 -1.5265937e-04
 -9.2679984e-05
 -1.3433163e-04
  1.1539129e-05
 -5.0728951e-05
  1.3173309e-04
 -8.9473262e-02
 -1.5785466e-03
  8.6428845e-05
  9.6442163e-05
  1.3303429e-04
 -1.3533216e-05
  7.3445746e-04
  2.6310782e-04
 -4.1983117e-06
  6.3072403e-05
  5.9751578e-04
 -3.7006974e-02
  4.9869206e-05
 -9.9566323e-06
  5.6554290e-05
 -1.4521425e-04
 -4.2260592e-05
 -4.5312787e-05
  2.2327002e-05
  9.9700599e-05
  1.0080581e-05
 -5.1811508e-05
  8.1818711e-05
  4.8126513e-03
 -1.0608232e-04
  4.4461583e-05
 -5.4398111e-05
  9.8820863e-05
 -1.6846127e-04
 -1.4405831e-04
  1.0494131e-05
 -1.3721580e-05
 -2.0472597e-05
  6.9051181e-05
  7.7535071e-05
 -9.3491210e-05
  6.8723144e-05
  4.2674023e-05
  5.4701355e-05
  1.7843809e-04
 -1.3464124e-05
 -1.7135295e-04
 -1.7965592e-04
  2.7976979e-05
  5.1140480e-05
  8.4544663e-05
  5.6362023e-05
  4.6608343e-06
 -3.5019249e-05
 -3.1082785e-05
  1.7803153e-05
 -3.6238995e-04
  3.2537841e-04
  9.9809338e-05
  1.9242079e-04
 -3.2571737e-05
  5.1591214e-05
 -2.2924255e-04
 -1.5053940e-05
  8.4031254e-01
  6.4868623e-01
 -4.8751328e-02
  7.1121104e-02
 -1.7901459e-01
  2.4501473e-04
 -2.9344198e-01
  1.4790173e-01
  9.9819787e-02
  1.0891141e-01
 -1.2268051e-05
  1.5605690e-01
 -2.6235202e-01
 -3.2628894e-05
  7.1787402e-02
 -3.4792197e-06
 -1.0172243e-01
  1.4625256e-01
 -4.0392573e-05
 -1.4960051e-01
  7.4248666e-05
 -1.3315061e-04
 -1.0542472e-01
  8.5859683e-05
  8.0383128e-01
 -1.9202471e-06
 -3.1653981e-04
 -1.0418925e-01
 -1.2647102e-04
 -1.4329433e-01
  2.3878161e-04
  1.0372411e-04
  7.8357567e-05
  6.9616690e-05
  1.3883882e-04
 -5.0492268e-05
 -1.5635167e-05
  4.3244087e-05
 -1.1297928e-04
 -4.2746189e-05
  3.0523495e-04
  3.3072003e-05
 -1.1187087e-06
  3.8949300e-05
 -1.5430471e-04
  9.7918128e-06
  2.5656174e-05
  9.3388488e-05
  2.7262393e-04
 -5.6758818e-05
  1.4491733e-04
 -2.1861799e-04
  4.5460745e-04
  3.5629870e-04
 -1.5884262e-04
  3.5873934e-05
  1.1077920e-04
  8.8361179e-05
 -2.2767083e-05
  5.3685399e-05
 -3.1569834e-05
  2.5461228e-05
 -8.9164947e-05
 -1.5155046e-04
  8.2762948e-05
  2.2699578e-04
 -7.6522345e-05
  1.4113843e-04
 -8.9321104e-05
  1.3529604e-04
  4.4341363e-05
  4.6733196e-05
  3.5461569e-05
 -2.6965857e-04
 -5.3870997e-05
  1.7603902e-04
 -4.6390782e-05
 -4.4702960e-05
  2.5277722e-04
 -2.4818122e-05
  3.5057670e-05
 -3.8903294e-04
 -6.2627711e-05
  2.3226351e-04
  1.4855791e-04
  1.2359829e-04
 -5.8231133e-05
  8.4357243e-06
  1.7510896e-05
 -1.3049389e-04
  6.2926396e-05
  4.9133287e-05
 -1.0497031e-06
  3.4440247e-05
 -7.8390995e-06
 -4.1005592e-04
 -3.2949081e-04
 -9.1506037e-05
  4.3875858e-05
 -9.0238893e-05
  1.0351529e-04
 -3.3427434e-05
  1.6882239e-04
 -7.3219322e-05
  1.7162003e-05
 -2.0555875e-04
  3.7339842e-06
  3.2290503e-05
  2.9648849e-01
 -4.0048684e-07
  2.3388308e-04
 -3.2142696e-05
  2.4731073e-05
  1.6855361e-04
  5.8573531e-04
  3.6227892e-05
  1.7362904e-04
  1.2095723e-01
 -2.5533902e-04
 -1.4097290e-05
  6.9959999e-05
  2.4501654e-05
 -3.5209723e-05
  2.1303404e-04
 -6.9800933e-04
  1.2939057e-04
  5.6993690e-06
  8.9457651e-05
 -8.8795656e-05
  1.8367362e-05
  1.1536483e-04
  6.5820881e-05
 -9.8465840e-05
 -1.8285393e+00
 -1.7024613e-04
 -5.4030628e-05
 -2.8714900e-05
 -9.1018832e-05
 -4.8111892e-01
 -2.0636719e-04
 -4.8390402e-06
 -1.8056864e-05
 -1.4428581e-07
 -6.5129934e-05
  7.9543221e-05
  1.3507546e-05
  3.6882758e-01
  1.8403780e-04
  8.4933446e-05
 -2.2642517e-04
 -9.4311647e-05
 -9.3575165e-02
 -3.9899016e-05
 -7.1712122e-05
  7.7605575e-05
  1.3032246e-02
 -1.5759433e-04
 -1.3356221e-01
  1.8752760e-01
  6.8742389e-05
  5.9382557e-05
  2.7083677e-05
 -2.5121417e-04
 -9.4088191e-01
 -7.3079696e-06
 -3.1349075e-05
  1.9964819e-04
 -6.7359164e-05
 -8.4207922e-01
 -1.6062385e-01
 -7.8179779e-05
 -1.0471199e-04
  2.2934469e-04
 -1.6378802e-01
  1.4605314e-01
  1.0748293e-04
  1.3721631e+00
  7.7576493e-05
 -5.4466582e-05
  1.8123379e-04
 -8.4096107e-05
  1.2082556e-04
 -1.6540301e-04
  3.7125376e-04
  6.0524920e-04
 -3.7974158e-05
 -4.2213988e-04
 -9.4563722e-05
 -1.1013832e-05
  8.4135929e-05
  1.7384038e-04
  6.8647632e-06
  3.7483034e-05
 -2.1294228e-04
  1.7034441e-05
 -5.4210701e-05
  2.5634281e-04
 -1.1963831e-05
  3.7960130e-05
  5.3226340e-05
 -9.8058772e-05
 -2.2824018e-04
 -9.6229924e-05
  4.4640252e-05
 -1.1656012e-04
  6.3410516e-05
  5.3257503e-05
  3.4888881e-06
 -8.4428691e-05
  1.1651738e-04
 -6.1105049e-05
 -1.0533196e-04
  6.0790586e-05
  4.9626553e-05
 -3.0634394e-05
 -6.0625789e-05
  1.7823208e-04
  9.7039838e-06
 -1.0125487e-04
  9.3331590e-05
 -6.1745413e-05
 -1.1093879e-04
  4.1755160e-05
  1.1906618e-04
 -2.2598970e-05
 -3.6828371e-06
  4.2633870e-05
 -7.3102821e-04
 -3.4815686e-05
  1.9416763e-04
 -2.5449760e-04
  1.4098395e-04
 -1.4419114e-04
 -5.1650997e-05
  2.0373528e-04
 -6.0530117e-05
  2.8703867e-05
 -1.4937861e-04
  1.6923515e-04
 -1.7181686e-05
 -3.5232213e-05
  5.3425782e-05
 -2.9126804e-05
  1.6361139e-04
  1.6192548e-04
 -1.1613969e-04
  7.8128483e-07
 -1.1514748e-05
  2.2649119e-04
  8.6623120e-05
  8.5147956e-05
  2.2879301e-04
 -3.8612008e-05
 -3.5097753e-05
  3.1141924e-05
  5.0369887e-05
 -9.5087053e-05
  5.2479914e-05
 -1.5084665e-04
  2.1919870e-04
 -1.8738085e-04
 -3.5472438e-04
 -1.1987573e-04
 -1.1478997e-04
 -1.6831065e-04
  1.2389953e-04
  1.1086056e-04
 -4.8240810e-05
  4.3461605e-05
  1.9668514e-04
 -6.2972933e-05
 -2.1143367e-04
 -3.8435799e-05
  4.9000614e-06
 -1.8414005e-04
  1.0287014e-04
  5.9941121e-05
 -6.2234089e-05
  8.7623768e-05
  4.7014526e-04
  2.7284737e-05
  1.1646394e-04
  6.2739142e-05
  2.1427499e-04
  3.8909665e-04
  5.1637224e-05
 -3.1390809e-04
 -2.9698431e-05
 -2.6114705e-05
  5.6556379e-05
  9.4222378e-05
  1.4547008e-04
  1.9913213e-04
 -3.0532909e-05
 -4.2885709e-05
 -8.9677155e-07
 -3.7073484e-04
  1.2089009e-04
 -1.5341614e-04
 -2.1448373e-04
  8.6343382e-05
  6.2814986e-05
  1.6918402e-04
  3.4541500e-04
  8.7583598e-05
 -5.7011439e-05
  3.0830808e-05
 -1.6356847e-04
 -1.8297396e-04
 -3.2862070e-05
  2.1444888e-04
  2.3491899e-04
 -1.0731783e-04
 -2.4277999e-05
 -8.5258216e-05
 -2.4856586e-04
 -4.9987422e-05
 -1.4692551e-04
  1.5998846e-04
 -1.6454131e-04
  5.2462379e-04
 -8.7155759e-06
 -7.2336043e-05
 -6.7217625e-05
 -3.5940899e-05
 -1.6285619e-05
  8.2327919e-05
  2.2439373e-04
 -8.2557068e-05
  2.5468749e-05
  7.7534105e-06
  7.7293198e-06
  3.1611238e-05
  8.2152517e-05
 -4.1867010e-05
 -6.8074864e-05
  9.4545067e-05
 -1.1317804e-04
 -6.4953558e-05
 -2.6159169e-05
  1.6001150e-05
  1.5457619e-04
 -2.5396828e-06
  6.5819433e-05
  1.9777048e-04
 -7.6295422e-05
 -1.3923047e-04
 -3.5789589e-04
 -6.0641330e-05
  1.0079284e-04
  1.0187799e-04
 -6.6142449e-05
 -1.9291110e-04
 -2.4743442e-04
  1.2831923e-04
 -2.1755091e-04
  2.4508417e-05
 -3.5669701e-04
  2.2139691e-05
 -2.3724504e-04
  2.7469498e-01
 -5.2032888e-01
 -2.2754972e+00
 -3.2813585e-01
  1.1099559e+00
  1.3387126e-04
  2.2950023e-04
  2.0742331e-04
 -2.6407740e-01
 -4.5817184e-01
 -2.1412518e-06
  9.2836461e-05
 -2.7331373e-05
 -2.2829936e-01
 -3.3886331e-01
 -1.0689096e-04
 -7.0119463e-06
 -3.8794893e-05
  1.4871322e+00
  3.3041738e-02
 -1.5420055e-04
 -7.8043653e-05
 -5.1285497e-05
  6.5665781e-01
 -8.5479248e-01
 -3.3978054e-06
 -4.1488041e-05
 -1.5273528e-05
 -3.5062528e-04
  1.0355228e-03
  1.9482435e-01
  3.1527358e-01
  4.3415126e-01
 -7.6933807e-01
  5.5719966e-01
 -2.5327818e-05
  7.1088475e-04
  2.8283478e-04
 -2.5068570e-03
  2.6696107e-01
  9.4206785e-05
 -5.0452818e-05
 -2.0169724e-04
  3.2829124e-01
  1.2613802e-04
  5.7064302e-05
 -2.6413447e-06
 -1.7339591e-04
 -1.6716731e-04
 -5.3269260e-02
  2.2974016e-05
 -1.6651273e-05
  2.7317181e-04
  8.9325448e-03
 -5.9950984e-05
  1.3432698e-04
 -1.9974505e-04
  7.4583563e-06
  2.6223743e-05
  2.0073495e-04
 -1.4916324e-04
 -1.8370200e-04
 -1.1765469e-04
  3.6874951e-06
  7.7234159e-05
 -1.0558735e-05
 -5.0231723e-05
  2.8375056e-01
 -4.6242878e-04
  1.6738009e-04
 -1.1026873e-05
 -2.0057980e-05
  1.1626863e-04
 -2.0780555e-04
  7.0234546e-07
 -5.8285859e-05
 -5.5614921e-05
  8.1888269e-05
 -1.3036313e-04
 -5.8337002e-05
  5.3868783e-01
 -3.6051555e-04
 -3.6939668e-06
  1.5419509e-04
  1.0281818e-05
  8.8978610e-05
  1.3585071e-04
  5.3014915e-05
 -1.2853896e-04
 -1.6052384e-04
 -1.5107112e-01
  2.9116811e-02
 -1.4556334e-05
  3.0241507e-01
 -2.8650880e-05
 -6.2491868e-05
 -4.9841896e-05
 -9.2015478e-05
  8.3630538e-04
  2.8401506e-04
  2.7509048e-04
  7.1875715e-05
  4.1270352e-05
  2.4987752e-05
  1.8047910e-03
 -1.8666794e-04
  6.8053938e-05
  3.1807699e-06
 -1.0188323e-01
  3.3793831e-03
  7.4465665e-05
 -4.4856963e-05
  2.1122141e-05
 -8.1239341e-05
 -2.1440937e-01
  5.7854617e-05
  1.2798014e-04
 -4.4031221e-05
  2.4892634e-04
  3.1626067e-05
 -5.8962060e-03
 -1.4083705e-02
  5.6413508e-05
  1.5993927e-01
 -7.9259289e-06
 -6.0476170e-05
 -3.8568072e-05
  2.3179815e-05
  1.6715373e-04
 -1.3122291e-04
 -1.1484544e-04
 -3.1626878e-05
  5.1368999e-05
 -8.0294944e-02
 -1.6117643e-05
 -2.3935875e-04
 -4.8986025e-05
  4.7389538e-05
  4.1619773e-05
  1.0440818e-04
  8.7253466e-05
 -1.4738851e-04
  3.5308488e-04
  1.0709854e-05
 -9.1205664e-05
  6.0529324e-05
  1.7385199e-05
  1.6637046e-05
  3.3239770e-04
  1.4628393e-04
  2.2388779e-04
  2.0157656e-04
 -6.0836661e-05
 -7.7733697e-05
  1.9070658e-05
  4.9778253e-05
 -3.8051283e-05
 -1.7557708e-04
 -1.7798133e-04
 -1.4305057e-05
 -8.7442480e-05
 -4.1418531e-04
  2.5003785e-04
  2.4102566e-04
  3.7714184e-07
 -9.6801625e-05
  2.4929190e-05
 -8.8092384e-05
  9.5998221e-05
 -4.7519716e-05
  1.4582502e-04
 -7.4851431e-04
 -1.8291044e-05
 -7.0753908e-06
 -1.4949662e-06
 -1.0732421e-04
 -1.1999803e-05
 -1.4172897e-06
  4.4263805e-05
 -4.2862510e-05
 -1.9996045e-05
 -1.5422966e-05
  2.1397242e-05
  1.2932961e-05
 -4.2916150e-04
  3.2163840e-05
 -3.0284707e-05
  5.0476807e-05
  1.7373295e-05
  1.6134529e-05
 -1.1475321e-05
 -2.6052865e-05
  1.1338312e-05
 -1.5576510e-04
  1.5600696e-04
 -1.2927841e-04
  5.6119170e-05
  1.3423321e-04
  7.5491809e-04
  3.3299709e-04
  1.0237081e-04
 -8.9293957e-05
  3.8126105e-05
  2.8053373e-05
  1.2879813e-05
 -7.5509711e-06
 -3.0585725e-05
 -4.2757623e-05
 -4.3846917e-06
  1.0396037e-04
 -2.4171753e-01
 -2.8812954e-01
  3.5671546e-04
 -1.3781388e-01
  7.8673502e-06
  1.3906372e-04
  6.5555895e-04
 -3.7781743e-04
  1.3149985e-03
 -6.4562273e-04
 -1.5368025e-02
  6.0151087e-05
  1.3011723e-05
 -1.9474439e-02
  8.8083051e-04
 -5.0477862e-05
  1.7234375e-04
 -7.8979843e-05
 -5.1926261e-05
  8.0093779e-02
 -6.6862100e-05
  4.8244801e-05
  3.4079081e-04
 -8.9167352e-06
 -1.5358093e-04
 -2.4981233e-05
 -1.9230069e-05
 -4.0621424e-05
  2.2368910e-04
 -1.7387389e-04
  3.6097854e-02
  1.7956285e-01
  3.2112634e-01
  6.0687685e-01
 -2.5591489e-02
 -5.3594547e-05
 -1.0401309e-04
  3.6048721e-05
  2.3194258e-01
  7.4499232e-01
  5.8379825e-05
 -1.5778141e-04
  1.0837991e-04
 -9.4782060e-01
 -2.2579022e-01
  4.6790417e-05
  1.8740793e-04
 -1.9371991e-04
  2.3307890e-01
 -7.4327648e-01
  6.4584434e-05
 -6.8068941e-05
 -3.0799140e-04
 -7.6225775e-01
  7.2113341e-01
 -1.7882183e-05
  2.7399998e-05
 -1.8039359e-04
 -3.2719505e-01
  6.1830773e-04
  2.5134748e-05
 -5.1195595e-05
  2.0317850e-05
  4.1403284e-04
 -3.5360052e-05
 -2.2850601e-05
  3.1198972e-04
  5.9118043e-05
 -1.6433933e-04
 -1.7378714e-05
 -1.0313634e-05
 -6.0132891e-04
  1.7086243e-06
  1.0841517e-04
 -1.6459811e-04
  4.1655589e-05
 -1.9921277e-05
 -5.5024371e-05
  1.2047027e-04
  6.5365122e-05
  1.3146357e-04
 -5.1286825e-05
 -8.7942783e-05
  8.3763596e-05
 -5.2147629e-05
  4.7564387e-04
 -6.6733875e-05
  6.2366787e-05
  7.5409407e-05
  3.3244197e-04
 -1.9905312e-01
 -4.1569951e-01
 -1.1262687e-01
 -1.6437115e-01
 -2.9282892e-04
  3.8239934e-05
  7.8356490e-05
  1.7111779e-04
  3.7176357e-04
 -4.3787991e-04
  1.8247188e-04
  2.2954664e-04
 -1.2998366e-04
 -5.2617483e-02
  2.0528480e-03
  3.9821472e-05
 -4.8694536e-05
 -1.3109812e-04
  2.2884367e-04
  1.7617275e-01
  7.6376404e-05
  1.7965091e-05
  3.9342573e-05
 -5.3798380e-05
 -1.2339953e-05
  5.7165013e-05
  8.6825739e-06
 -5.1694351e-05
 -1.6540704e-04
 -3.1496218e-04
  2.1548146e-04
 -3.7242112e-06
  2.0300673e-04
 -3.1505548e-05
 -1.2700164e-04
 -8.6588596e-05
  1.8824251e-04
  2.4206736e-05
 -8.0551763e-05
  1.0928361e-04
  3.8829174e-05
  1.5587980e-04
 -2.1408129e-04
  1.4593739e-05
 -1.6366997e-04
  1.4833983e-05
 -4.6712048e-05
  9.9249482e-05
 -3.2034444e-05
  1.4133989e-05
  1.6558693e-05
 -2.5572965e-06
 -3.2930554e-06
 -2.3929667e-04
  1.1405919e-04
  7.0970367e-05
 -2.2774528e-05
 -1.3217503e-04
  6.3683314e-05
  4.1486859e-05
 -2.6787072e-01
 -1.8653400e-01
 -1.8166266e-02
 -1.4364900e-02
 -5.2609704e-03
  5.2538595e-05
  2.3886003e-05
 -1.7563376e-05
  1.4344329e-03
 -2.2413534e-04
  3.5195204e-05
  1.3010409e-04
 -3.7932117e-05
 -9.4632663e-02
 -2.3777882e-05
 -2.0017364e-05
 -2.4450033e-05
  6.7086694e-05
  2.6337061e-06
  9.0296902e-02
  3.3441404e-05
 -2.8300121e-05
 -2.7401038e-05
 -1.2419682e-03
 -2.5346026e-02
  1.3147578e-05
  3.2776668e-05
  2.1397315e-01
  4.7781835e-03
 -2.7702781e-05
  1.8200168e-04
 -1.1304207e-04
 -2.8136275e-05
 -1.2658056e-04
  5.6211698e-05
 -2.5169362e-04
  2.4120758e-04
  2.1090209e-04
 -7.6615557e-05
  5.5231934e-04
  1.4453211e-04
  6.3082531e-05
 -9.2035298e-05
 -4.2970325e-05
 -8.0241560e-05
 -1.0840694e-04
  1.7971033e-04
 -4.3912471e-05
 -3.0015843e-04
  5.0482366e-05
 -1.3084122e-04
  1.1918411e-05
  3.0173063e-05
  3.3958371e-05
  5.1415209e-05
  1.4721214e-05
  8.7555281e-06
 -1.0154903e-04
 -4.8996091e-05
 -1.2405333e-05
  6.8097150e-01
  8.3608061e-02
  3.6626628e-01
  2.7928579e-01
  9.2932865e-02
 -2.0698374e-04
  5.1364001e-05
  9.6426236e-05
  3.7517965e-02
  8.9945626e-03
 -1.1931913e-04
  5.1667830e-05
  8.4067047e-05
  4.0556651e-01
 -9.4157293e-02
  3.7662390e-05
 -1.3810664e-04
  7.8029174e-05
  2.4612251e-01
 -2.5354871e-01
  8.0744707e-05
  1.5593812e-04
 -1.7382597e-05
 -5.1195242e-02
  1.4116297e+00
  8.6074746e-05
 -5.0223731e-05
 -1.6837606e-04
 -1.4021970e-01
  2.2386463e-04
 -6.5295183e-04
 -1.1862631e-04
 -2.2422103e-06
 -4.2203523e-04
  3.2440562e-06
 -1.9058998e-04
  3.4463328e-06
 -7.3785057e-05
 -1.1674080e-04
 -7.9609781e-05
 -5.4897104e-05
  1.5308401e-04
 -1.6821325e-05
 -2.1633529e-04
 -2.9621449e-05
  2.5606540e-04
 -6.5339955e-05
  5.9528207e-05
 -4.7775076e-05
 -5.1647246e-05
  1.3655945e-04
 -8.0833497e-06
 -9.9467514e-05
 -1.9201644e-04
 -1.0764143e-04
 -4.0053771e-04
 -4.5661192e-05
  1.4472946e-04
  2.0968846e-04
 -2.0653823e-05
 -4.8764440e-01
  1.7132050e-01
 -3.4951353e-01
  5.6515664e-01
 -7.5520378e-01
 -4.2062449e-05
 -2.3674325e-04
  1.4358277e-05
  1.4469504e-03
 -1.2951845e-03
 -6.1620587e-05
 -1.5410171e-04
 -1.0535346e-04
  1.9718680e+00
  1.4155750e-04
 -8.4276098e-06
 -1.5644550e-04
 -2.9253549e-04
 -1.5490551e-01
  9.3639530e-02
  3.1516742e-05
 -1.1574870e-04
  9.9617399e-05
 -2.5969559e-02
 -1.7385133e-01
 -2.4026852e-04
 -4.5034227e-05
  6.4801347e-06
 -1.1945987e-05
 -2.2616671e-04
  1.2557708e-04
  4.6910069e-04
 -7.7247751e-06
  4.6604615e-05
  2.7188620e-05
 -2.5806041e-04
 -1.9669640e-05
  8.3840845e-05
 -1.5236893e-04
 -4.8007583e-05
 -1.4294242e-04
  5.9624879e-05
 -4.4501480e-04
  1.3846766e-04
  5.2420369e-06
  1.2361554e-05
 -2.2270017e-04
  2.9262243e-05
 -5.1824620e-05
 -1.9000810e-05
 -1.7651495e-05
  9.3238805e-06
  1.3218400e-04
 -6.2009058e-05
  2.8294366e-05
  2.1311944e-05
 -2.3132427e-05
 -3.2496275e-06
  2.9328437e-06
 -1.9941565e-04
 -1.7450744e-01
 -1.3635175e-01
  4.2097512e-01
  1.1326710e-04
 -9.0874331e-05
 -1.6017617e-05
 -1.6807698e-04
  2.7777307e-04
  1.3553881e-04
 -5.5422634e-04
  1.3804485e-04
  9.4585965e-05
  2.5953451e-04
 -1.2571780e-02
 -1.9957054e-06
 -5.1752620e-05
 -1.6301350e-05
 -1.4602959e-04
 -4.6091394e-05
  2.2640860e-02
 -4.1987627e-05
 -3.9742725e-05
  4.1555115e-05
  7.7103687e-05
  9.0021960e-05
 -1.2308641e-04
 -2.8577598e-04
 -3.1331308e-02
 -1.0671002e-04
 -7.4091367e-05
 -1.2410963e-01
 -8.4976852e-01
  2.6725855e-04
 -1.5232730e+00
  3.1084660e-01
 -8.6354150e-04
  1.7913886e-04
  1.0743496e-04
  1.3003712e-04
 -3.6501771e-04
  1.2622302e-04
  2.3094063e-04
 -8.0483471e-05
  3.2602337e-03
  7.9101861e-02
  5.9362639e-05
  5.1730458e-05
 -2.4838926e-04
  7.2071208e-03
  2.4564718e-01
  2.0847881e-05
 -2.3916946e-04
  4.9388731e-05
  7.6201330e-05
 -1.5301847e-01
  1.5880784e-04
  1.7941446e-05
 -5.4454755e-05
  1.4635442e-02
 -4.9427844e-04
 -2.0393834e-04
  1.5521942e-04
  3.1605465e-05
 -4.1159645e-05
 -3.2636628e-05
 -6.5364773e-05
  1.0003739e-05
 -1.8742436e-04
  6.2508088e-06
 -1.6449751e-05
  2.7452979e-05
  1.7914199e-05
  1.0615800e-05
  2.7471393e-05
 -2.1193581e-04
 -1.6194861e-05
 -1.0950738e-04
 -2.1569742e-04
 -4.6824804e-05
  5.5829572e-05
  1.2951253e-04
 -6.1114166e-05
  5.0517752e-05
  1.7355652e-04
  7.8082398e-05
 -5.1392501e-05
 -3.6967933e-05
  9.7333672e-05
  3.6675228e-05
  1.3783584e-04
 -9.5787153e-02
 -5.2273478e-02
 -1.5872865e-04
 -6.7339250e-04
  3.4099498e-06
 -5.3825908e-05
 -9.3599134e-05
  1.0877593e-04
  4.3725850e-05
  2.6782875e-05
 -8.7086104e-05
 -7.4466945e-05
 -1.6220869e-05
 -4.4791991e-06
 -5.7061020e-06
 -1.5793815e-04
 -1.1353740e-04
 -2.3638337e-05
  4.2223990e-05
 -8.0233272e-05
  1.2826313e-04
  2.9008486e-04
  2.0640943e-04
  1.0977750e-04
 -3.3906719e-04
  1.5234497e-06
  6.3969688e-05
  1.9953241e-04
 -2.3324010e-05
  3.2218821e-05
 -3.0326059e-01
 -2.1964939e-01
 -1.1168756e-01
 -1.4276852e-01
 -2.0363543e-04
 -1.1262597e-04
  3.5558565e-05
 -1.8262811e-04
  7.8620829e-02
 -6.8042231e-05
  1.0437790e-04
  1.2613672e-05
 -4.6231700e-05
 -4.9596384e-02
  3.2271113e-04
 -2.2294084e-04
 -9.2526803e-05
  1.2795805e-04
  1.0696263e-05
  8.5467398e-02
 -1.7773081e-04
  2.1697821e-05
  9.5679825e-05
  9.6913144e-02
 -4.9077228e-02
 -2.4841587e-05
  3.9570688e-05
 -1.4203283e-04
 -9.0918793e-06
 -1.7664718e-04
  3.0637256e-04
  2.4399048e-06
 -6.4457316e-05
  1.1895318e-05
  5.4190128e-05
 -7.1879374e-05
  3.5470433e-04
  1.8401430e-05
  8.6590095e-05
  4.4661097e-04
  1.5185721e-04
  1.5886981e-04
  1.2056542e-04
  1.4403395e-04
 -1.1038493e-04
 -1.7033365e-04
 -2.4636652e-04
 -4.3527760e-02
  4.6154797e-05
  6.8225156e-05
 -6.4265463e-05
  6.6335204e-05
  2.0060381e-05
  1.0213163e-05
  4.1646814e-05
 -1.4518024e-05
  1.3647189e-04
 -4.5145425e-05
 -1.2639663e-04
  4.2480086e-05
 -7.7186311e-09
 -8.9537070e-06
 -3.7120080e-01
 -5.4664226e-05
 -2.2399192e-06
 -3.9099637e-04
 -1.0714675e+00
  2.1894844e-01
 -6.4279098e-05
  1.2386785e-04
 -4.8495154e-04
 -7.6690194e-06
 -2.6711315e-04
  8.3660765e-05
 -8.4574127e-01
 -1.2052258e-04
 -8.3708823e-02
  4.0733779e-05
 -6.7798432e-04
  2.8925791e-05
  2.3459797e-01
  2.5836140e-04
 -4.2544254e-03
 -4.6115107e-05
 -5.0484622e-04
  1.9321114e-01
 -6.3542298e-05
  6.7346627e-05
 -1.8707756e-04
 -2.7134383e-05
  5.2269199e-05
 -7.5611315e-05
 -2.7953708e-04
 -7.6560937e-05
  7.6083765e-05
 -9.1171096e-05
 -1.1221052e+00
 -7.9905123e-01
 -4.7394790e-04
  2.7609590e-01
  1.9233373e-01
 -7.7322758e-05
  4.4865794e-02
  4.7374332e-01
 -1.1899122e+00
 -3.3540589e-05
  5.4599905e-01
 -1.1127749e-05
  4.9934217e-01
  2.9241299e-05
 -9.5284975e-01
  9.6265875e-02
  4.9685979e-01
  1.1149958e-05
  3.3893347e-01
  5.1037979e-01
  1.4937845e-04
  1.2622760e-01
  4.3510765e-01
 -9.7145330e-06
 -1.1476654e-04
 -1.0003781e-04
 -1.2839639e-04
  1.1814973e-04
  7.8339159e-05
 -5.2428048e-05
  1.3653477e-04
  4.3783712e-05
 -1.4976552e-04
  4.4021630e-04
  3.3222564e-06
  1.4404718e-04
  5.0800922e-05
 -5.0178773e-05
  2.2059723e-04
 -1.8793007e-05
 -6.4635460e-05
 -9.0708141e-05
 -7.5077733e-06
 -1.0744207e-04
  7.8450958e-06
 -4.8667705e-05
 -5.5433011e-05
 -2.7799610e-05
 -1.2409102e-04
  6.8130495e-05
  2.8993261e-05
  1.6817028e-05
 -6.5905020e-05
 -1.0254103e-05
 -1.0498289e-05
 -7.3530355e-05
 -4.2828979e-05
  1.8815905e-05
  1.0339559e-04
  1.8588256e-05
 -6.8098860e-05
  7.0643575e-05
 -1.0212393e-04
  5.4829583e-05
  5.8892811e-06
 -2.0470798e-05
  1.5006014e-04
  2.8157746e-04
  1.4593406e-05
 -1.0451882e-04
  4.2510105e-04
  3.2422078e-05
  4.8439734e-04
  2.8443077e-04
  1.3618766e-05
 -6.7713343e-05
  1.2737754e-04
 -3.0614302e-04
 -6.3303116e-05
 -3.4782352e-05
  1.8466169e-05
  7.8474630e-05
  1.2163580e-04
 -1.6850721e-05
 -9.4875246e-02
 -3.2012019e-02
 -1.1923783e+00
  4.0680838e-01
 -2.8554973e-01
 -7.5925380e-01
  5.1373041e-01
 -1.5900949e-01
  3.9289922e-01
 -9.6351705e-02
  7.2069937e-01
  1.5371743e-02
  2.5230285e-03
  1.4825985e-01
  9.1275157e-05
  2.9033718e-01
  5.0655282e-01
  5.2388334e-01
  1.0863313e-01
  2.1044996e-01
  1.6733092e-01
  6.9369867e-02
  6.4190033e-05
  1.1885218e-01
  1.3117764e-05
  1.9582039e-04
  1.4233890e-04
 -9.5123236e-05
  4.2045068e-02
  4.7441386e-04
  6.2522333e-05
  3.7587743e-04
 -8.2608967e-05
 -1.5112542e-04
  1.0040524e-04
 -3.0905365e-05
  1.5792609e-04
 -1.0163350e-04
 -5.9512349e-05
 -5.0617164e-05
  8.9089626e-05
 -1.1146878e-05
  7.3861745e-05
  8.4930958e-05
  7.9240242e-05
  5.5146749e-05
  3.2405515e-06
  1.4659666e-04
  8.8280925e-05
  5.1896368e-05
 -2.3323327e-04
 -2.0190269e-05
  3.3039225e-05
 -8.8461609e-05
 -3.4887984e-05
  3.3757338e-04
  6.5823574e-06
  1.2054003e-04
  9.1127440e-05
  1.6953189e-04
 -1.0659816e+00
  1.0693558e-02
 -1.3724756e-01
 -1.2904099e+00
 -1.5050754e-01
  4.0483610e-05
  3.0509108e-03
 -3.6262062e-01
 -2.7690482e-01
  3.0136755e-02
 -1.3689452e-01
  1.8812628e-01
 -1.8800874e-05
 -5.3231955e-02
  7.4568102e-03
 -1.9614755e-01
 -5.3414118e-02
 -1.5743031e-01
 -1.7232087e-01
 -7.1186863e-02
  2.4614069e-06
  8.3259976e-04
 -2.6982128e-05
 -1.3026764e-04
  1.0762351e-04
 -2.5800704e-03
  2.1905720e-04
  3.8776628e-04
  1.2138649e-04
 -8.6319211e-05
  1.8833056e-05
 -2.6979312e-04
  1.0063690e-04
  1.1018245e-05
 -2.3562612e-01
  1.3574558e-04
  5.4124452e-05
 -9.0637250e-06
  2.3318549e-04
  1.9072533e-05
 -1.9533334e-04
 -1.0342675e-05
 -4.1653730e-05
 -1.3135137e-06
 -4.0461062e-05
  5.2789605e-05
 -3.5102092e-04
  1.7155042e-05
  6.9905714e-06
  1.0032288e-04
  4.4266540e-05
 -6.3005444e-07
 -4.0402455e-04
 -8.3236577e-05
 -8.6221939e-05
  3.1932941e-04
 -4.3064536e-04
  3.9157498e-05
 -7.0326896e-05
 -1.2825272e-05
  1.2034738e-04
 -2.0325098e-04
  1.6817838e-05
  1.7615221e-04
  3.6193492e-04
 -3.4581179e-05
  2.2324777e-01
  7.5608528e-05
  3.2236206e-04
  3.1053263e-05
  3.5151861e-05
 -6.3485734e-04
  1.6162986e-06
 -7.5628018e-06
 -2.9463154e-05
 -6.0549330e-05
 -3.3534478e-05
 -3.7724876e-05
  2.5664308e-04
 -6.1799234e-05
  3.8772800e-05
 -6.0066071e-05
  2.6512189e-05
 -6.0194750e-05
  5.1202401e-06
  1.9747209e-04
 -3.6627142e-05
  1.2006110e-04
 -6.9649657e-05
  6.6580200e-05
  5.2895804e-05
  2.7288703e-04
  1.0041560e-04
  3.5286736e-04
  4.3380500e-05
  1.0449976e-04
  1.5616976e-01
  4.1686999e-05
  1.2589668e-04
  9.6225420e-05
 -1.2391277e-04
  1.7706509e-05
 -1.2684260e-04
 -1.5009854e-04
 -3.3311848e-05
  4.3913835e-05
  4.3474092e-06
 -1.8527395e-04
  7.5960197e-05
 -2.5225447e-05
  2.5067566e-04
  1.9711143e-04
 -1.3311942e-04
  5.7438454e-05
  2.8015350e-04
 -1.0251382e-04
  5.6863661e-05
  1.8374361e-05
  2.3035065e-05
  1.3463656e-05
 -4.7940231e-04
  7.1356735e-06
 -1.7405542e-05
 -6.7926019e-05
 -1.8890828e-04
 -1.3594289e-04
  2.2147930e-01
  1.9279476e-05
 -1.7752129e-03
 -7.3852630e-07
 -5.7251793e-05
 -7.0644724e-05
  3.8705348e-05
 -2.8411268e-06
  3.4952700e-05
 -7.0814487e-05
 -3.9899084e-01
 -1.4450544e-04
 -2.9258244e-05
 -3.9877622e-07
 -2.3161588e-06
  4.0926021e-05
  8.4469641e-05
 -2.2330742e-04
  4.9434707e-04
 -1.2049218e-04
  1.9922746e-04
 -1.1877355e-05
 -2.4050020e-04
 -5.7255053e-05
 -3.9519876e-02
  4.3779114e-01
 -2.3571441e-02
  5.8686846e-01
 -5.0184035e-01
  8.5110378e-01
  1.0748485e+00
  1.2908508e-01
 -1.2246614e-01
  7.2413541e-02
 -2.9925695e-01
  1.9832745e-02
  4.9857136e-02
 -1.4883613e-04
  3.2857180e-05
 -2.3034258e-02
 -7.4215122e-02
 -1.0294064e-01
 -6.2126055e-05
 -2.0756668e-05
 -3.4983960e-04
  4.4055182e-01
  6.5797043e-04
  1.9491890e-05
 -1.3338165e-04
 -3.7631218e-04
  7.4806780e-02
 -6.5345106e-05
  5.3840395e-05
 -4.3298216e-05
 -5.5462279e-04
  3.2631791e-04
 -3.5550873e-04
  4.3331671e-05
 -8.4322579e-05
 -3.2799103e-04
 -2.2436149e-01
 -4.5719760e-04
 -2.5542793e-04
  6.0080335e-04
 -2.1087089e-04
 -1.0938681e-04
 -5.7187506e-05
 -4.5602392e-06
  3.2116962e-04
 -1.4390124e-04
 -7.7078538e-04
 -3.8430726e-04
  2.7861573e-05
 -1.2402376e-05
 -1.1608298e-04
  1.2774035e-04
  9.1411757e-06
 -9.9532648e-05
  3.8766644e-05
 -4.2820084e-05
 -8.6688546e-05
  8.1728816e-05
  1.5442722e-05
  1.2380040e-04
  2.0795974e-06
  2.2635350e-05
 -6.5287662e-05
  3.6491165e-05
 -6.0995393e-05
  5.8791800e-05
 -3.7737816e-05
  2.7532433e-04
  7.1344657e-05
 -4.6409328e-05
 -1.5510074e-04
 -4.9373499e-05
 -1.7719234e-05
 -1.2424091e-05
 -1.2947232e-04
  4.9955363e-04
 -1.0541805e-04
  1.6863636e-05
  9.8666867e-05
 -2.8011909e-05
  9.4754658e-05
  1.0956017e-04
 -9.2706643e-05
  8.7001434e-05
 -1.4443581e-04
 -1.6214044e-04
  7.2970806e-06
  1.7456658e-05
 -1.1981710e-05
  6.1189639e-05
 -3.3291441e-04
  1.6697844e-05
 -7.6517703e-05
 -8.3313324e-05
 -4.7975055e-07
  1.3180887e-05
  9.8497886e-03
  8.2265164e-05
  3.6019881e-04
 -7.8099083e-06
 -1.9403234e-04
  7.5110252e-06
  2.8278073e-04
 -8.2064515e-05
  1.0252368e-04
  2.3131905e-05
  8.5455184e-05
 -2.3745604e-04
  1.8817397e-04
  4.2913543e-06
  7.2482959e-05
  1.8005425e-05
 -3.1501204e-05
  5.9915241e-05
 -7.5798060e-05
 -6.2518608e-05
 -6.2323190e-05
 -9.0398928e-05
 -5.5243613e-06
  2.8635324e-05
  6.8685710e-01
 -1.1090661e-01
 -6.4590383e-01
  1.1845519e-01
 -4.4436961e-01
 -4.2555472e-01
  9.5624179e-01
 -4.2842016e-01
  2.8319655e-02
  4.6881086e-01
 -3.6951232e-01
 -4.9286929e-01
 -2.9501399e-02
 -6.8637775e-04
  1.3227135e-04
  3.7977979e-01
  4.7832400e-01
 -2.4530137e-01
 -5.2797252e-01
 -1.4043505e-01
  9.2256151e-02
  1.7371367e-01
 -1.2323495e-02
 -3.0627973e-05
  6.2198993e-03
 -5.6455523e-02
 -4.3137823e-04
 -5.5164594e-05
 -9.0609728e-06
 -6.0085999e-04
  4.8590325e-02
 -9.8696485e-02
 -1.2271020e-01
  4.9509458e-02
 -5.6636614e-01
 -1.1677843e-01
  4.4774392e-01
  9.2754319e-02
  2.1723068e-01
 -9.6126556e-02
  2.4330862e-01
 -7.9619813e-01
 -9.1944348e-05
  7.1392313e-02
 -4.8107892e-02
  4.2778954e-02
  1.6109914e-01
  7.3284847e-01
  2.0271705e-01
  7.1272545e-02
  3.7635579e-03
 -2.5227307e-03
  5.9296897e-05
  9.8435827e-02
 -9.0400754e-05
  6.6502206e-02
 -1.9735426e-01
 -7.2128627e-05
 -4.3418222e-05
  4.0385563e-05
 -3.4363720e-01
 -9.5792127e-01
  6.7036515e-01
 -2.6203361e+00
 -1.2145421e-01
  8.2654381e-01
  4.4489002e-01
  1.0943716e+00
  2.5461349e-01
 -4.3479115e-01
  1.7262857e-01
 -1.4950570e-01
  2.0270856e-01
  3.4236878e-01
 -7.8930952e-02
  1.0234479e-01
  6.5313399e-01
  2.6928601e-01
  1.7581417e-01
  1.6799094e-01
 -9.0599537e-02
  1.2122570e+00
  1.4073263e-01
 -1.7311384e-05
 -1.2270816e-01
  8.0117531e-04
  7.6778182e-05
 -1.6846044e-04
  1.1110053e-04
  3.4795394e-05
 -2.7185355e-04
 -3.6112990e-05
  7.6906399e-05
  2.7731610e-05
 -6.8189212e-05
  1.0153892e-04
  3.9012430e-05
 -1.1103674e-04
 -1.0751849e-04
 -1.3273596e-05
 -9.4554751e-05
  2.6462766e-04
  1.3637944e-05
  1.1460585e-05
 -5.0712504e-05
  6.9661284e-05
 -2.1258898e-05
  1.6255170e-04
  5.0808544e-06
 -3.2066126e-04
  6.6659130e-05
  9.4809286e-07
 -2.0810112e-02
 -5.5831611e-06
 -4.2847209e-05
  7.7768287e-05
 -7.9763609e-05
  1.9918911e-05
 -2.0814605e-05
  3.3412569e-05
  5.7038113e-05
 -2.0145610e-06
  3.1882807e-04
 -2.7849392e-05
 -3.4190885e-05
  6.4166095e-05
  1.2993835e-05
 -1.9207233e-04
 -1.1174777e-04
  1.5977444e-04
  3.5725003e-05
  1.0013014e-04
  3.1891564e-04
 -1.1467033e-03
  8.6440035e-05
 -1.3395989e-05
  1.4075646e-04
  1.1613406e-04
  3.3031349e-05
 -4.0676059e-05
  1.8183791e-04
  5.6856996e-05
 -7.8120851e-05
  2.0062778e-04
  2.5550189e-04
 -4.2211195e-04
  2.5748575e-04
  9.3221337e-05
  6.8757981e-05
  3.2105891e-04
 -2.4606301e-05
  6.4893466e-05
 -1.8122044e-05
  3.0416909e-06
 -2.6609674e-05
  3.1952743e-04
  7.1478396e-05
  2.6486229e-04
  1.0125538e-04
  3.6427202e-05
  1.8460484e-04
 -4.7493882e-05
  6.4939086e-05
 -3.1287058e-05
 -5.0924900e-06
 -4.3664557e-05
 -1.6486096e-04
  4.4137385e-05
  1.0719963e-04
  3.2242417e-04
  6.4207888e-05
  1.1803195e-04
  2.4424717e-04
 -2.0759675e-05
 -1.2005213e-04
  1.0091971e-04
  6.5835666e-05
 -1.6372906e-05
 -1.1555011e-04
  9.1392176e-05
 -2.1958377e-04
  1.0097824e-04
 -1.0209638e-04
 -3.0847300e-02
  1.6468539e-05
 -4.4367727e-05
 -1.8484354e-01
 -8.6867483e-05
  1.5739520e-04
  3.1772719e-04
 -2.5208012e-04
 -3.8521870e-05
 -7.2109765e-07
 -2.2225040e-05
  2.4623876e-05
  4.7946203e-05
 -1.7794811e-04
 -2.0755963e-02
 -1.4398110e-05
  2.0061287e-05
  2.7410631e-05
  2.1706194e-04
  2.2556138e-05
 -2.0107143e-05
 -6.2027852e-05
  3.8917615e-06
 -5.2680334e-05
  8.4281397e-05
 -1.4664319e-04
  6.4985412e-05
 -8.7139517e-05
  1.8027387e-04
  5.7397709e-05
  3.3722652e-05
 -3.4639627e-02
  1.3789176e-05
 -2.1863353e-02
  7.7897013e-05
  7.1899135e-06
 -1.1238810e-05
  3.3598400e-05
 -5.4257995e-05
 -6.5843837e-05
  6.6881934e-05
  8.3987412e-05
 -4.6785426e-05
  1.1801626e-04
  2.8407419e-05
 -5.6785135e-05
  1.5759316e-06
 -8.7071588e-05
  9.9669684e-05
  1.2840104e-04
  8.0892474e-05
  1.0660493e-05
 -4.9758575e-05
 -2.7830678e-04
 -2.4350347e-05
 -1.2011048e-04
  7.0134913e-05
 -2.3891793e-04
 -6.0535891e-05
  4.4168151e-05
 -1.6069060e-04
  2.2771013e-05
 -1.6713051e-04
 -4.9264825e-05
  8.2133847e-05
 -9.0576832e-05
 -4.0452906e-05
 -2.5199831e-04
  1.8957152e-04
  3.1240459e-05
  2.5179748e-05
  4.7632017e-05
 -8.0709171e-05
 -1.4198476e-05
  2.6975977e-05
 -1.0571854e-04
  2.4673307e-06
  1.4095921e-05
 -8.9599729e-05
 -1.4986603e-04
 -9.0111222e-05
  1.5681204e-04
 -4.3008939e-05
  1.6157121e-04
  1.6205127e-05
 -4.1251416e-05
 -2.6627264e-05
 -3.0044939e-02
  4.5503390e-01
 -1.6738813e-02
 -8.8327408e-01
 -8.3751552e-02
 -1.9522582e-01
 -9.8172441e-02
 -3.9606154e-02
 -1.6839683e-01
  1.0499195e-01
 -9.5644534e-02
 -1.9587132e-01
  2.6990736e-01
 -2.9753281e-02
  2.0241631e-04
 -2.6687717e-01
 -1.9619808e-02
 -8.9014363e-01
 -2.6160428e-01
 -4.1658897e-02
 -9.6572302e-03
  7.4849808e-01
 -7.0439919e-06
 -5.1194086e-04
 -3.7669884e-06
 -2.6225479e-04
 -4.5212728e-06
  4.3714726e-06
 -7.0501583e-06
 -3.3575459e-04
  1.1584384e-04
 -2.3651255e-04
  1.7483393e-04
 -5.8336285e-05
 -2.1907048e-04
 -1.6851229e-05
  4.6366429e-05
  5.8884279e-06
 -7.1275899e-05
  2.3330488e-04
 -1.2117000e-04
  4.4769706e-05
  1.3415806e-06
  4.2280000e-05
  1.6298640e-04
 -2.8717952e-05
 -7.1675727e-06
  1.4277568e-04
 -2.1772850e-05
  8.9402693e-06
 -6.0439233e-05
  7.7902485e-05
 -1.4234183e-05
 -1.4292149e-04
 -6.8511603e-05
 -3.8981110e-05
 -3.0655134e-05
 -1.0278175e-06
  3.6494012e-07
  5.0090239e-05
  6.2563930e-05
 -7.4268966e-05
 -1.6360715e-04
  1.3239610e-05
  1.4873089e-04
  2.5320809e-05
  9.7737182e-04
 -9.8442390e-05
 -1.6158319e-05
 -3.9369403e-05
  2.4595061e-05
  2.1198728e-04
  2.7085260e-05
 -9.0912006e-05
  1.2252215e-04
  2.3370588e-04
  8.7705921e-05
 -1.0975600e-05
  1.0247975e-04
 -4.7965623e-05
 -8.3272069e-05
 -1.7326842e-05
  1.6947675e-05
  1.0526360e-05
 -1.7809289e-05
 -6.5984881e-05
  4.2410389e-05
  9.2462309e-05
 -5.4174929e-05
 -1.0403300e-05
  7.5017893e-01
 -1.2923829e-01
 -1.2432530e-01
  3.2675520e-02
 -4.6829492e-02
  1.9102684e-01
 -1.5303352e-01
  8.9752123e-02
 -1.3541062e-01
  4.0077290e-01
 -1.7741803e-02
  1.4963450e-02
 -2.6851792e-03
 -1.8965177e-02
  2.4161203e-01
 -1.9317050e-01
  4.2263350e-01
 -6.8465847e-01
 -6.0938287e-01
 -1.0971359e-01
  3.4853802e-03
  3.3159557e-01
  6.0980392e-06
 -1.4604069e-01
  1.7870585e-05
 -2.5360113e-01
 -9.9113808e-05
  2.5533218e-04
 -2.1501561e-04
 -3.7465297e-02
 -1.0787309e-01
 -7.1006596e-02
 -5.4868687e-02
  4.2951126e-02
  1.0539126e-04
  6.1513357e-02
  2.7981017e-02
  1.7938300e-03
  4.7614150e-02
 -3.7093349e-02
  1.0514860e-01
  4.8332650e-02
 -3.6764450e-06
  1.1653565e-02
 -9.4627048e-06
  9.3639937e-05
  1.6224010e-02
  2.4936487e-01
  1.1501268e-01
  8.3066954e-04
 -1.0398686e-04
 -1.8693274e-02
 -2.1154615e-04
  4.0379913e-05
 -1.5497510e-04
  7.9820689e-04
  4.2646870e-06
 -3.4139334e-04
  9.5723342e-05
  1.9659055e-05
  2.6887900e-01
 -7.3522441e-02
  8.7740562e-05
  9.3990505e-01
  4.5450666e-05
  1.2105213e-04
 -3.9400166e-01
  2.5610966e-04
  6.6327222e-05
 -7.2112984e-05
  2.5159461e-04
 -7.4068381e-04
  1.1370007e-04
  5.2528994e-05
 -3.1272168e-04
  1.5431391e-04
  9.9498015e-05
  1.1919637e-04
  2.1749653e-03
  1.6788634e-05
  3.7642494e-05
 -1.5490266e-04
  1.8004634e-04
  2.5079277e-04
  8.7784472e-05
  1.0488387e-04
 -3.3937086e-04
  3.0291036e-05
 -1.8661479e-04
 -4.8376140e-05
 -1.0001805e-04
  1.4285069e-02
 -1.8588534e-04
  3.1864271e-02
 -1.6009346e-04
 -2.2053691e-02
 -2.0510368e-01
 -4.9054051e-05
  1.3751507e-05
 -2.4502421e-07
  1.0835996e-04
  8.1812381e-05
  6.4523883e-05
  3.1240615e-05
  4.9863479e-06
  1.4939134e-06
 -5.0983030e-02
 -1.1344602e-03
  1.4666747e-04
  1.5541375e-05
  4.6134101e-06
  2.4974739e-04
  1.3841693e-05
 -1.3116239e-04
  9.1906477e-05
 -2.8619386e-06
 -1.1396239e-04
  7.4506701e-05
 -2.2002491e-04
  7.8918689e-05
  1.3299576e-04
 -2.2445828e-01
  3.2183438e-05
  2.9103925e-02
  2.2182892e-04
  3.3011082e-05
  1.8144476e-01
  1.7062198e-04
  3.9702389e-04
 -2.0572917e-04
  3.8169419e-05
  3.7731174e-02
 -1.7024464e-05
 -3.5227360e-05
 -1.3873227e-04
  4.5530051e-05
  1.9171307e-06
  1.7598191e-04
  4.6931737e-04
 -7.5838834e-05
  2.1598613e-05
 -3.4480130e-05
  2.7043836e-05
  2.6889856e-04
  1.4890474e-04
 -1.6231013e-04
 -1.2561807e-04
  7.6809347e-06
  1.1900884e-04
  1.0328725e-04
  2.6896759e-04
  1.8164228e-05
  1.3085343e-01
  5.2266823e-05
  1.9195800e-01
 -1.3167728e-04
  1.4895950e-04
 -1.4207038e-04
  2.8371076e-05
  1.8179661e-01
 -1.5378527e-04
 -3.6942381e-06
 -1.2482211e-04
  1.5907384e-01
 -3.7930280e-01
 -5.7232183e-01
  6.2327919e-05
 -5.9142909e-05
 -1.1790839e-04
  2.0580133e-04
 -4.6954796e-05
  9.6683056e-05
 -1.8322805e-01
  3.0932744e-05
 -1.2461745e-04
 -4.2130750e-01
  4.5351358e-04
  5.2953910e-02
  1.4755295e-05
 -1.2870017e-04
  3.3546203e-05
  1.3318400e-04
  7.0779330e-01
  5.2918803e-02
 -4.6756965e-01
  1.1930809e-04
  1.4713709e-01
 -9.3889527e-02
 -1.8630081e-01
 -8.1057268e-01
 -2.1632153e-01
  1.3328070e-05
 -1.6122372e-04
 -8.5271645e-01
  7.1264952e-01
  7.1407449e-01
  5.9230051e-06
  4.0794987e-02
  5.0575392e-05
 -1.4241560e-01
 -1.0755515e-01
  9.6661879e-06
 -5.2168566e-01
 -2.5142814e-05
  3.1642572e-05
 -1.1429743e+00
  4.3102252e-01
  2.0583209e-01
 -2.2728874e-01
  1.7931159e-01
  2.4932857e+00
  3.6541373e-01
 -3.9694539e-01
  2.1737105e-01
 -1.1134069e-01
  1.3307829e-01
  2.9821759e-01
 -2.4106124e-01
  2.7819030e-02
  3.1462976e-01
  4.1677576e-02
  1.2780906e-04
 -6.0910085e-04
 -4.4464524e-04
 -4.0927989e-04
 -1.5628362e-01
 -7.0176677e-05
 -1.6899529e-01
  1.2085562e-04
 -1.4563505e-01
 -3.1862876e-01
  3.9713073e-01
  5.7164442e-02
  3.5351095e-01
  4.2961240e-01
 -1.8665464e-04
  2.2468579e-01
 -7.0692092e-01
  5.3510070e-01
 -3.4486157e-01
  1.0494609e-01
 -2.9130898e-02
 -1.6160058e-02
 -3.9190546e-01
 -1.0858714e-02
 -5.2128667e-01
 -8.7194544e-01
 -6.2186413e-02
 -8.7611836e-05
  2.8449222e-02
 -9.3610164e-05
  1.2460084e-03
  5.6784612e-01
 -4.0053330e-02
  1.9856155e-01
  8.2979050e-06
 -8.5525075e-03
 -1.4748868e-01
  9.4105914e-02
  3.3707851e-01
  1.9707751e-01
  1.0384165e-01
 -8.4383242e-02
  9.8667966e-05
  2.7725279e-01
  3.3856699e-01
 -4.1399270e-01
  1.0954020e+00
 -8.7144023e-01
 -7.7189609e-02
 -1.9698252e-01
  5.9163040e-03
 -2.7697036e-01
 -2.9411182e-01
  5.6227613e-02
 -3.1049873e-04
  1.0199475e+00
 -7.1535236e-01
 -2.9240903e-01
  6.2897837e-01
 -9.5148170e-01
  5.5377487e-02
  1.6739558e-01
  3.7777868e-01
  6.7546949e-02
  3.5706505e-01
  2.8643813e-02
  6.6255562e-02
  1.6009877e-02
 -1.0731544e-01
  2.2092363e-01
 -8.0302805e-01
 -3.2069814e-01
 -2.5549155e-01
 -2.3604837e-01
 -6.3257247e-01
  2.9888764e-01
  7.1954483e-01
 -2.1764570e-01
  5.0617084e-03
  1.8904997e-02
  1.2037855e-03
 -7.7961158e-06
 -9.0531564e-01
  9.4478397e-05
  1.0788496e-04
  3.8698742e-01
  2.3120877e-04
  1.1611255e-04
  2.4120125e-04
 -3.3131713e-01
 -1.0940198e-04
  1.0716399e+00
  5.7479036e-01
  3.1642580e-01
  8.5740906e-01
 -2.2144590e-01
  3.7636483e-01
  2.9440764e-03
 -7.2014064e-02
 -4.9371152e-05
 -4.2850825e-01
  5.5369163e-01
  5.3597283e-01
  8.7737310e-01
 -1.9345967e-01
 -1.5778090e-01
  2.9223517e-01
  1.1451914e-01
 -1.5979835e-01
 -1.0073105e+00
 -1.6150650e-05
  2.7488783e-04
 -9.8255277e-01
  1.5006493e-01
 -2.5125381e-01
 -9.0884429e-01
 -1.2139644e-01
 -6.1257131e-02
 -1.5978158e-02
  6.7884177e-01
  5.5463817e-02
 -6.0193902e-01
 -6.4724755e-01
  1.5235513e-01
  8.5087377e-01
 -5.9891409e-01
 -1.0265516e+00
  3.5659809e-02
  4.5203185e-01
  6.2374824e-01
 -2.4630357e-01
 -1.4099924e-01
  7.4271702e-05
  1.6607883e+00
 -3.3356160e-02
  4.7221369e-01
 -1.0773566e+00
  1.1542342e-01
 -5.3222221e-01
 -2.8938208e-02
  1.0572818e-01
  7.5516456e-01
 -6.0458970e-01
 -2.9321137e-01
  1.0027934e+00
 -2.5695169e-01
  6.6103649e-01
  5.1711684e-01
 -2.5934634e-01
  3.1280631e-01
  1.9431032e-01
  1.0071488e-01
 -6.2027088e-05
 -2.1031199e-04
 -1.5593669e+00
 -2.4628626e-01
 -1.9525680e-01
  1.6159502e-01
 -2.2114506e-01
  1.7046103e-02
 -1.4543415e+00
  9.7933145e-05
  6.1885017e-05
  1.1600945e-04
  2.9856958e-03
  2.6664402e-02
 -1.4125317e-01
  1.0528015e-01
 -1.6817416e-05
  6.7514038e-01
 -1.8730802e-04
 -1.2487189e-03
 -6.9790065e-02
  5.3072017e-01
 -5.7903811e-02
  1.2687733e+00
 -7.9763663e-01
  6.2317535e-04
 -2.5443040e-02
 -7.4076086e-02
 -1.2446781e-04
 -4.9424252e-01
  5.7700187e-01
  1.1724114e+00
  1.5920308e+00
  1.6571004e+00
  2.5693017e-01
 -3.6544871e-01
 -3.3941149e-06
  5.4879689e-05
 -5.5658447e-06
 -4.5492891e-02
 -2.9235804e-01
 -1.2959938e+00
  6.1762478e-02
  3.3145219e-02
  5.1084614e-01
  2.2793352e-05
 -1.9293880e-01
 -1.2551614e-02
  9.5162582e-01
 -3.3153762e-04
 -1.0389489e+00
 -3.0129948e-01
  3.7105799e-01
 -2.2862514e-03
 -1.1468647e-04
  2.2996971e-01
 -5.7765514e-01
  2.6077095e-01
 -6.8487334e-01
 -2.4768829e-01
 -8.7701850e-02
  2.8478387e-01
  7.3021561e-01
 -4.4752315e-02
  1.2961293e-04
 -7.8822535e-01
 -2.3672706e-01
 -1.0462531e-01
 -1.0852032e+00
 -1.1753292e-01
  2.7155665e-01
  5.8484739e-01
 -3.8893708e-05
 -1.0001254e-01
  1.3704966e-01
 -3.5749301e-01
  6.1110407e-02
 -9.3940312e-01
  2.4261141e-02
  3.5434386e-01
 -4.0016025e-01
 -3.8852838e-01
 -7.4514949e-01
  8.8896833e-02
  1.8685830e-01
  6.9727194e-01
 -5.0221837e-01
 -3.4213862e-01
 -1.3915237e+00
  2.0855029e+00
 -9.4978347e-08
  6.0174913e-05
  1.7622041e+00
  1.9547851e-03
  4.4798083e-04
  9.5744735e-01
 -6.3404399e-01
 -1.8789113e-01
  2.4453723e-03
  1.4431681e-02
  6.1648840e-01
  1.2474401e-01
  3.3808881e-01
  1.9277034e-04
  1.0990961e+00
 -1.3602147e-01
  8.3870664e-02
 -1.0089796e+00
  2.8360716e-01
  1.1032017e+00
  4.1427264e-01
 -1.8017286e-01
 -1.0646473e-01
 -5.3041989e-01
  1.5337878e-01
 -1.5259413e-01
  7.5285763e-01
  1.9666251e-04
 -1.5778287e-01
 -7.0420563e-01
 -9.8041266e-02
  5.2080672e-02
  5.6484890e-01
 -6.9234771e-01
 -1.8102362e+00
  1.6794136e-01
  3.8599724e-01
  8.5348248e-01
  2.1817276e-01
  6.2325531e-01
 -4.7804966e-05
  1.2036601e-01
  4.6810627e-01
 -6.3071065e-02
  1.4967819e+00
 -4.1539166e-05
 -7.8886372e-01
  3.6717218e-01
 -1.6914909e-01
  1.1212506e+00
  5.3993225e-01
  6.6603816e-01
  1.4464553e-02
 -1.5059532e-02
 -4.3215185e-01
  5.5908181e-02
  7.7470108e-03
  1.1873450e+00
  3.0476443e-04
 -1.3975918e+00
  9.8294981e-02
 -1.3149402e+00
  8.0925059e-01
  1.7609392e-01
  8.4746748e-01
 -4.6091351e-01
 -1.7361990e-01
 -1.2319660e+00
 -1.7586471e+00
 -2.3963542e-01
  3.0875349e-01
 -3.2390100e-01
 -1.2512940e-04
  9.4524272e-05
 -3.4612861e-02
 -6.7830729e-01
 -4.3684232e-01
  1.0301018e-01
  1.1695539e-04
  4.1539252e-02
  1.8795347e-01
  3.2465652e-04
  3.7660859e-05
  3.1180974e-05
 -5.7146091e-02
 -9.7906664e-03
 -7.9969344e-05
  1.1753989e-04
  3.3605069e-05
 -2.0104826e-05
  2.7164229e-04
 -1.6078178e-04
 -2.5226796e-01
  3.1505391e-01
  2.8167418e-01
  1.4856932e-01
 -1.5526844e-04
  2.7265176e-01
  1.0922580e-04
 -3.8344849e-02
  4.4329365e-04
  3.0354599e-03
 -4.7321430e-01
 -8.5856766e-01
  1.0675159e-01
  5.6334949e-01
  4.0319808e-02
  3.1400269e-01
 -4.3904288e-03
  5.0612161e-04
  2.1460999e-04
  1.3248681e-04
  1.9530763e-01
  1.1798652e+00
 -1.7720237e-02
  3.4409481e-05
  1.3760579e-01
  4.5263600e-06
 -9.5194489e-02
 -7.2209078e-01
 -1.2347444e-01
  2.6196283e-01
 -1.5962475e-04
 -1.5800988e-04
  7.5088261e-04
 -1.6098960e-01
 -1.1486097e-01
  8.6293384e-02
 -6.5998846e-01
 -3.5493553e-01
  2.5710058e-01
  1.8481782e-01
 -1.6916957e-04
  1.3838623e-01
  3.2713938e-01
 -9.3598947e-02
 -3.9655074e-02
 -3.0125301e-02
 -6.0038801e-02
  1.6010063e-05
 -7.7463180e-01
 -2.5587821e-02
  8.4994768e-05
  4.0636813e-05
  1.8586736e-02
 -1.1628354e-01
  3.0953333e-02
  3.6643782e-01
  3.5700271e-01
  2.3747900e-01
  6.8836423e-05
  7.6074219e-05
 -5.7147437e-01
 -2.0264013e-05
 -1.1936255e-04
  8.0116501e-05
 -1.0358512e-04
  1.1590094e-04
 -1.6168656e-04
 -4.5377246e-01
 -1.6738998e+00
  4.8753116e-01
  2.1341613e-05
 -1.0333658e-04
 -2.4963680e-04
  1.2157750e-04
 -2.4331717e-05
 -9.4987969e-05
  3.9475093e-05
 -4.4614037e-05
 -7.3880542e-06
  2.8895587e-04
 -1.9744675e-05
 -7.7009499e-05
 -1.2057482e-05
  3.5218658e-05
  3.0594761e-04
 -1.0717007e-02
 -9.2166269e-01
  4.7770309e-01
  2.8447896e-05
  1.1244791e-05
 -3.8162296e-04
 -6.7064411e-07
  6.6441680e-05
  3.4296128e-05
  3.4359336e-01
 -5.5791104e-01
 -1.2537415e-05
 -2.7131462e-05
 -1.3989606e-04
  1.4642331e-04
 -9.3975133e-05
  1.4470652e-05
 -1.1755779e-04
 -1.9071592e-02
 -9.7233588e-01
  4.5446676e-01
  6.8684487e-05
 -7.5801538e-04
  9.5930536e-06
  5.4981607e-05
  1.1913032e-04
 -1.3292782e-02
 -6.1752337e-01
  8.8828725e-01
 -1.6672625e-04
  2.3895552e-04
  2.0142726e-05
  2.9080707e-05
  1.8609699e-04
 -4.1853986e-05
 -4.4787004e-05
 -3.4255788e-02
 -6.7491281e-01
  4.0650141e-01
  1.1841513e-04
 -2.0794354e-04
  1.2574148e-04
 -3.4318691e-05
  1.8977208e-04
 -4.7811955e-02
  4.5568791e-01
 -1.4820706e+00
 -2.2304489e-04
 -1.7070430e-04
  2.4150746e-04
  2.5641850e-05
 -3.7339449e-04
 -4.4005392e-05
  4.9334743e-05
  3.0511755e-01
 -2.5841650e-01
  3.6156949e-01
  1.3604626e-04
 -2.5231915e-05
  2.1329812e-04
 -9.2725102e-05
 -3.6243517e-05
  2.8102710e-05
  6.9961023e-01
  8.5066497e-01
  3.5490235e-04
 -9.1764778e-01
 -2.7793598e-05
 -1.9873095e-04
 -1.0156226e-05
 -2.7918976e-04
 -5.2184489e-05
  1.1744136e-04
 -4.1917892e-06
 -2.2625491e-04
 -2.8749820e-04
 -1.2156591e-04
 -9.7174768e-04
 -2.9058216e-05
  6.8687666e-05
 -3.5328008e-05
 -5.9928536e-01
  1.9904308e-01
  8.8336601e-05
  4.6968828e-05
 -1.4269179e-04
  1.0366835e-01
 -3.6622587e-05
 -3.6281275e-05
  5.8336274e-05
  1.4166746e-01
  1.0921338e+00
 -1.0932116e-04
 -3.2616146e-05
  1.0727252e-04
 -9.8867521e-02
  8.1746410e-05
  2.0706312e-04
 -1.0229162e-05
 -5.3433990e-01
  3.7333131e-01
  2.9409316e-03
  8.4208523e-06
  8.6714354e-06
  2.0196587e-02
  1.1207581e-05
  1.1321255e-04
  4.6089121e-06
 -1.2028316e+00
  1.1728549e+00
 -1.5346115e-04
  2.0184671e-04
  7.3882511e-06
  7.0240122e-04
 -2.7740351e-04
  4.1789903e-05
 -2.9620182e-04
 -2.5773105e-01
 -9.8983983e-06
 -8.2405582e-05
  2.8406948e-05
 -1.9329904e-04
 -1.9945654e-01
  2.9287257e-04
 -5.5892415e-06
 -5.2402029e-05
  1.7281488e-01
  1.9059743e+00
  3.6373080e-05
 -6.4873757e-06
 -4.9293612e-05
  6.2261695e-01
 -3.2577787e-05
  1.6032092e-04
  3.0156229e-05
  2.1674532e-01
  3.6309600e-02
 -3.7949580e-05
 -1.5353851e-04
  1.0886145e-04
 -3.9288095e-01
 -1.0570547e-04
 -1.6416433e-04
 -7.5569515e-05
  4.3804196e-01
  4.4371331e-01
  2.6263163e-04
 -5.3806973e-05
 -5.6709778e-06
 -4.4135173e-04
 -1.0447326e-04
  6.9575690e-05
 -9.0849077e-05
  2.2881366e-04
 -3.2736716e-04
 -1.6810591e-04
  2.7544712e-04
  1.2028348e-04
 -8.7487381e-03
  1.4495771e-04
 -4.6591045e-05
 -1.2534516e-06
 -5.6063768e-04
 -1.3599590e+00
  4.4621420e-06
 -5.5741466e-04
 -1.4361579e-04
 -8.0050629e-01
  5.0806801e-05
  3.8020866e-05
 -6.4645433e-06
 -8.0057210e-01
  2.7377447e-01
 -4.7608060e-05
  1.7622625e-04
  4.6666963e-05
  2.0130813e-01
  1.4081188e-05
 -1.4770601e-04
  5.7562396e-05
 -8.6671785e-02
 -1.0438572e+00
  3.3307744e-05
 -2.8288634e-03
 -1.9306297e-06
 -4.3613967e-01
 -2.6833592e-04
 -1.6534675e-04
 -3.1034189e-05
  1.9466023e-01
 -9.1609830e-01
  7.0779697e-06
  5.1074044e-04
 -2.6717572e-04
  1.7341861e-01
  9.1978487e-05
  4.1238702e-05
 -1.5568068e-05
  1.2393266e+00
 -1.2335806e+00
  1.1668376e-05
 -2.0390778e-04
  3.1122449e-04
 -4.4896531e-01
  2.0936018e-04
 -1.2825166e-05
 -1.7839311e-05
  4.5503742e-01
  8.2171381e-02
  5.3807260e-05
  1.5876506e-04
 -7.2532443e-05
 -8.4746733e-02
 -2.5274740e-06
 -7.7260236e-05
 -7.6983059e-05
  1.6114946e-01
 -1.4340725e+00
 -6.3892519e-05
  8.2661813e-07
 -2.0520837e-04
 -3.2957083e-01
 -4.3723505e-04
  5.4719832e-05
 -3.5623682e-01
  2.6101056e-01
 -2.4570441e-01
  2.2306460e-05
  1.4912529e-04
 -3.7014674e-04
  1.7373018e-04
 -4.6868790e-05
 -9.7060729e-05
  4.2174910e-05
  3.1435370e-01
  2.3556322e-05
 -4.8150490e-05
  2.3265737e-05
  6.0162489e-05
 -3.4342153e-05
 -9.9744444e-05
  1.4539428e-04
 -4.4077486e-02
  1.1307828e+00
  2.2880130e-01
  2.3271279e-04
  2.1943767e-04
  3.7018071e-05
 -1.5546619e-05
 -2.0963688e-04
  1.3434966e-04
 -1.0505248e+00
  1.8751274e-01
  2.3277822e-01
  3.8073122e-05
 -4.5295634e-05
 -5.0282782e-05
 -3.5699832e-05
 -3.6916626e-06
 -2.2208887e-05
 -8.2721460e-01
  3.0097434e-01
 -1.0503408e-04
  6.5838749e-06
  2.3679207e-04
 -2.0711278e-04
  8.5078991e-06
 -9.5454008e-05
  2.3984327e-04
 -9.6911234e-01
  4.3052331e-01
  6.3463151e-01
 -2.1895623e-05
  2.0347848e-04
  5.8407029e-05
  1.9727636e-04
  3.7615302e-01
  1.0546276e-04
 -1.5395552e-01
  1.0129309e+00
  1.7322636e-01
 -4.1723597e-01
  1.8744255e-04
 -2.2299615e-08
 -2.5078440e-05
  3.3163212e-04
  3.0070709e-04
 -6.7349547e-01
 -4.3169108e-01
 -5.9818369e-01
  2.5590518e-04
 -8.5050691e-05
 -3.0451394e-05
 -1.0285113e-04
 -5.8474263e-05
 -2.1486953e-04
 -3.5793981e-01
 -8.1157111e-02
  6.5265191e-01
  1.4246564e-04
 -1.5713883e-04
 -3.3153417e-05
  6.2214100e-01
 -2.1854737e-05
 -1.4026105e-04
 -2.7057806e-01
  1.0714348e-01
 -3.7768093e-01
  4.2237914e-03
 -1.4087006e-04
 -4.6430007e-04
 -4.7421202e-04
 -1.1631369e-06
  3.1502590e-05
  7.9196638e-05
 -2.0470651e-04
 -5.6342982e-05
  1.7988734e-05
 -9.7355194e-05
  3.5053225e-05
  7.0130497e-01
  2.6586271e-04
 -1.5167306e-04
 -2.0173018e+00
 -3.7413178e-05
 -5.4051346e-01
  1.9414076e-05
  1.8078677e-04
 -9.9993442e-05
 -3.8901106e-02
 -1.2565668e-04
 -7.9407990e-05
 -2.7609694e-01
 -6.5033585e-01
 -4.3780144e-02
 -9.1737660e-05
  7.7062992e-05
  5.7106517e-05
  6.9993949e-01
  8.6276414e-05
 -1.8123075e-05
 -2.5191855e-01
  1.3890576e-01
 -3.2669643e-05
  3.6356815e-03
  2.0697310e-06
 -9.3957497e-05
  4.6143052e-01
 -5.1601852e-05
  2.0333546e-05
 -6.3081515e-01
 -2.9447708e-01
 -1.0457392e+00
 -7.3992545e-05
  1.7189313e-04
  1.2710632e-04
  1.9403104e-01
 -2.3112453e-04
  1.3136433e-04
  1.5802804e-01
  2.3984203e-01
  1.8135773e-04
  1.9406402e-04
 -5.2543830e-05
 -3.2972610e-05
  3.7520459e-01
 -1.3085091e-04
 -3.6915997e-05
 -1.4605965e-01
 -5.5339210e-02
 -8.8061400e-02
 -1.4894812e-04
 -2.2345013e-04
 -2.5517733e-05
 -7.5560540e-02
 -3.6275235e-06
  5.1542182e-02
  1.1292801e+00
 -1.0152142e-01
 -7.4981463e-01
  5.0172344e-04
  8.8828288e-02
  8.8828288e-02
  8.8828288e-02
  8.8828288e-02
  8.8828288e-02
  1.4615526e+00
  1.4615526e+00
  1.4615526e+00
  1.4615526e+00
  1.4615526e+00
  9.5886230e-01
  9.5886230e-01
  9.5886230e-01
  9.5886230e-01
  9.5886230e-01
  2.5477490e-01
  2.5477490e-01
  2.5477490e-01
  2.5477490e-01
  2.5477490e-01
  1.1270037e-01
  1.1270037e-01
  1.1270037e-01
  1.1270037e-01
  1.1270037e-01
  3.0187049e+00
  3.0187049e+00
  3.0187049e+00
  3.0187049e+00
  3.0187049e+00
