nep4 1 Si 
cutoff 8 4 110 17
n_max 4 4
basis_size 8 8
l_max 4 2 0
ANN 30 0
  1.1006328e-01
 -8.9561246e-02
 -6.4406145e-01
  8.5013926e-02
 -2.1416806e-01
  6.8313733e-02
 -9.0923063e-02
 -1.2966315e-01
  3.7544349e-03
  5.6114163e-02
  4.2249352e-02
 -9.0577924e-01
 -2.4700409e-01
 -1.6579792e-02
 -5.1366001e-02
 -6.2740900e-02
 -4.3986414e-02
  1.4246669e-01
  1.8261795e-01
 -1.0838100e-01
 -5.7882175e-02
 -1.3983229e-01
 -1.1514723e-02
 -1.3730213e-01
  4.4092361e-02
  2.1646483e-01
  3.8892481e-01
 -2.1178889e-01
  5.9145685e-02
  1.3831086e-02
 -6.9125183e-02
 -2.3065921e-02
  1.0281422e-01
  8.7300599e-02
 -3.8949087e-02
 -3.2561040e-01
  4.8596952e-02
 -1.3977121e-01
 -4.3512657e-02
 -9.6687339e-02
  3.7960861e-02
  3.3928774e-02
 -7.7604242e-02
 -2.3544790e-02
 -4.9388964e-02
  1.1118338e-01
  3.8604595e-02
  1.2651907e-01
  7.2685472e-04
 -1.6247978e-02
 -4.4392995e-03
  1.9895425e-02
  1.3069062e-01
  7.0178662e-03
  9.7636953e-02
 -7.1185179e-02
  1.2055636e-01
 -3.0924439e-01
  7.5684510e-02
 -1.5775068e-02
 -1.0760034e-01
 -2.7149996e-02
 -3.3336021e-02
 -8.0314279e-02
  7.5442739e-02
 -7.9890586e-02
 -5.5709307e-04
  2.4042882e-02
  2.7354544e-02
  1.3172521e-01
  7.4139595e-02
  2.2343379e-02
  3.9730822e-03
 -7.6130353e-02
  2.7723005e-02
  1.1670540e-01
 -1.6200331e-01
 -9.2221662e-02
 -1.0225027e-01
  1.1358184e-01
  1.5440811e-01
  1.6549509e-02
  3.5326820e-02
  2.0987226e-01
 -6.2516317e-02
 -7.6146990e-02
 -4.5057894e-03
  3.1436980e-02
  7.8475691e-02
  2.3303308e-02
 -2.0785635e-02
 -2.2029090e-01
  2.9172507e-01
  2.5612524e-02
  1.1839579e-01
 -4.4248294e-02
  6.4189225e-03
  4.6182603e-02
 -2.0498155e-02
 -1.2852307e-01
 -2.3804063e-03
 -9.1460496e-02
  3.0182162e-02
 -2.3300239e-01
  1.5603740e-02
 -5.1761258e-02
  9.9589288e-02
  1.2796873e-01
 -1.1796577e-01
  6.9574108e-03
  1.2531313e-01
  4.2048208e-03
  1.5441458e-01
 -1.0001347e-01
 -1.2154033e-01
 -1.6681060e-01
 -4.9652841e-02
 -3.0722070e-02
  1.6728904e-02
  2.0266281e-01
  4.0173065e-02
 -4.1128393e-02
  4.0513882e-01
  2.0635930e-01
 -6.7240208e-02
 -5.3624481e-02
  1.2861711e-01
  1.4811598e-01
 -8.5187048e-02
  5.2984182e-02
 -1.6728532e-02
 -7.6850086e-02
  2.7680412e-02
  2.2001810e-01
 -1.2812185e-02
  7.3811397e-02
 -1.0219605e-01
  4.8018411e-02
  8.4374532e-02
 -1.4933935e-01
  5.0614648e-02
 -3.4746889e-02
 -1.9932333e-01
 -1.8018901e-02
  1.4123955e-01
  5.3998493e-02
  1.8184082e-01
  5.4315481e-02
 -7.9520263e-02
 -6.2991045e-02
  6.4591122e-01
 -6.4543118e-03
  8.0642223e-01
 -7.3874056e-01
 -3.9404947e-01
 -5.5481542e-02
  1.5691665e-01
  1.5923230e-01
 -8.3230197e-02
  1.1027799e-01
 -7.2106428e-02
  1.1637298e-02
 -3.1518980e-03
  4.7623059e-03
 -4.2316224e-02
 -7.8085467e-04
 -2.0048401e-01
 -4.7096822e-02
 -4.0654853e-02
 -5.0928976e-02
 -5.8235075e-02
  8.5982598e-02
  1.1478488e-02
 -2.8192863e-01
 -6.7050748e-02
 -7.6010406e-02
 -2.1767071e-01
 -4.1155195e-01
 -1.5734758e-02
 -6.0276255e-02
  1.7808020e-01
  1.1725825e-01
 -2.8009701e-01
  5.9720330e-02
 -3.0509725e-02
 -8.6382583e-02
 -9.1785856e-02
  1.4876746e-01
 -3.9923441e-02
 -3.1215215e-01
  1.0995827e-01
  1.0649041e-02
 -3.1263195e-02
  2.4584815e-02
  6.9564454e-02
 -1.0965224e-01
 -1.3739771e-01
 -8.8986292e-02
 -4.8572365e-02
 -5.1288684e-03
  1.1926233e-01
 -4.5600172e-02
 -1.6754992e-02
 -4.7289986e-02
  9.0893857e-02
 -7.7918388e-02
 -2.8241232e-02
 -7.1618252e-02
 -1.1336797e-01
  1.1495909e-01
  1.4994099e-02
 -1.2355679e-01
  1.8405995e-01
  3.6672008e-01
 -1.5970205e-01
  8.5920468e-02
  4.8866522e-02
  1.1740725e-01
 -1.1208639e-02
 -8.8613808e-02
  1.4002719e-02
 -5.5866025e-02
  2.0300724e-01
  1.4109518e-01
 -4.1258320e-02
  7.1802750e-02
  8.7211266e-02
 -2.7546262e-02
  8.7693207e-02
 -1.6434563e-02
 -2.1232450e-02
  3.4004040e-02
  5.3201471e-02
  5.0890713e-04
  1.3390599e-01
 -1.5361236e-01
  1.3888133e-01
  4.9002979e-02
  1.0114270e-01
  3.5093494e-02
  1.7412671e-01
 -3.8641848e-02
 -2.8533998e-01
  1.5180482e-02
 -4.3770779e-02
 -3.7357330e-02
  1.7487007e-01
 -3.5057865e-02
  1.4507659e-01
  1.5258705e-02
  1.1975983e-01
 -8.3953954e-02
 -2.3759581e-01
  6.0618877e-02
 -3.4457326e-02
  1.8970275e-01
 -3.4426305e-02
 -1.1775370e+00
 -5.3276397e-02
 -9.8560795e-02
  7.6734066e-02
  2.0265305e-02
  3.1042457e-02
 -4.6248030e-02
  2.1779042e-02
 -1.6168422e-01
  2.0190414e-02
 -1.5879946e-02
  6.7947701e-02
 -5.0463986e-02
 -4.5427704e-01
 -1.9340941e-01
  2.4618423e-01
  2.5850885e-02
 -9.3734711e-02
 -4.1680578e-02
 -1.7637771e-01
  1.9584545e-01
  5.1502910e-02
 -6.5008941e-04
 -7.8276098e-02
 -3.0648760e-02
 -1.7052494e-01
  1.1475307e-03
  1.8548244e-01
  8.3517425e-02
 -1.7487733e-01
  3.2594774e-02
  4.2200476e-02
 -1.5729003e-02
  3.5273515e-02
 -2.6224989e-02
  1.1969319e-01
 -4.7656879e-02
  7.4635386e-02
  1.2014805e-02
 -6.0415432e-02
 -1.4443016e-01
 -1.0217726e-01
 -1.6548019e-02
  1.6157039e-02
  1.2346893e-01
 -1.2044147e-01
  7.8797646e-02
 -8.2752146e-02
 -2.8897167e-04
 -2.1526795e-03
  2.8282231e-01
  1.8873636e-01
  2.0663095e-01
  1.5802534e-01
 -7.6180048e-02
 -1.0519522e-01
 -4.4211481e-02
  8.8428661e-02
 -1.8567069e-01
 -7.6270126e-02
  5.6015532e-02
 -5.6279168e-02
  1.5671283e-01
  5.7502717e-02
 -1.1120090e-01
  5.9566945e-02
 -6.8416812e-02
  4.6469234e-02
  5.8265369e-02
  8.1025567e-03
 -6.1434046e-03
  8.9368865e-02
 -2.1488117e-01
  2.6078057e-02
  1.9634416e-02
 -1.9645301e-01
 -9.4787262e-02
  6.1869200e-02
 -7.0766129e-02
  3.2848552e-02
  9.5599249e-02
 -2.3303106e-01
 -9.0113329e-03
 -8.2263194e-02
  9.0229064e-02
  1.3996457e-01
 -2.4495807e-02
  1.9328490e-01
 -1.4249063e-01
  2.5569037e-02
  3.8980696e-02
  9.1983266e-03
 -1.3218781e-01
 -4.6448030e-02
 -1.6043993e-02
 -2.0454254e-02
  1.4475845e-02
  5.1516052e-02
 -1.7040778e-02
  1.7621127e-01
  2.3117471e-01
  1.3464847e-01
  1.5004607e-01
 -1.4840415e-01
  3.2081723e-02
  2.5272229e-01
  1.6381574e-01
  7.9287902e-02
 -7.6932780e-02
  3.9483584e-02
  8.1832958e-03
 -2.3388356e-01
  4.0162455e-02
  4.4223133e-02
  7.8409776e-02
 -3.4736138e-02
  3.1501260e-02
  4.3355487e-02
  4.2114286e-03
 -7.2144993e-02
  4.6850182e-03
  2.8672099e-02
 -5.8671229e-02
  2.7211001e-02
  4.2553473e-02
 -4.5427132e-02
  7.8558117e-02
 -1.8395970e-02
 -5.5406153e-02
  2.1309840e-02
 -2.0087499e-03
  1.7890777e-01
  9.3741357e-02
 -1.2414244e+00
 -7.1853334e-01
 -6.0982507e-01
 -1.0895160e-01
 -2.0109504e-02
  4.2610386e-01
  5.6591094e-01
  2.2054753e-01
 -4.0684622e-02
 -1.1202038e-01
  4.9814484e-01
  1.1961126e-02
  4.8504150e-01
  8.3200628e-01
  2.7591401e-01
 -2.3692613e+00
  6.2479001e-02
 -5.0695669e-02
  1.0126016e-01
 -3.8931213e-02
 -6.7250657e-01
 -3.7657261e-02
 -3.2465730e-02
  8.2267672e-02
 -1.5972050e-01
 -1.8570172e-02
  9.0500943e-02
  4.7058772e-02
 -5.2264951e-02
  2.4231505e-01
  1.6278484e-01
  1.4504670e-01
 -1.3827512e-01
  8.7894157e-02
  2.4856396e-01
 -1.0572843e-01
  1.4191170e-01
 -2.4155718e-01
  1.5327321e-02
  7.8465445e-03
 -6.8528257e-02
 -1.0039756e-01
  1.3644456e-02
  6.0412325e-02
  3.6088815e-01
  1.0809474e-02
 -5.5495646e-02
  1.1787365e-01
  1.1379454e-01
 -1.0464997e-01
 -2.9652255e-02
 -1.4865002e-01
 -2.7700987e-01
  2.9622808e-01
 -4.2451392e-03
  1.7157389e-01
 -5.9869245e-02
  3.2490127e-02
  2.8220941e-03
 -8.0207855e-02
  3.0200137e-03
 -3.3502430e-01
  2.5000811e-01
 -1.3849989e-01
  1.1762764e+00
 -8.0520473e-03
  2.9912236e-01
 -5.7993375e-02
 -3.8066708e-02
 -2.6266402e-01
 -7.2192729e-02
 -4.0475555e-02
  3.5898054e-01
  1.3313268e-01
  5.2711636e-02
 -2.0119871e-03
  2.4640805e-01
  9.8728389e-02
  9.8713025e-02
  1.3008355e-02
  2.6337462e-02
  3.8726300e-02
  1.6881529e-02
  1.1649312e-01
  4.4861902e-02
 -4.8053593e-04
  3.7918992e-02
  1.7618878e-01
  2.4735596e-02
 -6.4158402e-02
 -1.7790374e-01
  7.6213948e-02
  1.0690013e-02
 -3.2975867e-02
  1.2001042e-02
 -2.1180075e-01
  5.8954015e-02
  1.3410600e-01
  1.3877898e-02
  6.0264923e-02
 -1.6140315e-01
  1.1119133e-01
  1.9545421e-02
  5.5731475e-02
  1.3422090e-02
 -7.4686781e-02
 -7.5236194e-02
  5.4963643e-04
 -7.4588761e-02
 -1.8532361e-01
 -1.7718035e-01
 -3.0906327e-02
 -5.0742470e-02
 -8.8611968e-02
 -3.5980374e-02
 -3.0974746e-01
 -1.4943734e-01
  2.5221536e-02
  8.8308170e-02
 -1.4575927e-01
  5.0039852e-01
 -1.9529518e-01
  5.1939040e-01
 -1.6793098e-01
 -1.8922415e-01
 -6.2689477e-01
  9.6133012e-01
 -3.9605168e-01
 -1.1243501e-02
 -2.4414670e-02
  8.5977115e-02
  7.0597422e-01
 -1.4651760e+00
  7.8262188e-02
 -6.3750106e-01
 -1.8749266e+00
  6.2898052e-01
  2.8758255e-01
  8.7033147e-01
 -6.7534149e-02
 -2.8229523e-01
  5.5721670e-01
  6.9185048e-01
 -4.4635874e-01
 -1.1350137e-01
  4.1782275e-01
 -4.6632443e-02
  2.2932388e-01
  5.1041359e-01
 -5.1913983e-01
 -1.1851300e-01
  2.8977555e-01
 -3.2811344e-01
 -1.4373606e+00
  6.0779121e-02
 -3.7253898e-01
 -5.9884423e-01
  4.7014531e-02
 -3.2520387e-01
  5.4255265e-01
 -6.8833101e-01
 -1.0039514e-01
  6.1365489e-02
  1.1714050e-01
  2.3777969e-01
  3.2566801e-01
 -4.6724409e-02
 -7.6417759e-02
  5.9861917e-02
 -9.9144213e-02
 -1.4265348e+00
  1.9431916e-01
  7.7784218e-02
 -1.5679127e-01
 -8.7843478e-02
  3.0697308e-02
  2.9652508e-02
 -4.1499767e-02
  1.1567168e-01
 -2.2171968e-01
 -1.5647637e-02
  4.1388795e-03
  1.9963360e-01
  4.1071337e-01
  2.4839216e-01
  2.0719808e-02
 -4.5789454e-02
 -3.4921385e-02
 -9.3644463e-02
 -6.0582988e-02
 -5.6134436e-02
  6.0830180e-02
 -3.8844872e-02
  1.9134349e-03
 -2.9887812e-02
  3.6392990e-02
 -1.3212326e-01
  7.0974052e-02
 -3.4251344e-01
 -2.7136918e-02
 -2.7897248e-02
  8.3984353e-02
 -4.1464996e-02
  7.7715524e-02
 -5.3495140e-04
 -8.7363966e-02
 -1.0887392e-02
  8.5909829e-02
 -2.2419414e-02
 -2.7099933e-02
 -1.9562744e-02
 -4.5574423e-02
  1.8218184e-01
  4.8260365e-02
  1.1807014e-02
  5.7116646e-02
 -7.7435263e-02
  4.3239385e-02
 -1.9953020e-01
  2.6608887e-01
  1.0860648e-01
  1.3486068e-01
  4.8782863e-02
  6.2867612e-02
 -1.8319676e-02
 -1.2006025e-01
  1.0554395e-01
  1.3865723e-01
 -1.3356132e-02
  5.9589017e-02
  1.4653030e-02
 -1.2011650e-01
 -1.3046320e-01
 -2.2036898e-01
 -4.7504626e-02
  1.2345094e-01
  2.4794127e-01
 -1.2991481e-01
 -6.6330865e-02
 -9.1424622e-02
 -4.9982479e-01
 -5.4019406e-02
 -2.1083714e-01
  3.4712940e-01
 -1.9350355e-02
  5.1640993e-01
 -4.4859043e-01
 -1.3588110e+00
 -3.1886938e-01
  9.7556901e-01
  6.7389482e-01
  6.5264967e-03
  2.4953656e-02
  2.3940108e+00
 -1.7544788e+00
 -1.1602292e+00
  4.4363582e-01
  9.4995834e-02
  2.6260242e-01
  1.1731946e+00
  3.5271242e-01
  7.9572654e-01
  4.3872483e-02
  1.9105151e+00
 -1.4168715e-01
 -2.3405980e-01
  1.9720353e-01
 -1.7016594e-01
  3.7243003e-01
 -1.2081355e-02
  7.9658441e-02
 -2.4691513e-02
 -1.6854438e-01
  5.6472279e-02
  6.3391356e-03
  2.8326441e-02
 -7.4989311e-02
 -2.2852521e-02
  4.3985853e-03
 -1.2026775e-02
  1.4515520e-02
  7.3598363e-02
 -8.8644505e-02
 -1.2663747e-01
 -6.2387127e-02
  2.2685564e-01
 -1.7955920e-03
 -5.2254707e-02
 -1.5441421e-01
 -3.8586166e-02
 -5.2046697e-03
 -8.6394630e-02
  1.3622350e-01
  1.9650640e-02
 -4.0902653e-01
  1.3790902e-01
  2.6012397e-01
 -1.5856940e-01
 -1.9021747e-01
 -1.9783961e-02
 -4.5210905e-02
  2.5019753e-01
 -1.3976212e-01
  2.1356186e-03
  2.8359223e-02
 -3.4232381e-01
  2.5061870e-01
  1.6796841e-01
 -1.9274108e-01
 -8.0159180e-02
  3.0784989e-02
  1.5086081e-02
 -5.1588826e-02
  1.8162033e-01
 -2.4818426e-01
 -2.5398016e-01
 -7.2651483e-02
  4.7580302e-02
 -3.7961543e-02
  1.7549151e-01
  1.3817090e-01
  8.7471253e-01
 -6.1132923e-02
 -4.6729669e-02
  3.9417356e-02
 -4.9102809e-02
 -4.1598156e-02
  4.4363786e-02
 -2.5925491e-02
  1.1098462e-01
 -3.6685756e-01
 -6.8249628e-02
  9.2203610e-02
  7.1719505e-02
 -9.3765631e-03
  8.4248640e-02
  8.1333883e-02
  5.8715615e-02
 -1.8777713e-01
 -1.0165520e-02
  7.7357411e-02
 -6.2599644e-02
 -1.2075813e-02
  7.4100584e-02
 -7.7522859e-02
  1.5077318e-01
 -4.0400088e-02
  9.2109501e-02
 -1.4685205e-01
 -1.3090688e-01
  4.5823541e-02
  8.3431333e-02
 -1.3970724e-01
  4.4914477e-02
 -5.6076944e-02
  1.2579012e-01
  1.0520545e-01
  7.5207581e-03
  3.2365076e-02
 -6.4158753e-02
  2.2355939e-01
 -1.1844488e-02
 -1.4530389e-01
 -2.1702340e-02
  4.3735788e-03
  1.3485519e-02
  1.5376590e-01
 -1.3250670e-01
  2.8527446e-02
  1.5034834e-02
 -6.2553375e-03
  6.2633562e-01
  7.4700080e-02
 -1.2133608e-02
  4.9267683e-02
 -4.1437917e-03
 -2.0968098e-02
 -4.0453766e-02
  4.2603496e-02
 -6.5233871e-02
  1.3893922e-01
  1.8652624e-02
 -4.4331938e-02
 -7.9109594e-02
  4.3360200e-02
 -6.2295921e-02
  9.7855898e-03
 -1.9547140e-02
  2.0327726e-01
 -2.1909305e-01
 -1.4289002e-01
 -3.0173239e-01
  4.2539764e-02
 -2.2200485e-01
 -5.7020862e-02
 -2.2123767e-01
  7.6368742e-02
  1.5225665e-01
 -1.0454744e-01
 -7.2620988e-02
 -2.0216981e-01
 -1.6940717e-01
 -4.8144288e-02
  3.4756329e-02
  2.0140226e-01
  3.4977529e-02
 -1.2365071e-01
  8.2755871e-02
 -3.5280064e-01
  8.2760930e-02
 -2.4421655e-01
 -1.1907843e-01
  4.9121901e-02
 -5.1511075e-02
  2.0879994e-01
 -2.1662153e-03
 -8.3115630e-02
 -2.8546706e-02
  2.3637611e-02
 -1.7963144e-01
 -3.3216617e-01
  1.1790475e-01
  3.1762019e-02
  2.9502663e-01
 -1.8988332e-01
 -7.2637016e-01
 -1.0058178e-02
  9.4466330e-03
 -4.3904733e-02
 -1.5833731e-01
 -2.0639288e-01
  3.1842336e-02
 -5.0406326e-02
  8.3076686e-02
 -5.0387673e-02
  5.5739019e-02
  5.0249621e-03
 -8.4428117e-02
 -4.1430291e-02
 -4.9622856e-02
 -1.3655570e-01
 -1.2014642e-01
  2.4173282e-02
  1.4752425e-01
  1.2277990e-01
 -1.7106565e-02
 -4.6023458e-01
 -6.0702290e-02
 -1.0808904e-01
 -6.9697434e-04
  1.2739579e-01
  3.5169795e-02
  3.4926447e-01
  2.0285597e-01
  2.5652277e-01
 -6.0788289e-02
 -1.0379822e-02
  8.7646786e-03
  6.6880643e-01
 -6.0496811e-02
 -3.3298351e-02
 -1.7580424e-01
  1.3478976e-01
 -6.5586671e-02
 -2.0960735e-02
 -7.3883040e-03
 -3.9840480e-03
  1.1420560e-02
  1.0891788e-01
 -1.3506198e-01
  6.8781652e-02
 -2.6734412e-02
  4.5893170e-02
  3.3228237e-02
 -2.2959319e-01
 -1.7444870e-01
  1.0679397e-01
  1.8572144e-02
  1.6386525e-01
  8.4793903e-03
  7.4628651e-02
  3.6960170e-02
  2.1944730e-01
  9.2388672e-01
 -6.0920119e-02
 -1.2123632e-01
 -7.9554841e-02
 -3.1474922e-02
  2.6732218e-02
 -1.5099004e-02
 -1.6369483e-01
  7.7172168e-02
 -5.6828126e-02
  8.3389856e-02
  3.8906180e-03
 -3.2015133e-01
  1.1199898e-01
 -6.6392086e-02
  1.8981312e-01
 -1.3064249e-01
 -3.2517482e-02
  1.9742955e-01
 -1.5141731e-02
  5.2537464e-02
  4.1937415e-02
 -1.4668806e-01
  2.5285386e-02
 -3.9933711e-02
  2.0899579e-01
  1.8207550e-02
 -1.1419323e-01
  2.0287470e-03
 -1.1863972e-01
  3.2960832e-02
  9.8138332e-02
  5.5165637e-01
 -5.2092373e-02
 -6.3846953e-02
  5.9144754e-02
 -9.9072866e-02
 -4.2015403e-03
 -7.1217939e-02
 -1.0205997e-01
  2.4307075e-01
 -1.1161344e-01
 -8.0857687e-02
 -8.0530569e-03
  4.4711292e-01
 -1.3086994e+00
 -3.2025710e-02
 -1.2402597e-02
  8.2794380e-01
 -6.3555889e-02
  2.5909662e-01
 -7.4770325e-03
 -4.9135931e-02
 -8.0806017e-02
 -1.0994641e-01
 -2.9409146e-02
  8.0574416e-02
  1.1784087e-01
 -8.8713029e-03
  1.0893030e-02
 -8.2951181e-02
  1.4968351e-01
 -7.8437471e-01
 -5.8657471e-03
  1.2625583e-02
  3.0737022e-01
 -3.8131863e-02
  1.6162932e-02
 -6.1932456e-02
 -4.1586530e-04
  3.4728369e-01
 -2.1499377e-02
  3.1394917e-01
  4.6581049e-03
  4.6523154e-01
  1.0326625e+00
 -3.0584641e-02
 -5.2515879e-02
  4.4291255e-01
  2.7177671e-02
  3.2922439e-02
  4.4818603e-02
  2.0706112e-02
 -1.6810102e-02
  2.0730650e-01
  1.3665983e-01
  1.5530711e-01
  3.5186396e+00
 -2.7778122e-01
  1.1362686e+00
  7.6813936e-02
  5.0239241e-01
  2.3047054e-01
  1.3806800e-02
 -1.5260602e+00
 -8.0097896e-01
 -7.3368561e-01
 -8.1772584e-01
 -1.7426592e-01
 -2.7578169e-01
  1.7855364e+00
  4.1556177e-01
  4.2938873e-01
 -3.7206987e-01
  5.2877927e-01
 -9.0740240e-01
  1.3790200e+00
  1.4203672e-01
  1.1662340e+00
 -6.1760396e-01
  9.5890284e-02
 -4.5176774e-01
 -5.0137597e-01
  6.8042183e-01
  1.2753035e+00
  5.8403605e-01
 -6.5313406e-02
 -9.3622975e-02
  4.5515090e-01
  5.5926853e-01
 -5.5149788e-01
  7.3223299e-01
 -1.6409855e+00
 -8.2758307e-01
  2.4087521e-01
 -1.0431467e-01
 -1.3212907e-01
 -4.3280843e-01
  7.7412039e-01
  6.4451420e-01
 -3.0447555e-01
 -6.7576456e-01
 -7.9690993e-02
  2.7346554e-01
  8.8993245e-01
  4.0120330e-02
  2.8838405e-01
 -1.8468046e+00
  1.2655225e+00
  9.2449293e-02
 -1.1440854e+00
  1.2031392e+00
  7.1359313e-01
 -6.5429920e-01
  2.3831810e-01
  8.6507373e-02
  1.2631456e+00
 -1.6300991e-02
  1.5464355e-01
 -3.4217364e-01
 -1.0849659e+00
  4.5229459e-01
  5.2719928e-02
  2.8488734e-01
  1.6784865e-01
  1.7673400e-01
 -4.8045951e-01
  5.1313639e-01
 -1.3191605e-01
 -2.7436495e-01
 -1.1730219e-01
  7.4578214e-01
 -1.3621019e+00
  1.4310483e+00
 -7.2585143e-02
  1.6823010e+00
  2.4684864e-01
  1.2463607e+00
 -9.5086950e-01
 -4.8739591e-01
 -1.6589572e+00
 -2.4150589e-01
 -3.6392990e-02
 -4.1704440e-01
  4.3968860e-02
  1.4671028e+00
  1.8434776e-01
  8.1581187e-01
  2.2557551e-01
  2.2557551e-01
  2.2557551e-01
  2.2557551e-01
  2.2557551e-01
  3.8870852e+00
  3.8870852e+00
  3.8870852e+00
  3.8870852e+00
  3.8870852e+00
  1.0689396e+00
  1.0689396e+00
  1.0689396e+00
  1.0689396e+00
  1.0689396e+00
  1.1795657e-01
  1.1795657e-01
  1.1795657e-01
  1.1795657e-01
  1.1795657e-01
  1.8609168e-01
  1.8609168e-01
  1.8609168e-01
  1.8609168e-01
  1.8609168e-01
  3.3672001e+00
  3.3672001e+00
  3.3672001e+00
  3.3672001e+00
  3.3672001e+00
