nep4 3 Sb K Au 
cutoff 8 4 75 14
n_max 4 4
basis_size 8 8
l_max 4 2 0
ANN 30 0
 -3.4023324e-05
  1.8093893e-05
  3.0455391e-05
  1.1633397e-05
 -1.2335998e-04
  9.4768047e-06
  5.6887300e-05
 -5.7532184e-06
 -4.2578009e-05
 -2.2866868e-04
  2.0275240e-05
  3.2627670e-04
  1.6964975e-06
  1.0658880e-05
 -2.6997255e-05
 -1.5953705e-05
 -7.7860896e-06
 -1.5457386e-05
 -1.0700457e-04
  2.7456588e-05
 -6.5609071e-05
  1.6161696e-04
  3.1555835e-05
  1.9136971e-06
 -4.0604009e-06
 -1.6884080e-05
  1.1533196e-05
  4.1348128e-05
 -3.7476938e-04
  7.9849933e-06
  2.4533128e-05
  4.0303254e-05
 -6.3536470e-05
 -3.5602134e-05
  2.7730010e-05
 -1.5260298e-04
 -4.6185269e-05
 -2.4046671e-05
 -5.8332216e-06
 -3.6129429e-06
  5.2064614e-05
  1.2822242e-05
  8.5190677e-06
  2.6651680e-06
  1.9423060e-05
 -4.3112300e-06
 -4.7544416e-04
  2.5349165e-05
 -3.0906888e-06
 -2.6606411e-05
 -1.5802477e-06
 -9.7235952e-06
  1.1948499e-05
  4.1451875e-07
 -1.0573201e-06
 -4.9703413e-05
 -4.4935838e-05
  3.2112741e-05
 -2.0403142e-05
  3.7209256e-06
  3.3189937e-02
 -1.3437007e-01
 -4.5509014e-01
  4.6105051e-01
 -2.1132765e-02
  2.7789423e-01
  1.0751649e+00
  9.4289921e-02
  8.4054047e-01
 -1.4913096e-05
 -8.1725935e-05
  1.2521691e+00
 -5.2611183e-02
 -2.1581273e-01
 -9.5109071e-06
  9.7054225e-01
  1.0902597e-01
  9.7442366e-02
  8.9336537e-02
  3.5322885e-06
  2.1036451e-01
  3.1241569e-01
 -6.3831228e-01
  5.1540274e-02
  4.0461009e-06
  2.9452142e-04
  5.3164866e-05
  1.1893089e-01
 -6.4132854e-02
 -2.2226301e-05
 -9.0022586e-02
  1.1615229e+00
  5.2034950e-01
  7.4568754e-01
 -2.7780255e-02
 -1.7791750e-05
  5.8853966e-01
 -3.5903770e-01
 -3.2332444e-03
 -1.9334499e-05
 -4.7598245e-05
  5.1632822e-01
 -2.3459309e-01
 -2.7428105e-01
 -1.5824095e-05
  8.7842942e-05
  2.8324154e-01
  2.0886026e-01
 -4.5112014e-01
 -1.0390793e-05
  1.9915887e-04
 -1.9873407e-01
 -7.0349193e-01
 -4.6080559e-02
 -3.8810616e-05
 -2.4322555e-05
  9.2850514e-06
 -9.1663518e-05
 -5.5386226e-06
 -2.3790833e-05
 -1.5582678e-05
 -9.9032095e-06
  7.4265881e-06
 -2.9099167e-05
 -1.9337099e-06
 -2.6936639e-05
 -6.7189757e-07
  3.0247293e-05
  1.2959184e-05
  2.9469025e-05
  1.8411360e-05
 -9.5328214e-06
 -3.0167630e-05
  3.5154792e-06
  4.3553326e-05
 -3.1257310e-05
  2.9970242e-05
 -1.5368560e-04
 -9.7910706e-06
  5.8187416e-05
 -2.5916534e-05
  4.8069400e-05
 -1.5023707e-06
  1.9869556e-05
 -2.5505119e-06
 -1.1389434e-05
 -2.6700471e-05
 -7.8180543e-05
  2.0392403e-05
  5.5916303e-06
  6.2569749e-01
 -5.5188186e-05
 -1.5632324e-02
  1.1631835e-04
 -4.5016122e-01
 -1.3921323e-05
 -1.8770714e-05
 -1.3762027e-04
 -1.3199367e-05
  4.5697674e-05
  2.6625161e-05
 -3.3605636e-05
 -1.0332029e-05
 -3.7303675e-05
  4.4681256e-05
  6.5773580e-05
  1.7155849e-05
  7.7423219e-06
 -6.2599120e-06
 -3.3676861e-05
  1.4960527e-05
 -4.8816473e-05
 -4.0425373e-05
  3.3829810e-06
 -1.8334309e-05
  4.4591061e-06
  4.3495325e-05
  5.7727564e-04
 -4.3190710e-05
  6.5453038e-05
 -1.9866806e-03
  1.5639316e-02
  9.2564851e-02
 -3.8113373e-03
 -1.0789894e-03
 -4.0776558e-05
 -2.7283898e-02
 -1.1322858e-04
 -1.8772732e-04
  1.1069597e-05
 -1.2306671e-05
 -4.6892494e-01
  5.5265073e-02
  3.4558965e-05
  2.4409746e-05
 -1.4175184e-01
 -1.2459945e-02
  6.8935584e-03
  2.4786105e-03
 -9.9830075e-05
 -1.5838394e-05
 -2.2350821e-06
  5.8411085e-03
 -7.5425050e-05
  8.2331680e-06
  3.4363893e-05
 -7.8906203e-05
 -1.5282365e-04
 -1.0690153e-06
  2.1650545e-05
  1.2318272e-05
 -1.0804166e-04
 -4.1546424e-05
 -1.3919453e-06
 -1.2339426e-04
  6.5614772e-06
 -3.1632026e-05
  1.0395711e-06
  9.7160901e-06
 -9.0964622e-06
  8.4151463e-05
 -8.4273335e-05
  7.5454614e-06
  3.3512693e-05
  5.5393352e-06
  8.1925784e-05
  2.8738199e-05
  2.7307298e-05
  8.0675090e-06
 -2.2138496e-05
  5.6275808e-06
  4.2665917e-05
 -2.2122773e-05
  1.3418130e-05
  2.4564450e-05
  2.6696274e-05
 -1.4928454e-05
 -1.6128757e-05
 -1.4609102e-05
 -1.7537006e-05
  2.9613250e-01
  1.4777061e-04
  4.0637482e-02
 -5.0634507e-02
  6.1728284e-03
  3.5784283e-06
 -2.9343135e-05
 -4.5848859e-04
 -1.8188250e-05
 -1.4472429e-06
  7.9634538e-06
 -3.9100602e-02
 -1.2118972e-05
 -8.1547751e-06
 -2.2206993e-06
 -2.0048998e-03
  6.7434280e-06
  8.3801431e-05
 -1.3524983e-05
  7.4476593e-05
 -5.0219081e-05
  1.7694825e-05
  7.3032163e-05
 -9.5226369e-06
 -1.6965352e-05
 -1.2906794e-04
  1.2986065e-05
  4.1620664e-05
  9.5930054e-06
  3.3732082e-05
 -2.7503759e-01
  2.0009778e-02
  2.5865763e-01
 -1.0961840e-01
  3.2245705e-01
  1.4529964e-05
 -1.3594622e-05
  4.3255532e-06
  1.5483747e-05
 -6.5676541e-05
 -3.2008291e-05
 -2.0117292e-03
 -1.1839905e-05
 -2.6251414e-04
  3.4399112e-05
 -1.3913671e-04
 -5.9495348e-02
  5.8762413e-07
 -2.9513330e-05
 -4.8441898e-06
 -2.2252905e-06
 -4.6646621e-04
  2.6248505e-02
 -9.1345581e-05
 -1.0933874e-05
  1.8359469e-05
 -6.1584469e-05
  1.0716365e-05
 -3.8997533e-07
  3.8670601e-05
 -2.2870754e-05
 -1.3909790e-04
 -7.5633416e-06
 -7.2101277e-05
  1.7012488e-05
 -6.8879745e-06
  7.9182691e-06
 -4.9809597e-07
  3.9474529e-05
 -1.2052181e-05
  7.5738659e-05
 -3.6123434e-05
  4.0516174e-05
 -2.3135672e-05
 -1.1661926e-05
 -3.6825728e-05
  1.9016910e-05
 -7.5881717e-06
  1.7064386e-04
 -2.8347413e-06
  5.9200593e-06
  5.3761360e-06
  8.4519479e-06
 -1.2543422e-05
  7.5964192e-05
  5.8036103e-06
  1.1540535e-05
 -1.6424849e-05
 -8.7928001e-06
 -4.5163174e-06
 -3.7811045e-05
 -1.9564546e-05
 -5.8841510e-05
 -4.9243645e-06
 -7.4981435e-05
 -3.4724198e-05
 -2.0931815e-05
 -1.4337080e-05
 -7.2297244e-06
 -1.6791670e-05
 -3.4554125e-04
  2.8455772e-05
 -2.4143458e-07
  3.5405872e-04
 -8.7708841e-06
  4.1862815e-05
 -1.9876748e-06
  2.7980166e-06
  3.2922086e-05
  7.3722309e-05
  1.1666982e-04
 -4.1205058e-05
 -8.1993124e-07
  1.9391915e-05
  5.0287916e-05
  6.7473215e-06
 -9.8168530e-06
 -1.2146324e-05
  1.0022525e-04
  3.3549808e-05
  8.3561263e-06
 -1.3847701e-05
 -1.6440454e-05
 -7.7911964e-06
  1.1693184e-05
 -3.8946960e-06
  2.5722245e-05
  1.2809722e-04
  2.8818431e-05
 -1.1193460e-05
 -3.8600898e-05
  2.8185481e-05
  1.3952688e-05
  1.5660819e-06
 -2.4838688e-05
 -1.7870376e-05
  8.2057278e-04
  5.9340844e-05
 -1.5573954e-05
 -9.4127736e-06
 -3.7301255e-09
  1.6156710e-06
 -3.3554312e-05
  9.2841992e-06
 -3.5216846e-05
 -9.5190851e-05
  2.2537420e-06
  5.5009480e-07
  2.0600977e-05
  1.2401593e-05
  4.5348152e-05
  5.4115840e-06
 -1.0860007e-05
 -1.0336930e-05
 -1.3983534e-05
 -6.8753989e-06
  5.6865363e-05
  9.4441448e-06
 -1.9076751e-06
 -3.6475533e-06
 -1.0096971e-04
 -1.5302072e-05
 -7.4365607e-06
 -5.5441710e-06
  3.1277013e-05
 -1.2569115e-04
  2.3500192e-05
  9.9311896e-05
 -5.8561673e-06
  1.7522018e-05
 -6.8729937e-06
 -4.8818547e-06
  2.7047141e-05
  6.9108637e-06
 -2.0718040e-05
  1.8999262e-05
  1.7858694e-05
 -2.1345935e-05
 -6.7650885e-06
  6.1999359e-05
 -3.2094899e-01
  2.7000087e-01
  1.1885948e-02
  2.8119561e-01
 -2.9929275e-05
  1.1553193e-05
 -2.4888497e-05
 -7.5947355e-05
  2.1963303e-06
  5.3013732e-08
 -1.3141079e-04
  3.6949159e-03
  2.8605906e-05
 -8.4655279e-05
 -4.5170804e-05
  1.1099066e-05
  8.3507184e-05
 -1.0438249e-05
 -2.7995153e-05
  4.3221768e-05
  1.5749627e-05
 -1.0836769e-02
 -8.6537832e-03
  5.4134048e-06
  6.2472092e-05
 -4.5187335e-05
  2.2511895e-05
  1.0454413e-04
 -3.2184002e-05
 -2.7273168e-07
 -3.6463559e-06
  1.0063761e-05
 -7.7597913e-05
 -1.4919729e-05
  1.3484256e-05
  6.6269549e-06
 -2.0281630e-05
  1.0105137e-05
  1.4906275e-05
  6.0003185e-06
  5.9611280e-05
 -2.9060711e-05
 -1.1069186e-04
 -1.6189328e-05
  5.3718113e-06
 -1.0628908e-05
  7.2152147e-07
 -4.4598783e-05
 -1.5541042e-05
  1.6959762e-05
  6.4938969e-05
 -1.8757667e-06
 -8.0419550e-06
  1.9861504e-06
  6.2090485e-06
 -1.4399783e-05
 -8.6997852e-06
 -6.5198401e-06
 -7.2903995e-06
  5.3901663e-06
 -1.3624747e-06
 -1.8444257e-04
  1.1853874e-05
 -3.9518341e-06
  2.7067626e-05
 -1.2373252e-05
  2.9052579e-04
  4.2951771e-05
 -1.5822980e-07
 -7.2989665e-06
  2.2431370e-05
  5.3114891e-06
 -1.3771659e-05
 -6.0242532e-05
 -4.7006601e-05
  4.5219196e-05
  3.9649312e-05
  2.9708328e-05
 -4.0116021e-05
 -4.6688434e-05
  3.3206652e-05
  9.9386370e-06
  3.6693938e-05
  7.6945134e-06
  5.6366466e-06
 -1.1735263e-04
  1.9588058e-05
  2.9894702e-05
 -7.8012199e-06
  5.3920798e-05
  5.7596794e-06
 -3.2272215e-05
 -1.9907529e-05
  1.4436563e-05
 -2.8479484e-05
  3.1203894e-05
 -5.5487541e-05
 -4.3834531e-05
 -3.1399995e-05
 -7.7978857e-06
 -1.3204350e-05
  7.0085157e-06
  2.9848006e-06
  2.9145687e-05
  1.8505074e-05
  3.0121540e-05
  5.8390474e-06
  3.4617526e-05
 -3.1888363e-04
 -1.3562636e-06
 -2.0060888e-05
 -3.0580229e-06
  6.1224098e-05
 -1.4669286e-05
 -9.7164411e-07
  9.4348343e-06
  5.4488128e-06
  1.1713484e-04
  5.4020740e-05
  6.4539339e-04
  5.5470973e-01
 -1.3568410e-01
  2.2356195e-02
  1.1665397e-01
 -5.3590852e-01
  1.2269647e-05
 -6.0785371e-01
 -1.2563807e-01
 -9.4293147e-01
  1.0845941e-06
  8.5695110e-06
 -4.4077709e-01
  2.8091012e-05
 -1.4225627e-01
  1.5142355e-05
 -5.5682682e-04
 -2.7421068e-02
 -3.7611719e-02
 -2.8477702e-01
 -2.2818640e-05
 -2.8577477e-05
 -1.6483406e+00
  2.8082533e-02
 -7.0086926e-02
 -9.1937451e-05
 -3.2324693e-05
  1.2199588e-05
 -9.2078466e-03
 -2.6327565e-05
 -3.5750090e-05
  3.3994176e-05
 -9.5480818e-06
 -4.5493234e-05
 -1.5404668e-05
  2.9251829e-05
 -5.0577699e-05
  1.1681892e-05
  3.6287865e-06
 -4.1207181e-06
  1.8861280e-06
 -3.7406156e-05
 -1.5187121e-05
  2.5874464e-05
 -3.1086747e-05
 -1.7078548e-05
 -8.1820635e-06
 -3.0344859e-06
  6.8393397e-06
 -4.8961738e-06
  1.6278302e-06
  8.2970591e-06
  7.6560195e-07
 -7.3533673e-05
  1.6279376e-04
 -5.7333123e-06
  1.8136003e-05
  3.4166980e-05
 -3.6488229e-05
 -4.2448850e-05
 -8.0248983e-06
 -4.9840724e-01
  1.5233182e-06
  4.4102255e-02
 -3.7540480e-02
  2.5460368e-01
 -2.6340140e-05
 -3.5639860e-05
  5.3068226e-05
 -9.7614784e-06
  2.0521870e-06
  2.8273728e-06
 -3.5868175e-04
  1.4186897e-05
  8.2888992e-06
  1.5358490e-05
 -1.1101437e-04
 -1.1278284e-02
  8.3171151e-05
 -3.7610269e-05
 -1.4014617e-05
 -3.2992830e-06
 -2.5864098e-05
  3.1772291e-03
 -3.5657929e-05
 -3.0794974e-05
  1.0048108e-05
 -2.7093382e-05
 -2.0903113e-05
  1.1761373e-05
 -1.3454007e-05
 -3.5174668e-01
  2.5969440e-01
  4.1020060e-01
 -5.0871346e-02
  4.4669771e-01
 -1.2111358e-02
 -9.9708915e-02
 -7.6104361e-03
 -6.8775425e-06
 -1.8980456e-05
 -3.4877055e-05
 -2.3271106e-01
  2.7352592e-04
  1.6668444e-02
  3.3598128e-05
 -3.6374679e-01
 -1.7486662e-02
  2.1953117e-02
  3.1624671e-02
 -3.6198853e-05
 -2.1696590e-04
 -5.3568486e-02
  6.6885576e-02
  6.8102004e-06
  8.5817794e-07
 -1.8161105e-05
  5.4027569e-05
 -2.3155042e-05
  1.5424340e-04
  1.4508124e-06
 -7.0174951e-06
  4.2353542e-05
 -2.0457690e-05
 -1.3783392e-05
  7.9315359e-06
  1.1096601e-05
  1.8698087e-05
  1.5634345e-05
  2.0868098e-05
 -6.1408987e-06
  3.2551927e-08
 -1.0233580e-05
  6.2633026e-06
  1.4738993e-05
  9.2640257e-06
  3.0754683e-05
  9.6104241e-06
  6.7510846e-05
  1.0435808e-05
  1.9435514e-05
  1.6352182e-05
  1.9949525e-06
 -4.4953131e-06
 -3.3962478e-05
  8.6622058e-05
  2.0033587e-05
  1.7389470e-05
  2.7885881e-07
  1.2686437e-04
  3.5290886e-05
  1.0344716e-05
  1.5739117e-05
  1.9617637e-05
  8.6113796e-06
 -3.6707613e-01
  1.4633144e-05
  3.1644147e-05
  1.6295466e-05
 -1.2924903e-04
 -2.2017181e-05
  1.7675940e-06
  1.9536601e-05
  4.9768523e-06
 -6.4860694e-07
  3.0114570e-06
 -2.5716454e-05
 -3.7177229e-05
  3.8209047e-05
  5.3795287e-05
 -2.4613862e-05
  1.6320899e-05
  2.4605948e-05
  2.1836755e-05
 -2.5431871e-05
  9.0383955e-06
  2.0441687e-06
 -4.7590720e-06
  2.6608129e-06
  3.3397650e-05
  1.1134238e-05
 -2.4452514e-04
  1.4912752e-03
  8.6259000e-02
  7.0221299e-06
  1.1394642e-05
 -2.1889646e-06
 -4.1916169e-07
 -9.3182025e-04
  5.9247371e-02
 -1.5750398e-05
  2.5320214e-06
 -3.0732749e-03
  3.8781374e-05
  4.0327191e-06
 -2.7682545e-06
 -6.0492610e-05
 -4.3253065e-03
  7.6815597e-04
  1.2636327e-05
  1.0885551e-05
 -4.4410604e-05
 -3.8018072e-06
  1.9421465e-03
 -2.5320011e-05
 -1.7172330e-05
  7.4260083e-06
  1.0962553e-05
 -3.5960245e-05
  5.8894607e-06
  7.5267412e-06
  2.6126639e-07
  4.7227250e-06
  7.0396004e-07
 -4.1135219e-05
 -6.3278210e-05
  1.6529737e-05
  2.9980704e-06
  1.9812203e-05
 -2.6048267e-05
 -1.3921429e-05
  2.3276656e-05
 -1.0174801e-05
  5.6381614e-05
 -5.8556041e-05
 -7.4418781e-06
 -5.8851938e-06
  1.8574379e-05
  2.8173543e-05
  2.7127819e-06
  5.3898266e-06
  8.1837385e-07
  4.8033231e-05
 -6.0669167e-06
 -4.9934979e-06
 -1.2005938e-05
  4.0870120e-05
 -8.5095990e-06
 -2.6308289e-05
  4.9366308e-06
 -3.4535762e-05
 -6.5865090e-05
 -1.9234425e-05
 -1.7485045e-05
  1.4135314e-05
 -1.0758576e-03
  3.0167280e-07
 -5.5650808e-06
  8.0854215e-06
 -1.5574433e-05
  2.6304631e-06
  2.3602065e-06
 -1.2539658e-05
  3.0132322e-05
  2.3721941e-06
  1.7928238e-05
 -3.3152573e-05
  2.6199652e-05
  1.6257957e-06
 -9.5165196e-05
 -1.1066268e-04
  1.7868962e-05
  1.9613076e-06
  1.5877227e-05
 -1.1295478e-05
  3.1490774e-05
 -9.7224620e-06
  1.9402303e-05
  1.8419458e-05
  8.4269295e-06
 -9.4214636e-07
 -7.1699321e-02
  4.7879838e-03
  3.7869137e-02
 -2.0144598e-05
  1.8099619e-01
 -8.3609397e-05
  1.3226869e-05
 -2.0907095e-05
 -1.5750466e-05
  2.2925276e-05
  3.7864263e-06
  2.5169382e-05
  3.6793321e-05
  3.3671261e-06
 -4.2648858e-06
  2.4327446e-05
 -4.8747534e-05
  3.3270462e-05
  1.0954404e-04
 -1.2373347e-08
 -4.7881087e-05
 -2.6707105e-05
 -1.7591226e-05
 -3.2407861e-05
 -1.7848621e-06
 -2.8428640e-06
  3.8854319e-06
 -3.5309298e-05
 -6.1409451e-06
  2.5045501e-05
 -9.3658030e-01
  8.3212459e-01
  7.3459393e-01
 -2.7296701e-02
  5.6689614e-01
  2.3050014e-05
 -6.5632112e-02
  7.7060938e-02
  1.2954822e-01
  3.4197008e-05
 -5.4187345e-05
  3.3329651e-01
 -7.1001606e-04
  1.0576180e-05
 -1.4982412e-06
  1.8342402e-04
  1.1604562e-01
  1.1130030e-01
  4.2713511e-01
 -5.8669693e-06
 -2.6112764e-06
 -7.0956317e-05
  9.1465292e-03
  5.6257853e-03
  2.0787867e-05
  3.6839324e-07
  8.5442580e-06
 -4.4872431e-05
 -6.8552079e-05
  1.3705512e-05
  2.5795561e-01
 -8.5831662e-06
  6.6063403e-05
 -3.1258527e-03
  1.0173505e-05
  5.1209954e-05
 -4.7605467e-06
  4.7784284e-05
  2.4517547e-06
 -6.2490576e-06
 -1.3573248e-05
 -3.8069200e-05
  7.6135373e-05
 -1.7219307e-05
 -1.3163080e-05
 -5.9717504e-04
  7.7811646e-06
  1.5431058e-05
  5.9705937e-05
  1.1984599e-04
 -1.7048093e-05
 -2.4126208e-05
  7.2717552e-07
 -1.3540927e-06
 -1.0101337e-06
 -2.2772476e-05
 -1.1662853e-06
  1.8516532e-05
  1.1976897e-05
  6.9900809e-05
 -9.8885323e-07
  1.0006175e-05
  9.9086396e-02
 -5.7559305e-01
 -2.1145368e-05
  8.8929373e-06
 -1.4669326e-05
  3.3786164e-05
  7.7653904e-06
 -6.3712483e-05
  2.0726018e-05
  1.1554509e-05
 -3.0523002e-05
  1.3924286e-05
 -2.8035671e-03
  1.2442359e-06
 -8.3038030e-06
  3.4892048e-06
 -1.2311269e+00
 -5.3722499e-05
 -1.2310223e-04
 -1.5633313e-01
  2.0343885e-05
 -2.0923855e-05
 -5.3927060e-06
 -7.5237845e-06
  3.0768573e-05
 -3.7733615e-05
  1.7442484e-01
 -2.5619931e-05
  5.4979550e-06
  2.2547523e-05
  1.5416492e+00
  1.0955831e+00
  4.1001156e-05
  1.5422016e-01
 -1.1611764e+00
  6.3220701e-05
 -3.2665262e-01
 -2.3440334e-01
  1.1975197e-05
  3.1581454e-05
 -8.9217676e-05
 -3.5798575e-06
  4.2061722e-01
  2.5745364e-06
 -7.2977687e-06
 -9.1225440e-03
 -8.5605305e-01
 -1.6971063e-02
 -2.1849439e-01
 -7.5730497e-01
 -6.6294424e-02
 -1.6400832e-01
 -2.2593223e-01
 -1.3625271e-05
 -1.4578876e-05
 -8.9838365e-03
  8.9934343e-01
 -1.4477687e-01
  3.9514754e-04
  5.7219466e-05
  2.4873795e-04
  1.0152160e-01
 -1.4796145e-05
 -5.0223472e-05
 -3.5728812e-05
  1.9888543e-05
  1.3650094e-06
  4.5479480e-02
 -3.9721704e-07
 -2.0271129e-06
  9.8086839e-06
  2.3873705e-05
  1.1153354e-05
 -4.7553276e-06
  5.9680838e-07
  1.3189263e-05
  2.1678545e-06
  2.2907655e-06
 -1.4449565e-06
 -2.8510656e-06
  1.1506820e-05
  7.2752973e-06
  2.7409943e-03
  3.3494118e-05
 -6.5492866e-05
 -8.7187851e-05
 -2.3691962e-06
 -5.0650228e-06
  7.4908471e-01
 -9.6560743e-06
  2.0531415e-05
  3.0311966e-02
 -1.5216264e-02
 -7.9724823e-06
 -1.2203564e-05
  4.0961913e-05
 -3.8735318e-05
  5.0662462e-02
 -1.9898496e-05
  2.1557424e-05
  1.3504908e-04
  1.3002957e-06
  1.4602893e-04
 -5.1426929e-07
  1.7606313e-05
 -6.2925378e-06
 -2.9098660e-06
  7.5878619e-05
  4.9779437e-06
  2.1001373e-05
  4.7379181e-06
 -5.9264539e-06
  1.0148108e-04
 -1.3969539e-02
  5.3177282e-06
 -4.0292325e-06
  7.2864027e-06
  2.7155396e-05
  6.1586338e-06
 -1.4774063e-05
  1.9072537e-05
 -2.4064762e-05
 -1.8932444e-06
 -4.8826601e-05
 -1.8874626e-06
 -3.5860794e-06
 -2.3161778e-05
 -3.7421455e-06
  2.6649275e-06
  1.1839177e-07
  3.3759247e-06
  5.9391632e-06
 -2.8948466e-06
  2.0328667e-05
  9.1590853e-05
  1.8460014e-05
 -3.6174740e-06
  5.5284117e-06
  1.9048097e-05
 -2.7454851e-07
 -4.4306785e-06
 -9.4847077e-05
  1.8342169e-05
 -2.7140384e-05
  3.2419841e-05
  2.4302974e-05
 -4.4351662e-05
 -4.0095005e-05
 -3.7476327e-02
  3.9342444e-06
  4.5981520e-05
 -5.7205809e-05
  5.7458648e-05
  2.1192351e-05
  3.3457851e-05
 -3.3503292e-07
 -4.4339420e-05
 -2.8872486e-02
  7.4800846e-05
  6.2506727e-04
 -2.9784534e-05
 -1.0828592e-05
  8.7283279e-06
  6.9278553e-06
  4.7370572e-06
  1.5660490e-04
 -1.4806301e-06
  2.3177317e-06
  7.1684208e-06
 -3.8981525e-05
  2.0494288e-05
  3.0709263e-05
 -2.0629257e-05
 -1.6683818e-05
  3.6790941e-06
 -1.3504861e-05
 -3.8729090e-06
 -5.2915901e-05
 -4.2933571e-01
  1.3959690e-05
 -2.7505107e-06
 -5.1802129e-01
  1.5695995e-01
 -1.4471736e-05
 -2.1162232e-05
 -4.8089900e-05
 -3.5280114e-05
 -2.9500380e-01
 -1.0731957e-04
  5.2972173e-05
  1.3934012e-05
  1.0715982e-04
 -1.5297997e-01
 -2.8527986e-05
 -4.9334276e-06
 -7.7134333e-05
  4.1575302e-05
 -1.4624929e-01
 -1.0168503e-05
 -1.6646840e-06
  1.9382049e-05
 -1.7964089e-08
 -6.4475320e-02
  4.1200074e-06
 -1.2260951e-05
  1.9906074e-05
 -8.0378908e-05
 -3.0994703e-05
 -7.6879263e-02
  1.7191032e-05
  2.1100133e-05
  1.4679965e-01
 -2.4323892e-06
  3.8678776e-05
 -4.1298706e-05
  8.5261825e-05
 -5.1371171e-05
 -8.2008630e-02
  7.1844996e-05
  7.3862216e-06
  1.1189549e-05
 -6.5283075e-06
  5.2458108e-06
 -3.2011380e-05
  2.0922758e-05
  1.7535077e-06
  2.3908157e-07
 -7.8454441e-06
 -7.2721300e-06
  2.2240783e-05
 -4.5354958e-05
 -2.9511166e-05
  1.4931219e-05
 -4.0709656e-06
  3.9908191e-06
  3.6319288e-05
  1.1500082e-05
  9.7505745e-06
 -2.0877789e-05
  6.6800480e-05
 -9.2615492e-06
 -2.8542199e-05
  2.4204379e-05
  6.0227635e-06
  4.0438274e-05
 -4.3716445e-05
  9.2333485e-06
  6.9395664e-06
 -4.6895042e-05
  7.4103591e-06
 -5.7113553e-05
 -1.1077734e-05
 -7.7191224e-05
  3.5493089e-05
  3.0714928e-05
 -6.8307207e-05
  4.4599939e-05
 -6.0653811e-06
 -1.6381397e-05
  7.7480290e-05
 -2.0169960e-05
  6.6397348e-08
  8.9595724e-06
  3.4430497e-05
  3.9002516e-05
 -3.8234407e-06
 -4.9507653e-06
  3.0238298e-06
 -1.0050305e-01
  1.9030556e-05
 -3.2600205e-05
 -8.5744321e-02
 -4.4255003e-06
  3.0931289e-05
 -1.9715684e-05
 -9.9693525e-06
 -5.4129909e-05
 -1.8107358e-02
  5.9557301e-06
 -2.4804887e-05
  2.3028468e-05
 -1.4138774e-05
  6.0444086e-06
  8.6339678e-06
 -5.3762091e-05
  5.1285497e-06
  4.2106371e-05
 -2.3984845e-05
  3.2319171e-05
 -1.7946028e-05
 -1.6052421e-05
 -3.4187897e-06
  3.6792175e-05
  3.1611806e-05
  3.5069297e-05
 -1.5134724e-08
  4.1536492e-05
  6.6883299e-06
  8.9057467e-05
  7.9261503e-05
  7.0611832e-06
 -4.6717851e-06
 -4.8142761e-06
  2.3674982e-05
  4.3193063e-06
 -4.8411698e-06
 -5.1142608e-05
  1.9265353e-06
  3.3354693e-06
  3.4505681e-06
  1.6740389e-05
  9.8277872e-07
 -4.7506415e-05
  7.8069352e-06
  4.0236409e-06
  1.2459769e-05
  1.5034656e-06
 -4.9352643e-06
 -7.8779676e-06
  7.8018558e-05
  4.3693937e-05
  2.9927343e-05
  9.6725546e-07
  3.5155681e-06
  1.8382907e-05
  8.6912314e-06
 -3.8200094e-05
  6.2026986e-05
 -4.2297494e-01
  6.5936023e-05
 -1.3115479e-05
 -4.0678331e-01
  1.9118409e-01
 -1.8871608e-05
 -6.2001368e-07
 -3.0472360e-05
  2.1313836e-06
 -1.3876812e-01
  3.0835320e-06
 -1.4810939e-05
 -5.8917249e-06
  1.6264745e-05
 -1.3853349e-01
  4.8192851e-06
  2.1804337e-05
 -1.2944752e-04
 -3.8030262e-06
 -2.7999058e-01
  1.1406901e-05
  1.0043040e-06
 -6.9560988e-06
  1.0484280e-06
 -5.0994072e-02
  2.5808691e-05
  1.8500721e-04
 -2.4270173e-06
  1.9144944e-05
 -3.5250985e-05
 -1.7915937e-01
 -1.9576564e-05
  1.4271455e-04
 -8.1803001e-02
  2.1460712e-01
  1.2368453e-05
 -9.1362424e-05
 -3.4224813e-05
  8.2207234e-06
 -4.6175030e-01
  9.8481387e-06
  1.3815594e-05
  6.0775101e-06
  2.5987003e-05
 -2.3761705e-01
  6.9324269e-05
  7.6165925e-06
 -1.3075718e-05
  1.6895066e-05
 -5.2746832e-01
 -3.9018611e-05
 -3.7908203e-06
 -3.1146184e-05
  1.9554322e-05
 -1.2034597e-01
  5.5056603e-07
  2.3262210e-05
  2.4563440e-05
 -5.1542265e-06
 -3.2855518e-05
  2.5884449e-01
  6.3852744e-06
  5.8694291e-01
  2.6755756e-02
 -4.1131047e-04
  2.1136690e-05
  9.6498770e-05
 -1.0627905e-05
 -1.4544222e-04
  4.6196092e-02
  2.5257643e-05
  3.0292760e-05
  2.3535495e-05
  4.1343388e-05
  2.1056022e-02
 -2.5885620e-05
 -2.0187181e-05
 -9.1399588e-06
 -1.9487559e-06
  3.8564060e-02
  3.3199423e-05
 -6.2919033e-05
 -7.0003211e-06
 -3.2835429e-05
  7.9495156e-05
  2.3200828e-05
  6.6230327e-06
 -2.5233771e-06
 -2.9847401e-05
  3.9145016e-05
 -4.2011055e-05
 -1.6269558e-05
 -1.9311039e-05
  5.1197276e-05
 -1.9448516e-05
 -2.0880136e-06
  1.8751778e-05
  4.7464586e-05
  8.9478308e-06
  5.0448548e-06
  2.0651107e-05
  5.8306305e-06
 -1.2396657e-05
 -3.8577627e-06
 -2.1252892e-05
 -5.7437965e-06
  2.5162792e-05
  4.5738757e-06
  1.1964188e-06
  3.3233209e-05
 -4.8300640e-06
  3.1343769e-04
 -8.9194538e-05
 -2.5998190e-06
  2.0528440e-05
 -5.9341079e-07
 -1.8241197e-05
  1.5936579e-04
  9.0126823e-06
  4.9371472e-05
 -7.1115346e-06
  9.2182900e-06
 -8.2088256e-08
 -2.5529776e-05
  3.4939951e-06
  2.4779660e-05
 -4.6374927e-05
 -4.9587292e-05
 -8.1291277e-05
 -3.0417801e-05
  2.9134528e-06
 -2.6537306e-05
 -1.1900158e-05
  1.3253302e-04
  7.7830573e-06
  7.7589459e-05
 -7.0600950e-06
  5.9137419e-06
 -8.0195368e-06
 -5.1423256e-05
 -9.2521286e-06
 -8.9274599e-06
 -1.8766978e-05
  1.0918743e-05
  2.5378353e-05
 -2.1188024e-04
 -3.6234967e-05
  7.7647755e-06
 -3.1348489e-05
  3.0124987e-05
 -5.0466122e-05
  6.2521713e-06
 -1.9027511e-05
 -5.2341940e-05
  8.1336666e-06
 -3.9957951e-05
 -7.3675837e-06
  3.8413229e-05
  5.4228162e-06
  2.1228254e-05
 -1.5820911e-05
  1.5435919e-05
 -5.5041196e-06
  2.6572216e-04
 -4.7516974e-06
  6.2460735e-05
 -1.1384887e-04
 -3.3164192e-06
  5.9994045e-06
 -4.5495392e-07
  1.3355196e-04
 -6.8973408e-05
 -3.6237907e-05
  1.3170337e-05
  1.6617818e-05
  2.3554998e-05
 -2.5502402e-06
 -1.3804948e-05
  2.1071488e-05
 -3.5289879e-05
 -4.3042913e-02
 -1.3097159e-04
  4.7620988e-06
 -1.2685283e-04
  1.9004658e-02
 -2.5159243e-05
 -1.5511467e-04
 -9.1556194e-06
 -2.6542333e-05
 -1.1964621e-03
  4.2663221e-05
  1.8298022e-05
 -2.1272997e-05
 -9.5923742e-06
 -2.7851725e-03
 -1.5783966e-05
 -2.6191478e-06
 -4.5120909e-05
 -2.0420905e-04
 -3.8603712e-02
  4.6381880e-05
 -1.4152870e-05
  1.9030826e-05
  1.1701348e-05
 -1.2032871e-04
 -2.5455938e-05
 -1.8116390e-05
  1.4107506e-05
 -1.7435026e-05
 -1.6017651e-04
  6.4897154e-06
 -6.7656234e-05
 -6.7600806e-05
  5.7370609e-05
  6.2487143e-06
  5.6101585e-06
 -1.4936895e-04
  7.0338560e-06
 -3.2370532e-05
  1.9577352e-05
 -7.4273489e-06
  1.7519100e-05
  3.3021075e-05
  1.3512315e-05
 -9.7250741e-06
 -1.8905450e-05
 -2.4121573e-06
 -6.8245113e-06
  2.0948208e-05
 -9.6413560e-06
 -1.0253076e-05
  1.5337446e-05
 -1.8169985e-05
  4.6451573e-06
  3.4607906e-06
 -6.8912891e-06
  1.2554032e-03
 -2.8899456e-05
  1.7779794e-05
  4.5628967e-05
  1.1675158e-05
  1.2206803e-04
  2.8656823e-05
  2.6963380e-05
  1.4496811e-04
 -4.0159626e-05
 -7.6984725e-06
 -2.7871886e-06
 -5.9805393e-06
 -5.7020319e-05
  8.6087195e-05
 -5.1493680e-05
 -1.9042644e-05
 -2.3830726e-05
  2.8951024e-05
  1.4356290e-05
  1.0719682e-04
 -5.1664174e-05
  1.2072874e-04
 -7.0119063e-06
  9.6588076e-07
  1.2185666e-05
 -6.7482333e-06
  1.6680297e-05
  2.0560794e-05
 -4.5446955e-05
 -2.6607104e-06
  1.8512267e-06
 -5.7856400e-06
  3.7410369e-05
 -2.2684967e-06
  7.7817103e-06
  5.3278391e-06
  1.6016294e-05
  2.9116392e-05
 -3.7775517e-05
 -3.5639787e-06
 -1.6278176e-05
  1.1921007e-05
  6.6755615e-07
  1.4100780e-05
 -1.9436899e-05
 -3.6825255e-05
  3.4067976e-05
 -4.8562180e-04
  7.9529909e-06
  1.4972211e-06
 -2.3300701e-05
 -7.5112480e-06
 -6.9973401e-05
  2.8918164e-05
 -6.3577078e-05
 -9.1083211e-06
 -9.0697595e-06
 -4.3235241e-06
 -7.5801645e-06
 -1.7680828e-05
 -1.7141690e-06
  4.8655778e-07
  5.4876062e-05
 -7.4670104e-05
  2.2959764e-06
 -1.0688509e-05
  5.1119459e-05
 -4.5734319e-05
 -1.2505156e-04
 -1.1882513e-05
 -1.6320413e-05
  3.0183155e-06
  4.0640821e-06
 -1.6919394e-05
 -5.9360038e-05
  5.0860704e-06
  2.3334931e-05
  2.3167934e-06
  5.7334957e-05
  6.3930502e-06
 -6.9685002e-06
 -4.5313900e-05
 -1.5995925e-05
 -2.3124601e-05
 -2.0850728e-05
  3.1072563e-05
 -5.1180581e-07
  2.8295560e-06
  1.2884778e-05
 -6.7270224e-07
  3.0705734e-05
 -3.4267616e-06
 -3.4174183e-05
  5.8753849e-06
  1.5707657e-05
 -5.4391861e-05
 -2.1261354e-05
 -3.8593453e-06
 -8.0680875e-06
 -4.9101291e-05
 -5.4174188e-06
 -2.9651021e-05
  2.5167119e-05
 -5.5311398e-06
  3.0229694e-06
  1.0541868e-05
 -7.0443962e-06
  5.0189383e-06
 -1.1752800e-06
  1.1851637e-05
  1.1534447e-05
  1.3169730e-05
  2.8050792e-06
 -9.1644284e-07
 -3.3142973e-05
  2.3220834e-06
 -1.6467841e-06
  1.4948841e-05
  3.0970975e-06
 -1.0174732e-06
 -3.6426052e-06
 -7.5247967e-06
  1.8093147e-05
  1.3589846e-01
  6.4196793e-06
 -6.4025706e-05
  6.8276115e-02
 -1.2853090e-01
 -5.0799854e-06
 -3.2808377e-06
  3.4526201e-05
  2.3252239e-06
  3.1103399e-01
  2.0337795e-05
  1.2855421e-05
 -3.8694493e-06
 -1.0336678e-05
  1.4413911e-01
  3.5703033e-05
 -5.0389146e-05
  4.8970829e-05
 -1.7594717e-05
  2.2865222e-01
  9.7645629e-05
 -4.2618794e-06
 -1.5143260e-05
  3.1337175e-05
  6.6909492e-02
  2.2087033e-05
 -8.9992966e-05
  1.3594293e-05
  4.6089328e-05
  1.6804752e-05
  1.2559296e-02
  1.1297675e-05
 -3.4344535e-05
  6.7731962e-02
 -2.2063468e-02
  4.7976978e-06
 -2.8209206e-05
 -4.3204759e-06
 -2.2730462e-06
  1.1069804e-01
  1.6705077e-05
 -5.8861137e-06
 -1.4170572e-06
 -1.0864172e-05
  2.7039232e-02
 -3.5430173e-06
  1.1467159e-07
 -2.4158799e-05
  3.1257456e-05
  4.9416285e-02
  2.0555792e-05
  9.3815415e-06
 -3.4879853e-05
 -8.9611549e-06
  7.3773394e-05
 -2.0426602e-05
 -1.3529665e-05
  1.7926093e-04
  1.4845634e-05
 -8.2243700e-05
  2.9729638e-01
 -1.6955844e-05
  1.7390512e-04
  1.6187659e-01
 -4.8520785e-02
  3.3113483e-06
 -5.2499294e-05
 -1.9050447e-05
  1.0309510e-04
  5.5845320e-01
 -2.9409600e-06
  5.2478135e-06
 -8.2897868e-06
  1.1597664e-06
  3.0754054e-01
  3.1292606e-05
 -1.3578230e-05
 -6.1656110e-06
 -8.2932838e-06
  1.9097547e-01
 -2.9578637e-06
 -6.5309046e-06
 -3.2788685e-05
 -1.1622787e-04
  1.8919834e-01
 -2.0632377e-05
 -1.0694057e-07
 -7.1474092e-06
 -2.9723749e-05
  1.1056240e-05
  1.3586815e-03
  3.3504999e-05
 -6.2411314e-06
 -3.7174268e-05
  5.8737382e-06
 -1.9699595e-05
 -6.9356056e-06
  8.8084798e-06
  4.1215117e-05
  1.9685006e-04
 -2.8737268e-05
 -1.0641079e-05
 -1.4464592e-04
 -4.8041634e-06
 -5.0544227e-06
 -2.3011573e-06
  8.0653817e-06
 -1.7949671e-05
 -2.1306227e-05
 -1.6916214e-05
 -1.9578034e-05
  4.9540877e-06
  3.6199992e-05
  4.5929878e-06
 -2.2053262e-05
  8.5757540e-07
 -2.3238304e-05
  4.3197215e-05
 -6.8012836e-05
  9.3789067e-06
 -5.0353774e-05
  1.1571911e-04
  3.9733359e-06
  1.2457710e-05
 -7.7316065e-07
 -1.4949434e-05
 -8.4990977e-05
  9.7682259e-06
 -5.9267928e-05
 -5.3600717e-05
 -3.5707546e-06
 -4.2691194e-05
  1.2805058e-05
  1.7548424e-05
  3.8806257e-07
  5.0237850e-06
 -5.7632392e-06
 -1.1278518e-05
  1.7510029e-06
  1.3432235e-06
  1.6177934e-05
  5.9688687e-06
 -4.2424745e-05
  4.4908214e-05
  2.4741796e-05
  5.9404028e-06
  3.4510169e-06
  3.5725388e-05
 -1.5482288e-05
  2.1632195e-05
  7.8504466e-02
  4.4069202e-07
  3.0935528e-06
  2.2392862e-02
  2.4780419e-01
  6.2473744e-05
  1.0011817e-05
 -2.2437047e-05
  2.0280891e-06
 -5.2269328e-01
 -2.4294613e-06
  3.0833464e-05
 -1.1750816e-04
  1.5344979e-04
 -3.5720488e-01
  3.9617848e-05
  6.3457414e-06
  1.8431707e-05
  4.0739733e-06
 -2.7602780e-01
 -6.6235452e-06
 -3.8556791e-05
 -2.1525502e-06
  1.0861464e-04
 -1.4346518e-01
  6.8381050e-06
 -1.9475850e-05
  2.2039707e-05
  1.3849228e-05
  2.2087655e-05
 -1.6475341e-01
  4.5634853e-05
  7.7518722e-05
 -1.7709780e-01
  3.4751061e-02
  1.5040042e-05
 -1.6206192e-05
  3.0429271e-06
  2.3993112e-05
 -1.5484518e-01
  2.4272442e-06
  5.3438267e-05
  7.4789932e-05
 -4.4553399e-05
 -4.2997126e-02
  8.7758490e-06
  4.7298995e-06
 -5.6154557e-02
 -1.6891150e-06
 -1.1372482e-01
 -2.1230276e-06
  5.2496940e-05
 -1.7873019e-05
 -2.4998839e-05
 -2.2463266e-04
  1.7742072e-05
  1.9833817e-05
 -2.5169647e-05
 -1.5468902e-06
 -4.9901355e-05
  1.2130757e-04
 -4.2245661e-06
  2.7360757e-05
  5.0834269e-06
 -9.5970163e-06
 -3.4377308e-06
 -2.8450542e-05
 -5.8836958e-06
  9.7143875e-06
  4.6598139e-05
 -7.2500256e-06
  9.4509221e-07
 -4.1919106e-05
 -3.1836982e-05
  1.2396098e-05
 -9.4747847e-06
 -3.7907499e-05
  4.0014664e-05
 -1.5344034e-05
  2.6679882e-05
 -5.6177360e-05
 -1.5408068e-04
  5.4976686e-06
  1.2054332e-05
 -4.6062898e-05
 -1.2236576e-04
 -5.5114533e-06
  1.6982747e-05
 -8.1808575e-06
 -1.1212190e-04
  1.5332849e-05
 -2.3345008e-05
 -1.0214249e-05
 -1.1353229e-05
  1.1998840e-05
 -1.5583319e-06
 -4.0535247e-06
  1.6407370e-06
 -4.8659134e-05
 -2.1163691e-05
 -7.3053034e-06
 -8.0644604e-06
  1.7318425e-05
  2.0283996e-05
  2.7243312e-05
  9.0128342e-05
 -1.3012388e-05
  6.3628591e-05
 -7.5032035e-06
  4.9247969e-06
  2.0399606e-05
 -2.6999101e-06
 -3.5946880e-05
 -2.6822405e-05
  1.4203978e-05
  2.5179112e-05
 -5.8966993e-06
  1.7195573e-05
  1.3159300e-05
 -2.7215860e-06
  2.0948527e-04
  1.2038242e-05
 -2.4983445e-05
  9.4179222e-06
 -9.4602292e-06
  2.5487163e-05
  3.4355366e-05
  8.1079879e-06
 -8.7800282e-07
 -1.3917877e-02
 -4.7419406e-03
 -3.1514934e-05
  1.9368895e-06
 -2.3896823e-07
 -1.6287719e-05
  2.3142169e-05
  9.5283169e-05
  1.0375191e-05
 -1.6084564e-06
  8.2993509e-05
  2.7286971e-05
  8.4770152e-05
  1.0515560e-05
  2.5560085e-02
  2.0702953e-06
  5.3739412e-05
  5.1083509e-04
  5.5301643e-06
 -5.3607723e-06
  1.2417872e-06
  8.6879805e-02
  2.1466583e-01
 -1.0380806e-05
 -1.6484663e-01
 -4.9112394e-01
 -3.4805626e-02
 -4.1152874e-05
 -1.7159039e-01
 -1.0682883e-05
 -5.0985348e-01
 -7.4145806e-01
  2.4411511e-01
 -5.1279181e-07
  2.9103273e-06
  6.7455921e-06
 -2.3332095e-01
  9.7116805e-05
 -8.0369573e-06
 -8.7004446e-06
  1.4216729e-05
 -6.4292135e-06
  4.8015347e-01
  2.4722296e-01
  7.9944593e-01
  1.7316577e-05
  2.4207337e-05
 -7.0193261e-01
 -3.1338125e-01
 -1.3823937e-05
 -2.2430516e-04
 -1.2238830e-03
  2.0535344e-05
  2.6385361e-01
 -1.1049961e-05
 -2.0650832e-06
 -3.5728003e-06
 -2.9455521e-05
 -3.7653997e-05
  2.2227860e-05
  8.5383574e-05
 -9.3888584e-06
  4.2785969e-04
  8.1391641e-05
 -6.4307758e-05
  3.5767760e-03
  9.8330256e-06
  8.7538192e-06
 -3.6198970e-05
 -1.4868688e-05
  1.3860138e-04
  1.8984920e-05
 -1.0537163e-04
 -7.7450341e-06
  3.1543826e-05
 -1.5175761e-05
 -1.6582535e-05
  5.1865369e-05
 -3.8348385e-06
 -1.8365650e-05
  8.0474128e-05
 -5.8493461e-05
  8.7376284e-06
 -5.4061056e-06
 -1.6257962e-05
 -1.3951867e-06
 -2.5956997e-05
 -1.9291589e-05
  1.5836301e-06
  2.5682410e-05
  1.9577246e-05
 -2.9045141e-05
 -1.1298033e-05
 -1.1223919e-05
  1.8914476e-05
  5.2031850e-05
  2.1373227e-05
  1.6930966e-06
  4.0835308e-05
 -9.6204330e-06
 -7.5807675e-06
 -8.9097430e-06
 -8.6411183e-06
  3.5759399e-06
 -6.9584326e-05
  3.8373622e-05
 -1.8687841e-05
  3.4149464e-06
  4.8985503e-06
 -4.5816847e-05
 -4.2895008e-05
  1.7419891e+00
  1.0383574e+00
 -5.5324179e-01
  1.0625134e+00
 -1.0566493e+00
 -1.4493606e-06
  1.1606422e-03
  3.0888506e-05
  1.5424788e-05
 -9.5005753e-06
 -2.6805850e-03
 -1.9570891e-02
 -1.2651300e+00
  3.1758387e-05
 -1.3934993e-03
 -3.7066445e-02
 -2.4715497e-01
 -3.5142440e-01
 -6.8181421e-04
 -4.3536540e-02
 -6.4467386e-05
 -1.3362849e-05
  1.5808438e-01
 -6.5791751e-06
  9.1833539e-02
  4.4995886e-06
  8.6581713e-06
 -6.2191534e-01
  5.4525549e-06
  7.0666887e-02
 -1.2292428e-05
 -3.8311910e-06
  1.3431466e-01
 -2.1448836e-01
  5.4969694e-02
  5.1163363e-05
 -1.6152459e-05
  7.8935691e-06
  4.8215120e-06
  6.4559672e-06
 -2.0848607e-05
  7.6722217e-06
  9.2014081e-05
  8.3967490e-05
  8.4338237e-05
  2.7542864e-04
 -1.0963045e-04
 -3.1780776e-06
 -1.1221538e-04
  4.1119074e-05
  2.6556847e-05
 -1.3626302e-05
  4.8604451e-02
  2.6889562e-05
 -7.9963610e-07
 -4.4850251e-05
  4.7241747e-06
  9.5884916e-06
 -1.1184541e-05
  4.6499013e-06
 -9.6646421e-05
  5.6815618e-01
  3.0912212e-01
 -5.6044853e-01
 -6.9088054e-01
  4.2303919e-04
  6.2621646e-02
 -3.0080698e-06
  9.3015324e-06
 -2.3157297e-02
  2.0662785e-05
 -2.5221166e-01
 -1.2001011e+00
 -1.5304800e-05
 -2.2586808e-02
 -7.3673062e-02
  9.1690790e-06
  4.4373362e-05
 -2.8400675e-05
 -3.0659235e-01
 -7.5983121e-03
 -1.4705845e-05
 -1.2638836e-02
 -8.9606710e-06
  8.0655363e-06
 -2.6620690e-05
  4.9708310e-06
  7.0665315e-02
 -4.5182092e-05
  1.4275342e-04
 -5.1790444e-06
  4.1756932e-05
  1.0554721e-01
 -6.2785846e-05
 -1.8266033e-05
 -1.7588267e-05
 -7.3836982e-06
 -1.6382992e-05
  7.3363994e-06
  2.6381678e-05
 -1.2546635e-05
  2.8644929e-05
  1.0230819e-06
 -1.7714874e-05
  3.2988984e-05
  1.8426423e-05
  1.2106131e-05
 -4.7048102e-06
  2.5260829e-06
  5.8757987e-06
  1.2388794e-05
 -2.4621631e-06
  1.4641785e-05
 -2.2232366e-06
 -5.2401874e-06
  1.9416293e-05
 -9.1021857e-06
 -1.0503718e-04
  7.0780693e-06
 -7.6666338e-06
 -3.1722856e-01
  2.2110032e-02
  7.5075016e-03
  4.7573674e-01
 -3.1260395e-01
 -2.0770758e-05
  6.7729931e-03
 -5.6665507e-05
  4.0617560e-06
 -3.2664489e-02
  1.0721971e-05
 -4.0199298e-02
  1.6359459e-01
 -1.5600388e-05
 -5.5066828e-04
 -1.4028652e-03
  3.5762553e-06
  3.0976072e-01
 -1.6836269e-05
  1.3979818e-06
 -5.7720874e-02
 -1.7072704e-02
 -8.6695987e-01
  4.9294085e-06
  1.1747261e-01
 -1.2798586e-05
  8.4224419e-05
 -1.1850809e-01
 -7.1539274e-05
  2.0571737e-05
 -7.2297880e-05
 -1.4703852e-05
 -8.9628193e-06
 -2.2715817e-06
 -9.6471151e-05
 -4.2925250e-05
  7.6124807e-06
 -1.2304119e-05
  2.0777097e-06
 -9.4832349e-06
  1.0075878e-05
  1.6462514e-05
  7.3245692e-06
  2.4923862e-05
  1.9689012e-05
  2.2148701e-05
  6.3262328e-06
  1.0535532e-05
 -3.9594127e-07
  1.0991550e-05
  1.4012104e-06
 -2.9916366e-05
  1.9639243e-05
  1.9239296e-05
 -1.4709447e-05
  5.7513785e-07
 -4.1853389e-04
  2.9199929e-05
 -1.7681266e-05
 -4.3517543e-06
  1.1068828e-02
 -2.7074367e-02
  4.2833881e-03
 -6.7602072e-05
  7.2455214e-06
  2.6650267e-05
  1.7928303e-05
 -5.8615060e-05
 -2.2173104e-05
 -3.1813299e-05
 -7.8474557e-05
 -2.4772078e-05
 -2.3803525e-02
 -1.3546952e-05
 -5.3986305e-06
 -2.2641660e-04
  5.6140352e-06
 -4.9369075e-05
 -2.5986633e-06
  1.1559522e-05
  1.2199408e-06
  2.2311084e-05
 -2.0389389e-03
 -3.4080472e-06
  4.3135597e-06
  1.1117416e-05
  2.0365353e-05
  2.0093961e-01
 -1.5288424e-05
 -8.0637737e-06
 -1.7801154e-05
 -7.0647067e-05
  4.4377371e-06
 -6.4076557e-06
  1.5466509e-05
  9.7064071e-07
 -2.1978396e-05
  6.9394300e-05
 -1.5282363e-05
 -2.0406108e-06
 -1.1760798e-05
 -7.7126799e-07
  3.9153507e-05
  2.1641128e-05
  5.7340371e-06
 -2.2780630e-05
 -6.9738810e-05
  1.1009557e-05
  7.1440450e-06
 -2.1087495e-05
  8.4427566e-06
 -6.7717269e-06
 -3.5055771e-06
  1.1419165e-05
  2.8750357e-05
  1.4098750e-05
  7.9049649e-05
  7.2002899e-06
 -6.4975095e-05
 -1.2241449e-05
  1.1151179e-05
 -2.7514574e-05
 -2.6416461e-05
 -3.3339691e-06
  4.2384705e-05
  3.1317933e-05
 -1.2755394e-04
 -5.8970897e-04
 -1.0746751e-05
  1.2195854e-05
  4.9333117e-05
  3.6747377e-05
  1.1692395e-05
  8.1996623e-06
 -1.3436124e-06
  3.3637320e-05
 -3.3451306e-05
  5.1869397e-06
 -1.4406452e-05
  2.8074146e-06
 -3.0117286e-05
  4.9411386e-07
 -2.0881082e-04
  5.1808092e-06
  4.9449909e-07
  7.2008581e-05
 -6.5461319e-07
 -3.0059587e-06
  1.6355081e-04
 -1.1687042e-06
  1.6584135e-04
  1.1322435e-05
 -4.1482836e-05
 -2.2001250e-05
 -6.0339298e-06
 -6.6531170e-04
  4.6222860e-05
 -1.0770643e-04
 -3.0674481e-05
 -3.3378423e-05
 -2.5346797e-06
 -1.6379254e-06
 -6.7210826e-06
 -5.6739495e-06
  2.2297691e-05
 -1.0410993e-05
  3.6988444e-05
  1.2864242e-05
 -1.7469865e-05
  6.0331740e-06
 -1.1406996e-04
  1.0333764e-04
  1.0234013e-05
 -3.6148569e-05
  4.4520581e-05
 -1.5294720e-05
  8.1388725e-07
 -7.7859095e-06
 -1.9209494e-06
  4.0713803e-05
 -4.0597611e-04
  1.7675991e-03
 -4.0215455e-02
  3.2381380e-05
  4.1521442e-01
 -3.2518942e-06
  2.4193225e-06
 -9.2970558e-06
  4.6747584e-05
  7.9847414e-05
  3.6397967e-05
  2.9640039e-05
  7.0528022e-04
 -4.8913167e-05
  3.7068120e-04
  4.8201164e-06
 -1.2185600e-05
  1.9866273e-05
  2.0884961e-05
  4.2017713e-05
  1.0606189e-05
 -2.4284069e-05
  4.3060482e-02
  1.1736928e-07
  3.3323240e-06
  1.8446181e-05
  2.2378028e-05
 -5.5223465e-01
 -1.4735027e-05
 -8.4558533e-06
  9.4230437e-01
  1.0574421e+00
  6.6984802e-01
 -1.4545050e-01
  6.3841248e-01
 -3.7171594e-05
 -1.4411751e-04
  1.5993589e-01
  7.3578696e-05
 -5.7626537e-05
 -1.4066736e-01
 -1.0250195e-04
 -1.8732066e+00
  1.2357311e-06
 -9.1483584e-03
  2.8646128e-02
 -6.3720447e-01
 -8.5963048e-02
  3.1663421e-05
 -6.7688352e-01
  4.0893401e-06
 -5.1577077e-05
  6.5733463e-01
  2.5830503e-05
  2.0398755e-05
  4.5230397e-04
  3.1841980e-06
  3.7059528e-01
 -5.3675758e-05
  1.7286805e-04
  3.6447096e-01
  1.2044706e-02
 -3.2668039e-01
  9.0179376e-05
 -1.3346992e-02
 -3.6366032e-06
  1.7480986e-01
 -1.8982333e-01
 -7.6016506e-05
 -1.0735796e-02
  6.0231846e-06
 -2.2376294e-01
  5.4056090e-01
 -5.7937301e-05
 -5.8726221e-02
 -6.6709387e-01
  1.7864873e-03
 -4.5858685e-02
 -1.6278216e-05
 -2.3306991e-06
 -1.5766787e-05
 -9.5407442e-05
 -1.3308458e-04
 -1.9840852e-05
  4.2289663e-05
  1.8016528e-05
  4.1758794e-06
  1.6001607e-01
 -1.1398715e-05
  6.9750421e-02
  2.1174833e-01
  4.6269223e-01
  6.4951742e-01
  1.7333756e-01
 -2.6854864e-01
  1.0958426e-05
  5.5175833e-03
 -3.5650641e-01
 -7.2632761e-06
 -8.2087025e-02
  4.9264901e-05
 -1.5005949e-01
 -6.2413093e-02
  2.4518608e-06
 -2.9463938e-02
 -1.2507746e-01
  2.8997940e-05
 -1.0561993e-02
  1.8498982e-06
 -1.1991171e-01
 -5.7997167e-05
 -7.4788506e-05
 -1.3177446e-04
 -1.4871280e-05
 -2.1430998e-04
 -1.9535762e-05
 -1.5207493e-05
  1.4203680e-01
 -9.4933093e-05
  7.2940370e-06
  5.5594555e-06
  5.6044336e-02
  4.2382804e-01
  2.1241363e-03
 -2.6656562e-01
 -6.2802814e-05
  2.5509223e-01
 -1.4765266e-01
 -3.1835403e-05
 -2.9342720e-01
 -1.4697539e-04
 -2.6569558e-02
 -3.0903877e-05
 -8.9326877e-06
 -1.1383190e-01
 -2.6066932e-01
  2.7841048e-05
 -1.3194137e-03
 -9.7044394e-06
 -9.9605083e-02
 -3.1230007e-05
  5.6455207e-05
 -6.5272063e-02
 -7.5675416e-06
 -8.2774714e-05
  2.0246309e-05
  2.5643953e-06
  8.5056476e-02
  1.1500950e-04
  6.4328387e-02
  7.0878036e-02
 -1.1920125e+00
  1.1931362e-02
  6.3027459e-01
  4.2215848e-01
  2.8282942e-05
  6.0991746e-01
 -7.7110553e-01
 -1.4373935e-04
 -3.5985792e-01
 -3.1113403e-02
 -2.6103389e-01
  8.0705971e-01
  1.4470668e-04
 -1.0083990e+00
 -7.0260686e-01
  5.5660687e-02
  9.1941372e-02
 -2.5245501e-05
 -2.8836954e-01
 -2.8774163e-01
  1.3174650e-01
  5.6715888e-01
 -1.1231535e-04
 -1.0016601e+00
 -1.4134750e-05
 -1.6802538e-06
  8.0467276e-02
  3.4848065e-06
  3.8197002e-01
  3.9257887e-01
 -7.0113254e-01
  3.6545298e-01
  2.0083822e-01
 -2.2116075e-01
  2.0322601e-05
 -3.5187730e-01
  5.9853733e-01
 -4.5990349e-05
  2.2765355e-01
  1.2486137e-01
  2.8703773e-01
 -2.6945034e-03
  1.7090480e-05
  1.0009652e+00
  3.7112167e-01
  4.2152733e-02
  2.5884935e-01
  3.1174255e-05
  5.6151539e-02
  2.7898327e-06
  3.5038844e-02
 -4.1461736e-01
 -6.6786670e-06
  5.4638481e-06
  7.9318124e-05
  5.7246020e-06
 -6.3805938e-01
  5.9322042e-07
 -2.5068587e-01
 -2.5355367e-03
  2.6918626e-01
  1.9789310e-02
  4.3587228e-05
  2.9113123e-06
 -2.9459363e-05
 -5.1902240e-05
 -4.4025368e-05
  6.5435437e-05
  7.1908421e-06
  2.7555359e-07
  8.5530460e-02
  3.3403523e-03
  2.2609429e-02
  3.5186222e-01
  4.7001704e-05
  2.7627559e-06
 -4.5161636e-04
 -2.5243040e-05
  4.6240181e-02
  1.0858850e-05
  4.1479359e-07
  7.8370810e-02
  2.4249901e-05
  1.4764951e-04
  3.3764903e-05
 -1.5080464e-05
  1.5182275e-01
  1.1469598e-06
 -1.6234460e-05
 -3.4952562e-04
 -5.4022297e-05
 -4.2567804e-05
 -9.8464052e-06
  7.0984051e-06
 -1.2970514e-05
 -5.3138028e-05
 -8.2091128e-06
 -3.1403383e-06
 -3.5910152e-06
  4.1589774e-05
  6.5725249e-07
 -3.6597510e-05
  6.5086365e-06
 -2.0772244e-05
 -5.8303226e-06
  1.8778785e-06
  1.1310332e-05
  2.8266244e-05
 -1.9189995e-06
 -2.0616317e-05
 -1.4087173e-06
 -4.7308153e-05
  7.6108677e-06
 -4.4845776e-05
 -1.5025043e-05
  1.7349430e-05
  2.2396596e-05
  9.6824733e-06
 -8.4732155e-06
 -1.7334243e-02
 -3.3874570e-05
 -2.8276618e-05
  9.9228810e-06
 -6.4939712e-05
  6.5780146e-06
  4.2926993e-05
  5.3225111e-05
  1.0612031e-05
 -7.3035030e-06
  7.5778212e-06
 -2.8368933e-05
  8.7743811e-03
  2.3896391e-05
  2.9576871e-05
  1.8499610e-04
 -1.6059985e-05
  4.1347364e-05
 -4.6178971e-05
  2.4807969e-05
  4.1984940e-06
 -2.5161120e-07
  1.3039659e-05
 -2.0529347e-05
  1.4072032e-05
 -9.1888696e-06
  1.7507831e-04
  3.2826647e-05
 -9.5980477e-06
  2.4383883e-07
 -1.3377254e-05
  6.0878045e-07
 -7.8549459e-07
 -1.8732198e-05
  1.6380272e-06
  4.8075297e-05
  1.3088547e-05
 -1.1805129e-05
 -3.5289154e-06
  1.4509204e-06
 -1.1364665e-05
 -5.8486443e-05
  1.4537947e-06
 -8.0066086e-05
 -2.8742923e-05
  3.7945767e-05
  3.1616796e-06
 -2.0486708e-07
 -4.9326118e-06
 -1.6979018e-04
 -5.3208751e-06
 -2.6441473e-06
  1.0439452e-05
 -8.0152404e-06
  6.0866355e-06
  1.1316812e-05
 -9.5794327e-05
  3.1693547e-05
  1.5426253e-05
 -4.5888282e-06
 -5.2282255e-02
 -2.8844013e-05
  3.8389822e-05
  2.1391910e-05
  4.7117956e-05
 -2.7871736e-06
 -1.4760312e-04
  5.6211366e-06
  5.3864198e-05
  1.2075264e-04
 -5.0099774e-05
 -1.0471865e-05
  2.8366196e-05
 -4.6317153e-05
 -1.0088039e-05
  6.6119937e-05
  1.3295758e-05
  4.4423496e-06
  3.4976126e-06
  3.9784636e-04
 -7.2293922e-05
 -4.9161199e-06
  1.2738025e-05
  1.4436635e-05
  1.7689827e-05
  1.4624802e-03
 -2.5361705e-05
 -3.0232223e-02
  7.3349383e-04
 -1.3205859e-05
  6.6570346e-06
 -8.8878805e-06
 -1.7941289e-05
  2.1574089e-04
 -6.9190010e-06
  1.6505170e-05
 -1.1574743e-05
  8.7407192e-05
 -8.7733715e-06
  6.3187057e-05
  2.5849502e-05
  3.8817478e-05
  4.7575772e-06
 -2.0806099e-05
 -3.7163951e-05
 -1.1187357e-05
 -7.9059600e-06
 -1.7377621e-05
 -2.5783378e-05
 -8.8392126e-06
  4.7256293e-05
  1.8474746e-05
 -2.7342468e-05
 -1.8752272e-07
 -2.0819585e-05
  3.0348487e-05
 -1.1041752e-04
  3.1127634e-05
  2.1988726e-05
 -6.0311322e-05
 -7.7898108e-04
  1.4708654e-06
 -2.1773787e-06
  5.7472818e-05
 -1.1311121e-05
 -1.4135424e-05
 -1.4241881e-04
 -2.5548225e-05
  9.1086749e-06
  2.9404369e-05
 -2.9626808e-05
  6.7326628e-02
 -5.8742120e-07
  7.6298884e-06
  7.7988207e-04
  1.8026221e-04
  1.9082981e-06
 -1.8812363e-05
  2.3017181e-05
  9.2353381e-05
 -1.5599411e-05
 -1.4430833e-05
  4.1356583e-05
 -1.4143333e-07
  3.0905252e-05
 -1.1671203e-05
 -7.3846409e-06
  1.6311835e-06
 -8.8837787e-06
  1.9928570e-05
 -5.1465839e-05
 -6.4916080e-06
 -1.9290628e-05
  7.3086135e-06
 -2.2268890e-05
 -1.9008221e-06
  2.9586236e-06
  1.1737069e-05
  5.5972992e-06
 -1.2296076e-05
 -4.2119182e-06
 -1.2156636e-05
  1.1347100e-06
 -3.3666027e-05
 -1.1460615e-05
  4.1470932e-05
 -7.8605408e-06
 -1.8307794e-05
 -1.9545862e-05
 -2.0762602e-06
  1.0076151e-05
  1.6834427e-05
  2.9114079e-05
  3.3133929e-05
  8.5871471e-07
 -3.0592051e-05
 -5.1943471e-06
 -8.3140621e-06
 -2.9438831e-06
  2.9943214e-05
 -6.6906936e-02
 -2.9199873e-03
  1.4474611e-01
 -6.5141670e-02
  4.8056867e-05
  5.5182198e-07
 -2.0402536e-01
  1.1792490e-01
 -5.2688290e-05
  1.3420866e-01
  3.0008066e-02
  2.4950704e-01
  1.4857540e-01
 -1.5005960e-05
  1.7232320e-01
  3.2024789e-01
  5.9418185e-06
  3.3945877e-02
  5.6109961e-06
  8.5788384e-02
  8.6888904e-03
  4.3159831e-04
  2.6875781e-02
  8.6954104e-05
  2.1897692e-03
  1.8400271e-05
  1.0927567e-05
 -6.3044734e-02
  3.3041302e-05
 -1.6555622e-01
 -6.0144883e-01
  7.1724758e-02
  1.7083555e-02
 -6.6177875e-01
  1.5849301e-01
  8.1675189e-06
  5.2688520e-02
 -5.5237560e-05
  1.3437551e-05
 -1.6419619e-04
  3.3725319e-05
 -3.6854986e-02
 -1.0760352e-02
 -7.4368340e-06
 -1.1469842e-01
 -1.3642880e-01
 -2.5046686e-06
 -8.9613013e-03
  1.6855585e-05
 -1.1522095e-01
 -2.7851339e-02
 -2.2923070e-05
 -1.6948506e-02
 -2.2610407e-06
 -3.6144764e-03
 -1.8791005e-05
 -5.3731681e-05
  1.9109544e-01
 -2.7284535e-05
  4.9293328e-02
  6.0152970e-06
  1.1054975e-06
  1.3808975e-05
  1.4424186e-05
  9.0654312e-06
 -2.0650680e-04
  6.2723716e-06
  4.2695883e-05
 -8.7766603e-05
  9.6024432e-06
 -2.4583100e-05
 -2.1321121e-06
 -4.3982951e-07
 -1.5483536e-05
  2.0710304e-05
  1.0183712e-05
  8.9672703e-06
 -2.6839556e-05
 -8.0202830e-07
 -4.9462305e-06
  1.8667548e-05
  3.3062104e-05
  8.7530807e-06
  4.4391156e-05
  6.4756102e-07
  4.9314267e-06
 -9.8124474e-06
 -1.7786770e-01
 -2.2857012e-05
 -7.1548238e-05
  1.4222660e-05
  5.3401804e-05
 -3.0704641e-01
  3.1797313e-06
 -3.9478588e-01
  1.7262375e-05
 -2.5542313e-01
  1.5179275e-05
  3.4806093e-05
  5.2716719e-06
 -4.4568020e-05
 -2.9130583e-06
 -7.2632678e-04
 -9.4487977e-01
 -1.1142662e-01
 -9.8293252e-02
 -7.9988148e-03
 -8.8595563e-01
 -1.0705613e+00
  1.4064956e-05
 -4.8494894e-05
  6.3899884e-06
  1.4370022e-04
  1.2618974e-05
  7.7489276e-06
  3.6356328e-06
  1.3748799e-05
 -2.0622789e-05
 -1.3635413e-01
  5.8046289e-06
  1.4257309e-01
 -1.7127000e-02
 -3.2514539e-01
  1.4014187e-01
 -3.5761210e-01
 -4.9219437e-02
 -3.7574866e-01
  1.8880752e-05
 -1.4587680e-01
 -2.8494062e-05
  1.0153760e-05
 -1.5407858e-06
  1.3767344e-01
  4.3006188e-01
 -3.9401916e-01
 -2.9200613e-01
 -4.8828009e-01
 -6.0980457e-01
  4.0794221e-01
  2.4331808e-01
 -2.4059464e-05
  1.3741780e-05
 -7.1871020e-02
  1.1912300e-01
 -7.6938877e-06
  1.5526038e-01
  3.7365076e-05
  4.1658354e-01
 -4.4900700e-01
 -7.9494212e-06
  2.2612288e+00
 -4.3206015e-03
  7.8103590e-01
 -9.3881367e-03
  6.1135137e-01
  1.4057368e-01
 -2.1706301e-01
 -1.4357257e+00
 -4.5752984e-01
  3.8059959e-01
  1.3470453e-06
  7.0993797e-06
  8.2301503e-06
  2.5307268e-02
  1.9282168e-01
  1.3854771e-02
 -7.6966673e-05
  2.2295246e-01
  2.5778025e-04
  1.3907490e-05
  2.4747896e-01
  1.1980972e-01
 -1.4235518e-02
 -5.7840443e-01
  1.6383865e-01
  3.7832770e-06
  6.6515639e-02
 -1.3526434e-01
 -1.7022096e-01
 -1.2633974e-03
 -4.7134078e-01
  2.5647799e-03
  2.4729580e-01
 -5.9532456e-02
  2.4419375e-02
  1.9689988e-01
 -2.0247579e+00
 -3.0448144e-05
  2.5795469e-01
  2.3089979e-02
 -2.1445963e-01
  9.6188784e-01
  6.3312721e-01
 -1.7013653e-01
 -6.0329027e-02
 -8.6071409e-02
  1.4143910e-01
 -9.6411198e-02
  6.2239224e-01
  8.4929399e-02
 -3.1025836e-01
  1.0847846e-01
 -4.6936271e-01
 -2.0297757e-01
 -3.6499634e-07
 -1.9696433e-02
 -2.4330160e-01
 -4.7125655e-01
 -8.4257200e-02
  2.2646113e-01
 -2.3840462e-01
  3.0329975e-01
  3.5645437e-01
 -5.7138100e-02
  1.4480138e-01
  7.8474152e-01
  1.0705858e-01
  5.5634850e-03
  1.6480082e-01
 -3.4275043e-01
  2.6684323e-01
  9.0850130e-02
  1.3569386e-01
 -6.1436778e-01
  3.2564014e-01
  2.3236221e-01
  2.6693165e-01
  2.0851439e-01
  6.1924624e-01
 -8.6982918e-01
  3.9452916e-01
  5.8648878e-01
  6.0915768e-02
 -5.9432310e-01
  7.0574597e-02
 -2.8445857e-05
 -1.7408087e-06
  3.0183452e-05
  7.3151153e-01
 -1.1784397e+00
  6.6108572e-01
  5.4454133e-05
  2.4478784e-05
 -4.7589745e-02
  1.6569024e-05
 -3.0013287e-06
  1.2705503e-05
 -7.9647371e-06
  1.8570098e-01
 -6.2788583e-02
  1.1503988e-05
  1.1439461e+00
  1.3448374e-01
 -1.2902601e-05
 -6.4532069e-06
 -1.0909057e-05
  3.2381614e-04
  4.1817073e-02
 -7.0340279e-03
  1.0514897e+00
 -7.9139209e-01
  2.6148233e-01
  4.1338008e-06
 -3.7732618e-05
 -1.0874804e-05
  5.8310753e-01
  3.8052830e-01
  7.5517076e-01
  4.2272895e-06
 -3.5321990e-01
 -1.7274951e+00
  8.2592793e-05
 -1.1923889e-05
 -5.0768947e-05
 -5.7630384e-01
  3.2652944e-01
  3.6055058e-02
  1.1202294e-01
  2.8412741e-01
 -3.2084090e-01
 -3.2165943e-05
  1.7908873e-05
 -7.7985114e-06
  6.3386165e-02
  9.5781958e-01
  1.0152382e-02
  1.4168267e-01
 -1.3521020e-01
  1.7137828e-01
 -3.2748118e-05
 -1.7920522e-06
  4.0235395e-06
  7.0365095e-01
 -5.1434362e-01
  8.0954313e-01
 -7.5185001e-01
 -2.5822759e-01
  4.9579978e-01
 -1.0700371e-04
  2.5324605e-05
 -3.1977990e-05
  6.9425350e-01
  4.8588553e-01
  1.7646231e-01
  1.5971558e-01
  2.1732903e-01
 -6.0789797e-02
  1.9062241e-05
 -9.0355361e-06
  1.7719552e-05
  8.4576495e-02
  1.1913362e-04
 -4.0081289e-01
  1.0300343e+00
 -2.5338975e-01
 -1.7944266e-01
  1.8579334e-05
  3.3696012e-06
  3.2103093e-05
 -4.4267982e-01
  7.3670015e-02
 -5.2590132e-01
 -2.0007041e-05
 -9.0337217e-02
 -5.8722762e-05
  2.8581033e-05
  4.6379955e-06
 -3.3735607e-05
  1.6207910e-05
  1.0082251e-06
 -9.1124741e-05
  3.2580711e-02
  4.1994994e-05
  8.2381535e-04
 -8.8227162e-06
 -2.3755014e-05
  1.3568022e-05
  9.4650732e-06
 -1.0594383e-05
 -6.6691769e-06
  2.9169026e-01
 -7.0272458e-01
  3.3935788e-01
 -1.5731066e-06
 -9.6394460e-06
 -7.5314608e-07
  1.1477718e-01
 -1.4745009e+00
  8.0717691e-05
 -1.4341193e-01
 -3.6316741e-01
 -8.3323956e-02
 -1.4771457e-05
 -4.8368212e-05
 -2.9335517e-06
  5.6040899e-06
 -1.6871962e-05
 -2.3113699e-01
  6.5260530e-01
 -3.9325501e-03
 -8.9350127e-02
  3.7649552e-05
  2.5403604e-05
 -5.9056606e-07
 -1.2002522e-05
 -1.6612520e-02
 -6.7970410e-05
  1.9760875e-01
  7.0370204e-04
 -5.0647270e-02
 -5.8435617e-05
 -9.5790313e-07
 -5.2319450e-05
 -6.8305926e-05
  5.6221835e-02
  1.8747419e-01
 -1.1180797e-02
 -2.9632279e-01
  1.8197848e-02
  1.2824838e-05
  2.6356797e-06
  2.0262798e-05
 -6.9135211e-02
 -2.4187788e-01
 -3.2988405e-01
  8.3189261e-01
 -5.8856213e-01
  3.3734417e-01
 -2.6381531e-05
  5.1079354e-05
  1.4323761e-05
  1.1736581e-04
 -1.8958037e-01
 -1.0721268e-01
  7.2721101e-02
  4.6877432e-01
 -2.7733770e-01
  3.1537801e-01
 -5.6055278e-01
  6.3794903e-02
 -2.0034842e-03
  6.2412280e-01
 -2.3365929e-04
  4.3759651e-06
  3.0983975e-03
  2.0714029e-04
  5.9401918e-06
  4.0050577e-02
  4.3840051e-02
 -3.4714423e-05
  4.0654864e-05
 -7.5012076e-06
 -1.1624141e-03
 -4.7834601e-02
  6.6409069e-01
 -1.4843937e-05
 -1.7555101e-01
  9.4796143e-02
 -6.3785992e-04
  1.4182115e-05
 -9.8893244e-05
 -7.0842057e-02
 -9.3915117e-01
  1.0973707e+00
  8.5752634e-03
  3.0682305e-01
 -2.0637290e-01
  1.5243595e-05
  5.8371824e-01
  2.9145938e-04
  1.5746875e-01
  1.1595600e+00
 -4.0923384e-01
 -1.0317354e-01
  7.0363395e-02
  3.2580882e-01
 -2.1529444e-03
  2.2990380e-05
 -2.5809644e-05
 -1.9990620e-01
  2.9334819e-01
 -1.2835017e-02
  2.9690702e-02
 -4.2061281e-01
 -5.3443974e-03
 -4.2677090e-01
 -1.6983538e-05
 -4.7956190e-05
  9.2391208e-02
 -7.7251101e-01
  8.4865808e-01
 -2.4986786e-01
 -3.1089473e-01
 -7.8096673e-02
 -1.6566486e-05
 -5.7575046e-05
  1.9219938e-01
  9.8380871e-02
 -3.5435903e-01
 -4.6114855e-02
 -4.1757116e-01
  6.9386327e-01
  1.8825205e-01
 -1.7789029e-01
  7.2148699e-01
 -2.1560811e-01
 -3.5129234e-01
 -5.3022557e-01
 -9.0528643e-01
 -1.0463954e-01
  3.3734626e-01
 -2.2236471e-01
 -6.4433259e-01
  4.7301984e-01
  1.2576560e-02
  5.2069671e-02
  7.5842845e-01
  9.5692560e-02
 -1.3841336e-04
  3.3691433e-01
 -1.6429210e-01
  2.3178938e-01
 -1.0507268e-01
 -2.0263578e-01
  2.3902785e-06
 -8.2614338e-07
 -9.1406891e-06
 -2.0398907e-04
 -1.2493228e-03
  5.1631378e-06
  1.2156375e-05
 -7.5345470e-06
 -4.1028507e-06
 -2.1057684e-05
 -4.6667683e-06
  8.7145127e-06
  4.5217897e-05
  1.7544891e-04
 -9.4170749e-02
  6.4465537e-05
  1.0222489e-01
 -1.6910031e-05
  6.0425464e-02
  9.2370558e-01
  2.0602408e-04
 -1.6906833e-03
  6.3681515e-04
  3.0704314e-01
  8.5224368e-02
 -5.7185590e-01
 -6.0273998e-04
 -6.0443422e-06
 -2.4810752e-01
 -2.0356683e-06
 -5.2039202e-02
 -3.5939995e-02
 -3.0650666e-01
  5.0697574e-05
 -9.4170347e-02
  3.8051356e-02
  4.2375661e-05
  5.7927158e-05
  7.8520300e-03
 -5.4791279e-02
 -5.7012178e-02
 -3.0380758e-02
  4.1327197e-02
  1.6749878e-01
  3.5380240e-04
  9.2440336e-05
  2.7348539e-01
  1.0506737e-01
  5.2812960e-02
  1.1638577e-01
  2.6189253e-02
  2.8341201e-05
 -5.9821017e-02
  8.9115518e-01
 -1.6347435e-01
  6.0743682e-02
  6.8488672e-02
 -2.2263011e-01
  3.0852536e-02
 -1.9671687e-01
 -3.0686662e-01
 -1.0727519e+00
  3.2904083e-01
  5.3111643e-01
 -2.2664893e-01
  3.0843228e-01
 -2.4197005e-04
 -1.2189332e-01
  1.6328977e-01
  5.4717302e-01
 -2.6730120e-01
 -2.7566203e-01
 -3.6327376e-05
  1.0396426e+00
 -1.8026125e-01
 -8.7024537e-06
 -2.6222622e-05
 -2.8795408e-05
  4.3711975e-01
 -6.0960215e-01
 -9.8862864e-02
 -5.4258503e-06
  1.0071054e-05
 -5.3685435e-06
  1.1474885e-05
  1.3867134e-05
 -2.0131605e-05
  1.8966344e-06
 -4.1762079e-05
  9.7701850e-06
 -9.1958595e-03
  5.0425023e-01
  4.4381712e-02
  3.6119006e-06
  1.3875907e-05
  2.0543568e-05
  3.8124502e-01
 -4.2580795e-01
 -2.2561943e-02
 -9.3385779e-06
  1.4090022e-01
 -5.3636301e-01
  1.2626509e-06
 -3.4700970e-06
 -8.1836679e-06
  1.4434868e-01
 -4.9154285e-02
 -1.9702711e-03
 -6.2416104e-05
  8.0375679e-02
  6.5039421e-05
  1.1698233e-05
  2.5829070e-06
 -2.8710961e-05
  5.3661759e-05
 -6.0452785e-02
 -1.0832307e-01
 -2.9177079e-05
  5.9337014e-01
  6.2029731e-01
 -1.3985444e-05
 -2.9286416e-06
  1.9207812e-06
  1.0571574e+00
 -2.3670089e-01
 -4.3475447e-04
  6.8575690e-05
  1.7198949e-03
 -4.4063210e-01
  1.1031079e-06
  4.7900235e-06
 -4.4146542e-05
 -3.6690207e-03
 -1.0863236e-01
 -1.7302706e-05
 -4.4347553e-06
  1.4287776e-01
 -1.2952955e-01
 -5.3834410e-06
  1.4875222e-05
  1.7326146e-06
  6.3007015e-01
 -1.7006114e-01
 -1.5685271e-01
  8.4262774e-07
  4.3391290e-01
 -2.4143560e-01
  1.8539620e-06
 -1.5203069e-05
 -4.0040937e-05
 -3.0088231e-01
 -3.3753821e-01
  7.5917076e-03
 -5.8711244e-05
 -5.7617301e-01
  1.9726748e+00
 -7.2297430e-06
  1.2629917e-05
  2.3084396e-05
  3.3983316e-03
  4.7897401e-01
 -6.0839748e-01
  6.8211157e-05
  4.5019868e-05
 -5.1748395e-01
  1.9873289e-05
  8.2193656e-06
  2.9626475e-05
  6.8880669e-05
 -8.8729248e-06
  5.1079129e-05
  1.7857243e-05
 -6.5257716e-01
 -2.4527489e-01
  1.2277826e-06
 -1.2353754e-05
  1.6038484e-05
 -2.2986473e-01
  4.4765702e-01
 -6.8324918e-01
 -4.9805942e-05
 -4.1527396e-01
  2.2309846e-01
 -5.4531582e-05
  2.3823846e-05
 -1.4861352e-04
  2.0985037e-01
  3.4667693e-05
  1.1148680e-04
 -1.8369531e-06
  5.2587702e-03
  1.6683756e-01
 -1.1462705e-05
  1.0292447e-05
 -2.6203887e-04
 -1.4620738e-02
  2.8483474e-01
 -5.9234577e-01
  6.3860112e-05
 -9.1556919e-01
 -8.7667572e-01
  1.7020750e-04
  2.2677016e-06
  8.3968152e-05
 -1.4120004e-01
  7.4921444e-02
 -5.7137221e-02
  5.3129133e-05
 -5.6665325e-05
  1.9101738e+00
 -4.4329816e-05
  5.1493662e-06
 -1.5306376e-05
  6.3979900e-01
  2.1063153e-02
 -2.9546127e-01
  1.5564441e-05
 -4.3565819e-01
  1.2662598e+00
  1.7208931e-06
 -1.4902894e-05
 -2.5381585e-05
 -7.5455976e-01
  3.3369064e-01
 -4.1301522e-01
 -1.4949303e-05
 -4.9845341e-01
 -4.4864497e-01
 -2.3719517e-06
  4.3014676e-08
 -4.4748849e-05
  5.2545482e-01
 -4.8571674e-05
  4.2161641e-01
 -8.3892255e-06
 -4.5802519e-02
  4.2773241e-01
 -1.1994980e-05
 -4.0220402e-06
  7.0572069e-06
  9.5209169e-01
 -6.6616222e-02
  7.3086172e-01
  2.2723996e-05
 -9.6630754e-07
 -6.0810344e-05
 -7.1816062e-06
  1.3149004e-05
 -7.5985181e-06
 -2.5142497e-06
  1.0030236e-05
  2.9694769e-05
  4.3408136e-06
 -1.5450220e-01
  2.8534055e-01
 -6.8593877e-06
  8.6463675e-05
  2.5447780e-05
  1.0566131e+00
 -2.8222078e-04
  7.0681386e-02
 -3.6896075e-05
  6.0573773e-05
  8.2616395e-01
  6.9983515e-05
 -3.2093976e-05
  2.1731948e-05
  3.3739218e-01
 -4.1975727e-05
  3.9193618e-01
  5.1877170e-05
 -1.5980895e-01
  7.4977374e-06
  1.1742192e-05
  4.7119371e-05
  6.1011047e-05
  9.2408486e-02
  2.3876855e-05
 -6.5102954e-06
  1.2564707e-05
  9.3233321e-05
  6.5965432e-01
 -3.1389231e-05
  2.6979478e-05
 -2.2834488e-06
  8.2895166e-01
 -9.2277676e-02
  2.7023640e-01
  1.8556577e-05
 -3.5131308e-01
  2.2175245e-03
  1.4164845e-05
  4.5512003e-05
 -5.5302235e-06
  6.5228999e-01
 -5.2380019e-06
  1.6678064e-01
  3.8346675e-06
  7.7601440e-02
  1.7240715e-01
  9.9950657e-06
 -1.1217605e-05
 -4.2483560e-05
  1.7843812e+00
 -2.1614759e-01
  8.2839948e-01
 -3.7462385e-05
 -2.6364937e-01
  8.0677432e-01
  3.6278900e-05
  1.1576600e-06
 -3.7808675e-06
  9.5800048e-01
  1.9112942e-05
  5.8259284e-01
 -5.5507858e-06
 -1.8604647e-01
 -4.2189690e-01
  5.2023985e-05
 -2.2033923e-05
  7.4375744e-06
  2.1972903e-05
 -9.7692846e-06
  1.0252900e-05
 -3.6998252e-05
 -1.7537022e-05
 -1.4067203e-04
  7.8790690e-06
  4.2628958e-06
 -2.3801334e-04
 -9.0364705e-07
 -1.3774526e-05
 -5.9579539e-05
  4.8173097e-05
 -1.8105832e-01
 -9.2379284e-01
 -1.1789526e-05
  2.0351622e-06
  1.9083151e-05
 -1.1470464e-04
 -1.5026932e-05
 -7.8304774e-06
 -1.0289505e-05
 -1.3491772e-04
 -1.1261089e+00
  4.4056378e-07
  2.8198478e-05
 -1.7902044e-05
  6.0765651e-06
 -3.9555780e-06
  8.0038255e-05
  2.6479947e-05
 -3.6897147e-01
 -2.5483987e-06
 -4.1272589e-05
  3.8579059e-05
 -4.6052428e-05
  2.2063401e-05
 -9.0831081e-06
  2.2617787e-05
 -8.2131755e-06
 -2.5709769e-02
  5.9801519e-01
 -4.1930802e-05
 -1.2066608e-05
 -6.9316317e-05
 -1.0374220e-05
  1.2961778e-05
  1.3175896e-05
  5.7798197e-06
 -5.4266591e-02
 -1.2800888e+00
  4.1446474e-05
 -1.4789274e-05
 -2.3160695e-05
  7.0544939e-07
 -1.0793496e-04
  2.7471075e-05
  1.3221123e-05
 -2.3351222e-01
 -5.9105729e-04
  7.7996883e-06
 -2.1870204e-05
  1.6887734e-05
  1.3767235e-03
  8.2466640e-06
  2.2784732e-05
 -2.9573706e-05
 -6.6309723e-05
 -1.6117728e-01
 -2.5684110e-05
 -9.6724452e-06
 -9.4686166e-06
  4.3970478e-05
 -1.5070735e-04
  2.1137346e-06
  5.8205907e-05
 -4.8854537e-05
 -1.0461004e-05
  8.7677399e-05
  1.0819858e+00
 -8.4884024e-01
 -1.2751960e+00
 -7.3767245e-01
 -3.9935753e-01
  1.7069187e-05
 -5.6148125e-05
  2.1466340e-05
  8.5897773e-06
  8.5351450e-05
 -2.8661829e-05
  1.1391938e-01
  4.0222412e-06
 -1.5978258e-04
 -1.1554444e-04
  2.9795501e-05
 -2.8222978e-06
  6.4916036e-05
  6.6199726e-01
 -4.4905767e-01
 -1.0804987e+00
 -3.3881074e-01
 -1.5242819e-01
 -1.9484538e-05
 -4.1719290e-05
  3.8086753e-05
  4.7983925e-05
  2.0160387e-01
 -4.4379777e-01
  1.1230658e+00
 -2.4645203e-01
 -1.5347199e+00
 -3.9931481e-05
 -2.6903563e-06
 -1.0566021e-05
  1.3221092e-05
  4.6273929e-01
 -4.0989253e-04
 -3.1610813e-05
  1.2676555e-04
  2.6046684e-02
 -4.6335226e-05
 -1.6781001e-05
  7.8529620e-06
 -2.1209267e-05
  5.6719655e-01
 -8.7473100e-01
  8.6284375e-01
 -6.7771536e-01
  7.7199012e-01
  7.1963876e-07
  7.1315790e-06
  2.1254800e-05
 -2.7040620e-05
  2.4803442e-01
 -8.4634950e-05
  1.9991500e+00
  3.7971597e-06
 -9.1723210e-01
 -4.7286821e-06
 -7.3109863e-05
 -3.0641724e-05
  1.0986646e-05
  1.2022870e-01
 -2.3725909e-01
  7.9527903e-01
 -3.9734384e-01
  2.5276158e-02
  3.9403134e-05
 -1.0865810e-04
 -5.7611254e-05
 -9.5361365e-06
  3.0232030e-01
 -4.4237977e-01
  9.9081671e-01
 -3.2986245e-01
 -1.0647260e+00
  1.0373120e-01
  1.0373120e-01
  1.0373120e-01
  1.0373120e-01
  1.0373120e-01
  4.0443146e-01
  4.0443146e-01
  4.0443146e-01
  4.0443146e-01
  4.0443146e-01
  2.3424862e-01
  2.3424862e-01
  2.3424862e-01
  2.3424862e-01
  2.3424862e-01
  3.1227067e-01
  3.1227067e-01
  3.1227067e-01
  3.1227067e-01
  3.1227067e-01
  1.2608972e-01
  1.2608972e-01
  1.2608972e-01
  1.2608972e-01
  1.2608972e-01
  4.6096560e-01
  4.6096560e-01
  4.6096560e-01
  4.6096560e-01
  4.6096560e-01
