nep4 3 Sb K Au 
cutoff 8 4 74 14
n_max 4 4
basis_size 8 8
l_max 4 2 0
ANN 30 0
 -5.7709957e-07
  1.0895163e-05
  3.5736259e-05
  9.9265151e-07
 -1.2336111e-04
  2.8630250e-06
  6.2208659e-05
 -7.2406647e-06
 -4.3340337e-05
 -2.2853595e-04
 -9.0390295e-06
  3.2627454e-04
  1.6220404e-06
  1.0527946e-05
 -2.3861638e-05
 -1.5953663e-05
 -6.9741823e-06
 -1.5456526e-05
 -1.0700227e-04
 -6.4736337e-06
 -6.6328372e-05
  1.6147013e-04
  3.4055847e-06
  2.9587723e-06
  6.0590737e-06
 -1.3254559e-07
  7.4297714e-06
  4.1299798e-05
 -3.7476938e-04
  1.3391108e-05
 -1.2884996e-05
  4.0150226e-05
 -6.3536339e-05
 -3.3722794e-05
  1.3987668e-05
 -1.5280258e-04
 -4.5119283e-05
  3.1678944e-06
 -5.8420851e-06
 -2.1342825e-05
  1.4704887e-05
  2.5098550e-05
  8.5028869e-06
  2.6881075e-06
  2.2782133e-06
  4.8923914e-07
 -4.7544416e-04
  2.5455698e-05
 -3.0171393e-06
 -2.6573794e-05
 -1.7355972e-06
 -1.0460427e-05
  1.1906964e-05
  4.3056020e-06
 -1.0591046e-06
  2.4750267e-05
 -4.4079039e-05
  1.9031399e-05
 -2.0403326e-05
  1.1820858e-05
  3.3189937e-02
 -1.3437007e-01
 -4.5509014e-01
  4.6142274e-01
 -2.1132521e-02
  2.7784503e-01
  1.0758563e+00
  9.4290450e-02
  8.4054047e-01
 -2.1070198e-05
 -8.1673767e-05
  1.2514218e+00
 -5.2611183e-02
 -2.1560948e-01
 -9.2669425e-06
  9.7054195e-01
  1.0902597e-01
  9.7537756e-02
  8.9324266e-02
 -2.8215861e-06
  2.1885592e-01
  3.1241569e-01
 -6.3831228e-01
  5.0636262e-02
 -2.2589013e-05
  2.9452142e-04
 -5.4901301e-07
  1.6177258e-02
 -6.4180568e-02
  1.2148075e-05
 -9.0023018e-02
  1.1623236e+00
  5.2034950e-01
  7.4568754e-01
 -2.8134651e-02
  3.4308749e-05
  5.8853966e-01
 -3.5903770e-01
 -3.4969889e-03
 -1.9334499e-05
 -3.7742924e-05
  5.1632822e-01
 -2.3500799e-01
 -2.7428886e-01
 -2.0764015e-05
  2.8313872e-05
  2.3783466e-01
  2.0892899e-01
 -4.5424867e-01
 -1.0390037e-05
  1.9890582e-04
 -1.9873407e-01
 -7.0349044e-01
 -4.4121709e-02
 -3.8810114e-05
  1.3332594e-05
 -2.1119771e-05
 -9.1663518e-05
 -6.5196687e-06
  4.3193400e-06
 -1.5577971e-05
  3.1662328e-06
  6.3323469e-06
 -2.9766135e-05
  1.6653477e-06
 -1.1478428e-06
 -6.5283677e-07
  3.0227624e-05
  1.2956228e-05
 -3.4481716e-05
  1.8575251e-05
 -9.1704087e-06
  5.1980345e-07
  3.5320722e-06
  5.1810807e-06
 -1.7758382e-05
  2.9970230e-05
 -1.5368559e-04
 -1.0275839e-05
  5.8166373e-05
 -2.1785192e-05
  4.8073118e-05
 -1.7162793e-05
  4.4024444e-05
 -2.5510581e-06
 -1.2652788e-05
 -2.6699970e-05
 -7.8180543e-05
  9.4403327e-07
 -1.4897479e-05
  6.2566924e-01
 -8.6160944e-06
 -1.5661798e-02
  1.1632792e-04
 -4.5016122e-01
  7.2063835e-05
  7.4899422e-06
 -1.3786175e-04
 -1.3199568e-05
 -6.7967480e-06
  1.2605888e-04
 -3.3242944e-05
 -2.2547947e-05
 -3.7305064e-05
  4.4681256e-05
 -1.2457544e-06
  8.2794286e-06
  7.7935192e-06
  2.7338256e-05
 -3.3676522e-05
  2.1120875e-05
 -4.9739876e-05
 -4.0426232e-05
  3.3517681e-06
 -2.3311059e-05
 -7.0344927e-06
  1.5793710e-05
  5.7695177e-04
 -2.8249106e-06
 -4.7097888e-05
 -1.9866806e-03
  1.5459494e-02
  9.2563733e-02
 -3.8088807e-03
 -1.0791250e-03
 -3.9492126e-05
 -2.7283898e-02
 -1.1322858e-04
 -1.9721501e-04
  1.1066065e-05
 -1.3484295e-05
 -4.6892494e-01
  5.5265471e-02
  3.4572076e-05
  2.0009962e-05
 -1.4161696e-01
 -1.4765665e-02
  6.8865619e-03
  2.4767360e-03
 -9.9331824e-05
 -1.9952047e-05
 -1.9964764e-06
  3.6796471e-03
  7.2977269e-07
  8.0673863e-06
  3.2100674e-05
 -3.0961823e-05
 -1.5291000e-04
  8.1912515e-07
  2.0282409e-05
  1.2219879e-05
 -1.0927335e-04
 -1.3654302e-05
 -3.4482742e-04
 -1.2323134e-04
  3.7459969e-05
 -3.1669941e-05
 -3.3831927e-07
  6.9589073e-06
 -1.8747121e-05
  8.4152256e-05
 -8.4273881e-05
  8.0288783e-06
  3.3511569e-05
  4.2518755e-06
  2.0613970e-06
 -1.3071034e-05
 -1.2423727e-05
 -1.6777276e-05
 -9.1146212e-06
  5.6275994e-06
 -1.0217432e-06
 -2.2421593e-05
  1.3417412e-05
  2.4503035e-05
  2.6701313e-05
 -5.6119293e-06
 -1.6137054e-05
  1.2636814e-05
 -1.7917047e-05
  2.9613250e-01
  1.4668466e-04
  4.1148562e-02
 -5.0633792e-02
  6.1728284e-03
  3.5781686e-06
 -2.8735303e-05
 -4.5849071e-04
 -1.7203529e-05
 -1.5200599e-05
  8.0958607e-06
 -3.9101169e-02
 -1.1046856e-05
 -8.1271164e-06
  7.3880938e-06
 -1.4988598e-03
  6.7421661e-06
  2.0280696e-04
 -1.5181977e-05
  7.4485826e-05
 -3.0685831e-05
  1.6480626e-05
  7.2954892e-05
 -5.0324957e-06
 -1.3119028e-05
 -1.2787136e-04
  2.9912810e-05
  4.1620664e-05
  2.9298975e-05
  3.2110373e-05
 -2.7503759e-01
  2.1677539e-02
  2.5865656e-01
 -1.3221994e-01
  3.2245690e-01
  1.4529962e-05
 -1.3596847e-05
  4.3262598e-06
  1.5081002e-05
 -6.5689666e-05
 -3.0152978e-05
 -4.5813675e-05
 -1.0491229e-05
 -2.6255977e-04
  3.2393717e-05
 -1.8634619e-05
 -5.9496455e-02
  5.8740159e-07
  8.4839226e-04
 -9.8579012e-06
 -2.1607821e-06
 -7.9276983e-04
  2.5914924e-02
 -9.1213442e-05
 -1.1028892e-07
 -1.9554556e-05
 -5.6683250e-05
  1.5323330e-05
  2.0343301e-05
  3.8781884e-05
 -2.7418355e-05
 -1.3911980e-04
 -7.5720868e-06
 -7.2097799e-05
  1.6908107e-05
 -3.1376330e-05
  7.8965359e-06
  2.8683347e-05
  3.0420075e-05
 -1.1639776e-05
 -5.4209600e-06
 -2.2397391e-05
  4.0507726e-05
  2.9220619e-06
 -1.1661193e-05
 -3.6770594e-05
  1.1835848e-05
  1.6750837e-05
  1.7064386e-04
 -2.1570575e-05
  8.6743703e-06
  5.4408215e-06
  9.6292943e-06
 -1.2478788e-05
  1.7505055e-05
  5.9505646e-06
  1.1540368e-05
 -1.6626736e-05
  1.9711815e-05
 -4.7594854e-06
 -3.7300142e-05
 -1.6990081e-05
 -5.8887807e-05
 -4.9242526e-06
 -7.4948715e-05
 -4.5474768e-05
  1.2677087e-05
 -4.6320638e-06
 -7.2359712e-06
  1.3536986e-05
 -3.4554125e-04
  2.8565604e-05
 -3.7226562e-07
  3.5405872e-04
 -8.7966528e-06
  4.1892319e-05
  1.5891061e-05
  2.7777173e-06
  2.9987026e-05
  7.3744195e-05
  1.7729972e-04
 -6.5776825e-05
  4.6729219e-06
 -8.7601302e-06
  6.8685666e-05
  1.3546334e-06
 -1.0025049e-05
  2.2973034e-06
  1.0169913e-04
  3.0224865e-06
  2.0165697e-05
  3.0349176e-05
  1.1224707e-05
  1.8250845e-05
  1.1698889e-05
  1.2205007e-05
 -4.9550255e-07
  1.3106044e-04
  2.2940310e-07
 -1.1370405e-05
 -3.8740691e-05
  2.6981517e-05
  7.8016583e-06
 -4.0293485e-06
 -2.5972475e-05
 -2.3854274e-05
  9.0373639e-04
  5.9236343e-05
 -8.1573908e-06
 -4.0509290e-06
  1.3090741e-08
 -6.1626270e-06
 -3.2446180e-05
  8.0974387e-06
 -3.5216675e-05
 -9.5024101e-05
  2.2074332e-06
  2.0584084e-05
  2.0344183e-05
  1.2377561e-05
  4.5360586e-05
  5.5504530e-05
 -1.9451934e-05
 -1.0313112e-05
 -1.1173253e-05
 -6.9722823e-06
  1.5163084e-05
  9.7110296e-06
 -2.2441513e-05
 -4.0482350e-06
 -1.0096971e-04
 -1.4500122e-05
 -1.0222217e-05
 -2.4515341e-05
  1.6305532e-05
 -1.2575448e-04
  1.4923245e-05
  9.9337536e-05
 -3.8605413e-06
  1.2734666e-05
 -6.8765985e-06
  5.5497653e-06
  1.1640181e-05
  6.8624445e-06
 -2.0718040e-05
  1.8999111e-05
  1.7758570e-05
 -2.1311012e-05
 -1.3255299e-05
  5.6504712e-05
 -3.2096726e-01
  2.8169674e-01
  1.1885942e-02
  2.8119561e-01
 -3.9346400e-05
  9.5820051e-06
 -2.5219251e-05
 -7.5797579e-05
  2.6089826e-06
 -3.3864414e-06
 -1.3041709e-04
  3.6951324e-03
  2.8605906e-05
 -9.4176394e-05
 -4.5151341e-05
  1.1099374e-05
  9.2547371e-06
 -1.0443960e-05
 -3.1250587e-05
  4.3222699e-05
  1.6521246e-05
  8.4023828e-05
 -8.9311060e-03
  5.8594328e-06
  6.2478895e-05
 -4.5004981e-05
 -1.2676592e-06
 -2.3061928e-05
 -1.0173826e-05
 -2.9890495e-07
 -4.1712099e-07
 -2.0705536e-06
 -9.1510788e-05
 -1.4922225e-05
  6.3730672e-06
  6.6269226e-06
 -2.0267016e-05
  1.0105954e-05
 -1.2892006e-05
 -1.1748109e-05
  6.0397437e-05
 -2.0998568e-05
 -1.1051403e-04
 -1.4397733e-05
  5.6303770e-06
 -1.2271544e-05
 -1.6412066e-06
 -4.4599194e-05
  1.2540261e-05
  1.6959808e-05
  7.4153650e-05
  1.9265917e-05
  4.2767615e-06
 -1.6510375e-06
  2.8018956e-05
 -1.5051643e-05
  2.0130115e-05
  2.6672300e-05
 -7.3207343e-06
  1.0562077e-05
  3.7942314e-06
 -1.8444596e-04
  1.0496050e-05
 -7.1773087e-05
  5.9596778e-06
 -1.6362001e-05
  2.9073635e-04
  4.2954140e-05
 -1.5192448e-07
 -7.1554741e-06
  2.2788459e-05
  5.1362886e-06
 -1.4397297e-05
 -6.3189596e-05
 -4.8689410e-05
  3.6896778e-05
  3.9743289e-05
  2.8222792e-05
 -4.0354043e-05
 -4.6976325e-05
  3.3216016e-05
 -1.1989375e-06
  3.6693833e-05
  2.3910397e-05
  1.4410411e-05
 -1.1080987e-04
 -6.3077050e-06
 -6.3764051e-06
 -5.2330402e-06
  5.6522789e-05
  5.7596189e-06
 -3.2264801e-05
  8.7915450e-06
  1.4436768e-05
 -1.5374737e-05
  1.7902323e-05
 -5.5909837e-05
 -2.9090379e-05
 -3.1394971e-05
  6.6663801e-05
 -5.3990124e-07
  4.8561819e-06
  3.4769656e-08
  3.0361893e-05
  1.8505278e-05
  3.0711537e-05
  4.8685206e-06
 -9.7468705e-07
 -3.2055628e-04
  6.1401724e-06
  8.4062285e-06
 -8.8171582e-06
  6.0373150e-05
 -4.0212639e-05
 -9.2377189e-07
  1.5633155e-05
  1.0034697e-05
  9.5739397e-06
  7.4107720e-07
  6.4509589e-04
  5.5470973e-01
 -1.3568589e-01
  1.1654438e-02
  1.1664927e-01
 -5.3434944e-01
  1.5044435e-05
 -7.0957166e-01
 -1.2516692e-01
 -1.1487000e+00
  1.8853563e-05
  7.8440025e-06
 -4.3928894e-01
  2.8058737e-05
 -1.4225802e-01
  1.5142355e-05
 -6.5765285e-04
 -2.7461328e-02
 -3.7637386e-02
 -2.8477702e-01
 -2.2800285e-05
 -2.8549575e-05
 -1.6485044e+00
  2.8107103e-02
 -7.0258446e-02
 -3.5292462e-05
 -2.8252107e-05
  1.2171272e-05
 -9.1313990e-03
 -2.6327565e-05
 -5.2841136e-05
  3.3476645e-05
  3.3727607e-05
 -8.7068884e-06
 -2.5313708e-05
  2.8831242e-05
 -5.5868113e-05
  1.1664694e-05
  7.5716798e-06
 -4.1172466e-06
  1.9233892e-06
 -3.8977585e-05
 -1.5210915e-05
 -8.3486066e-06
 -2.7206819e-05
 -1.7086006e-05
 -4.7124990e-06
  4.0803283e-07
  6.8390154e-06
 -3.9448896e-06
 -1.1324431e-05
  3.6718317e-05
  6.2149138e-07
  1.4713613e-05
  1.6279376e-04
 -1.2338470e-06
  1.7990727e-05
  3.4193941e-05
 -3.6874022e-05
  3.6916630e-05
  1.8708163e-06
 -4.9840724e-01
  5.6614243e-07
  4.4102255e-02
 -3.7540480e-02
  2.5467783e-01
 -1.5105204e-05
 -3.2279935e-05
  5.2956802e-05
 -1.3316393e-05
  1.3966553e-06
 -4.3842210e-06
 -2.0021107e-04
  1.4185425e-05
  1.0468456e-06
  8.8875067e-06
 -1.1100799e-04
 -1.1260092e-02
  8.4027481e-05
  3.4253466e-05
  3.7686848e-05
 -1.3540733e-07
  2.9595035e-06
  3.1771539e-03
 -3.5626173e-05
 -3.2213073e-05
 -7.9581532e-06
  5.5552296e-06
 -2.0903113e-05
  1.1761394e-05
 -1.8401346e-05
 -3.5179162e-01
  2.5834364e-01
  4.1020048e-01
 -5.2192532e-02
  4.4690186e-01
 -1.2098382e-02
 -9.9711411e-02
 -7.6104100e-03
 -7.0636947e-06
  3.3659780e-05
  1.8270535e-05
 -2.2874261e-01
  2.7352592e-04
  1.0867829e-04
  3.3611675e-05
 -2.5154334e-01
 -1.7472733e-02
  2.1953145e-02
  3.8643673e-02
 -3.6312635e-05
 -2.6444980e-04
 -5.3568486e-02
  6.6885576e-02
  6.8072154e-06
 -1.6641295e-06
 -1.8068378e-05
  5.4044634e-05
  5.0834747e-06
  1.5427503e-04
  4.1817646e-05
 -3.7938054e-05
  4.2360360e-05
  2.7599906e-06
 -2.3399532e-05
  1.3345261e-05
  1.2297456e-05
  1.8696393e-05
  1.5120525e-05
 -6.5937325e-05
 -1.0217863e-05
  1.4339606e-06
 -8.2913157e-06
  1.4032295e-05
  1.4739233e-05
  8.4427420e-06
  3.0759114e-05
 -4.9727905e-06
  6.7558343e-05
  7.8801841e-06
  1.3428855e-05
 -1.9627119e-05
 -8.5174461e-06
 -1.0597282e-05
 -3.1172458e-05
  8.6569562e-05
  2.0033740e-05
  1.7460459e-05
 -6.3128405e-06
  1.2685989e-04
 -6.4604014e-06
  1.0463804e-05
  1.6648379e-05
  1.6157670e-04
  7.7655122e-06
 -3.6707613e-01
  1.4870576e-05
 -1.3638996e-05
 -1.4035783e-06
 -1.2942300e-04
 -9.4223578e-06
  1.7675940e-06
  1.9677027e-05
  4.9169921e-06
  3.4561741e-05
  3.5400037e-06
 -2.5714407e-05
  6.8476447e-06
  1.4198704e-04
  5.4789016e-05
 -3.5994050e-05
  1.6309585e-05
  3.1761017e-05
  1.5168271e-05
 -2.7087995e-05
  7.7371478e-06
 -4.1027350e-05
 -5.6649264e-06
  1.9440017e-06
  3.3397577e-05
  1.1134239e-05
 -1.2161700e-03
  1.3755215e-03
  8.7819286e-02
 -5.3527539e-05
  1.5248725e-05
 -4.4209200e-06
 -1.6116965e-06
 -9.7455049e-04
  5.9247371e-02
 -1.5215099e-05
  2.4025780e-06
 -3.0368848e-03
  3.8791379e-05
  4.0067976e-06
 -9.2663422e-06
 -3.9921793e-05
 -4.3244036e-03
  7.8770204e-04
  8.3971581e-06
  1.0756971e-05
 -4.1336851e-05
 -1.8596071e-06
  1.9421082e-03
 -3.0429872e-05
 -1.7212409e-05
  6.1009205e-06
 -4.2867970e-05
 -3.5891608e-05
  1.1303703e-06
  7.5287235e-06
  5.2949576e-06
  4.7204135e-06
  1.2694354e-06
  6.8803155e-07
 -6.3915504e-05
  6.5938271e-05
 -2.1440871e-06
  8.5233305e-06
 -4.3544540e-05
  1.4690077e-06
  2.3347739e-05
 -2.4424315e-05
  5.6365399e-05
  4.6564008e-07
 -7.4418786e-06
  1.8798766e-05
  2.2928657e-06
  6.4010901e-06
  3.5288367e-06
  6.4221563e-06
  4.0684094e-07
  4.7940812e-05
 -6.0671441e-06
 -4.9938662e-06
 -1.2009640e-05
  1.4625774e-05
  1.0596769e-05
 -2.7579972e-05
  2.7308138e-06
 -3.1762898e-05
 -4.4842083e-05
 -1.9298306e-05
  1.2383110e-05
  1.4135070e-05
 -1.0759087e-03
  3.9850502e-06
  2.1405513e-06
  7.0501565e-06
 -1.5231662e-05
 -7.5217117e-06
  1.9373997e-06
  4.7177937e-06
  3.0293471e-05
  2.3632699e-06
  1.8719053e-05
 -3.3251607e-05
  4.9165936e-07
  2.3444725e-06
 -9.0820518e-05
 -1.1111919e-04
  1.7870259e-05
  7.9699503e-06
  1.5720525e-05
 -1.1217265e-05
  3.2646043e-05
 -6.9971570e-06
  2.9423466e-06
  2.2369995e-05
  2.6589714e-06
  1.5691738e-05
 -7.1711794e-02
  4.7881282e-03
  3.7869144e-02
 -2.0133666e-05
  1.8099619e-01
 -7.8574070e-05
  1.2873923e-06
 -2.2348502e-05
  8.1733910e-05
  4.2501720e-06
  9.6175499e-06
  2.5169164e-05
  3.4606615e-05
  2.5245910e-05
 -6.2741660e-06
  9.8962191e-06
  2.6867685e-05
  3.3135580e-05
  1.0954404e-04
 -3.4958928e-06
  3.3861832e-06
 -2.6801103e-05
 -1.7835113e-05
 -3.3620807e-05
 -1.7883012e-06
 -3.2660330e-06
  3.2986416e-05
  6.1038620e-05
  9.3959125e-06
  2.4516794e-05
 -9.5013416e-01
  8.3212459e-01
  7.3459733e-01
 -2.7178802e-02
  5.6688631e-01
  3.6762634e-05
 -6.5625697e-02
  7.7062547e-02
  1.2963508e-01
 -1.7453534e-05
 -5.7580615e-05
  3.3326125e-01
 -7.1012788e-04
  7.0283900e-06
  1.3306654e-05
  1.8315432e-04
  1.1637650e-01
  1.2345316e-01
  2.9518443e-01
 -5.8507394e-06
  5.0210696e-05
 -2.7172853e-05
 -1.3520934e-01
  5.6275036e-03
  2.0766807e-05
  3.6835607e-07
  9.0275662e-06
 -4.4871962e-05
 -6.8545283e-05
  1.7213755e-05
  2.5797826e-01
 -4.3924692e-06
  6.4094427e-05
 -3.1258615e-03
  1.1190427e-05
 -3.0878615e-05
 -4.2044981e-06
  4.7410103e-05
  6.8739209e-05
 -6.5208419e-06
  3.2616365e-06
 -3.8062641e-05
 -6.6562365e-07
 -1.4387201e-05
 -6.5361160e-06
 -5.9717504e-04
 -4.0235849e-05
  4.8798314e-04
  5.9837530e-05
  1.1984733e-04
 -1.7441205e-05
 -2.4103045e-05
 -1.4172546e-06
 -1.2109916e-06
  8.7198885e-07
 -2.3491593e-05
 -1.3039551e-05
  1.6393484e-05
  1.0939176e-05
  6.9901478e-05
 -3.2953499e-06
 -1.8186331e-05
  9.9086396e-02
 -5.7559305e-01
  3.0717501e-06
  1.6195729e-05
  2.0112643e-06
  3.5522484e-05
  7.7675131e-06
 -6.3712483e-05
  7.4855211e-06
 -2.2076927e-05
  5.7757734e-06
  6.4872293e-06
 -2.8035671e-03
  9.1411755e-07
 -6.3673765e-06
 -2.2348111e-05
 -1.2321938e+00
  1.4363321e-05
 -1.1982588e-04
 -1.6121273e-01
  2.0441696e-05
 -2.0884232e-05
  1.1333968e-06
 -4.8045281e-06
  2.0406866e-05
 -4.4212127e-05
  1.7442586e-01
 -5.4531090e-05
  5.1793982e-06
  2.3151748e-05
  1.5416470e+00
  1.0955747e+00
  1.4209155e-05
  1.5422352e-01
 -5.4843205e-01
  6.1591882e-06
 -3.3032769e-01
 -2.3534277e-01
  1.2229411e-05
 -2.7891274e-05
 -8.9218731e-05
 -1.9798892e-05
  4.2064297e-01
  2.5785268e-06
 -7.2977718e-06
 -9.1225374e-03
 -8.5597748e-01
 -1.6971063e-02
 -2.1849984e-01
 -7.1935612e-01
 -6.6294409e-02
 -1.6401118e-01
 -2.2593223e-01
 -6.0906776e-05
  2.0517253e-05
 -8.9835105e-03
  8.9934343e-01
 -1.4939158e-01
  3.9501369e-04
  5.7219466e-05
  2.4854808e-04
  1.0152160e-01
  1.3891608e-05
 -5.0225175e-05
 -3.5728095e-05
  1.9888499e-05
  1.0380835e-06
  4.5452915e-02
 -1.0539596e-05
  1.5960053e-05
  9.8086412e-06
  2.3812923e-05
 -3.8960483e-05
 -4.8303154e-06
  9.0630067e-07
  1.3189262e-05
  6.2400923e-06
  2.2898591e-06
  2.8240278e-05
  3.0034456e-05
  1.3540568e-05
 -1.1708364e-05
  2.7407396e-03
  3.2467622e-05
 -1.8737235e-05
 -1.0870349e-04
 -2.2759696e-06
 -5.0753301e-06
  7.4908471e-01
 -9.9783629e-06
  2.1370399e-05
  3.0239660e-02
 -1.5216265e-02
 -7.9723859e-06
 -1.4358823e-05
  3.9141651e-05
 -3.8735900e-05
  5.0240979e-02
 -1.9898438e-05
  2.1502869e-05
  1.3175170e-04
  3.8649439e-10
  1.4602444e-04
 -7.8149480e-07
  1.7606375e-05
 -6.3331254e-06
 -1.1582150e-05
  7.5878175e-05
 -1.9217853e-06
  2.1000900e-05
  2.8683917e-06
  7.4771320e-05
  1.0141837e-04
 -1.4928147e-02
  5.3067793e-06
 -4.0287523e-06
 -2.7479916e-06
  1.5265325e-05
 -1.0209757e-05
 -5.2425285e-06
  1.9080455e-05
 -2.4062427e-05
  2.5711945e-08
 -5.2814710e-05
 -7.3456044e-06
  3.9239879e-07
 -2.3161778e-05
 -1.2571761e-06
  4.0357259e-06
  1.1507517e-07
  2.4394619e-06
  1.2791100e-05
 -1.3411100e-05
  2.0887115e-05
  1.3318228e-05
 -3.9221291e-06
  6.9646163e-08
  5.6260833e-06
  1.9059366e-05
 -1.6555725e-05
  5.5460200e-06
 -9.4918330e-05
  2.6972795e-05
 -2.0783877e-05
  3.9813990e-06
  2.4327213e-05
 -2.9465418e-06
 -4.4564418e-05
 -3.9128084e-02
  3.9347856e-06
  4.5976059e-05
 -3.2233416e-05
  1.3766899e-04
  2.1192351e-05
 -2.6388418e-05
 -1.5879181e-05
 -1.3994534e-06
 -2.8873269e-02
  6.5127300e-05
  6.2500703e-04
 -2.0892498e-05
  8.4929025e-07
 -5.5523520e-05
  6.7953997e-06
 -3.4819386e-05
  8.0854088e-06
 -1.4297027e-06
  2.3177540e-06
 -1.6968752e-05
 -2.6123380e-06
  2.0494615e-05
  1.3309704e-05
 -2.0814592e-05
 -1.9011948e-05
  2.8976435e-06
 -1.3413148e-05
 -8.0940608e-06
 -5.2915901e-05
 -4.2933571e-01
  1.6234953e-05
 -2.7506746e-06
 -5.1802427e-01
  1.5668310e-01
 -1.4471706e-05
 -2.0954105e-05
  2.5636808e-05
  3.9798892e-05
 -2.9500517e-01
 -1.0731957e-04
  5.2972966e-05
  2.0930611e-05
  1.0715982e-04
 -1.5267804e-01
  6.7162614e-06
 -4.9334021e-06
 -7.7123557e-05
  4.1606752e-05
 -1.4624643e-01
 -9.8971959e-06
 -1.3967323e-05
 -4.9078208e-06
 -2.1070315e-08
 -6.8804666e-02
  4.4168948e-05
 -1.6347021e-05
  2.1554541e-05
  2.6720212e-05
 -2.9345507e-05
 -7.6879263e-02
 -1.8972577e-06
  2.1017771e-05
  1.4679965e-01
 -2.5646755e-06
  2.0344276e-05
 -1.6054335e-05
  8.5261825e-05
 -5.1345807e-05
 -8.2008630e-02
  7.1822578e-05
 -1.2104075e-05
 -3.4216753e-06
 -1.6551461e-05
  5.3308490e-06
  1.3741307e-05
  2.0870766e-05
  1.7079627e-06
  1.2616352e-05
 -1.0731612e-07
 -7.2721300e-06
 -8.2912438e-06
 -4.9729671e-05
 -9.1578668e-06
  8.3551640e-06
 -5.5943547e-06
  9.3914296e-06
  3.1946634e-05
 -4.5282518e-06
  3.0829531e-05
 -2.0666717e-05
  6.6808192e-05
  1.0617777e-05
 -2.7819795e-05
  2.4801471e-05
  2.3387311e-07
  2.7974273e-05
 -4.3717249e-05
  9.4961770e-06
  6.9396310e-06
 -4.6895042e-05
  5.7032306e-05
 -1.3804582e-05
 -1.1076171e-05
 -7.7186749e-05
  4.6525975e-06
  6.5413619e-06
 -6.8307170e-05
  4.3553217e-05
 -8.7241087e-06
 -1.0229708e-05
  7.7480290e-05
  4.4715696e-07
  3.3565318e-06
  8.9597261e-06
  5.4093129e-05
  3.9311002e-05
  1.2209877e-06
 -8.1149465e-06
  3.0412148e-06
 -1.3233842e-01
 -1.7932525e-05
 -3.2600205e-05
 -8.5740760e-02
  4.8128433e-05
  3.0940562e-05
 -1.9713680e-05
 -8.1469398e-06
 -5.4120370e-05
 -1.8122252e-02
  2.4479664e-06
  4.5605586e-05
  2.3028391e-05
 -7.3080755e-06
  6.0342782e-06
  8.6339678e-06
 -2.6841646e-05
  8.4451440e-06
  4.2106371e-05
 -2.3990999e-05
  3.2563967e-05
 -2.1052676e-05
 -1.6049882e-05
 -2.2119823e-07
  6.1966348e-06
 -6.0621242e-06
  3.4562159e-05
 -2.1154352e-05
 -1.4737817e-06
  1.1468177e-05
  3.2043234e-05
  8.2860961e-06
  8.3147233e-06
 -5.0853839e-07
 -2.1813230e-05
  2.4029232e-05
 -4.1108065e-06
  5.8517053e-06
 -5.1144500e-05
  2.0072989e-06
  7.0722640e-06
 -2.1759855e-05
 -2.4750942e-05
  1.1725481e-06
 -3.7983034e-05
  6.7188948e-06
  4.1176218e-06
  1.2460858e-05
  1.2978865e-05
 -4.7862954e-06
 -7.8693229e-06
  7.8063691e-05
  4.3693937e-05
  2.6692895e-05
  6.0687794e-06
 -1.5887166e-05
  1.8303059e-05
 -2.6225838e-05
  1.1431625e-05
  5.5110318e-05
 -4.2392123e-01
  6.5936023e-05
  5.7558980e-02
 -4.0680689e-01
  1.9118409e-01
 -1.8866662e-05
 -6.5512131e-07
 -3.0481135e-05
  1.4827033e-05
 -1.3876812e-01
  4.4883918e-06
 -1.4807844e-05
 -2.8279457e-05
  1.4676491e-05
 -1.3853346e-01
  9.6395752e-07
 -1.6800897e-06
 -1.2933496e-04
 -2.0820806e-05
 -2.7998710e-01
  1.1739129e-05
  1.0104128e-06
 -7.5060184e-06
 -5.1511288e-06
 -5.0991125e-02
 -6.0120037e-05
  1.8499741e-04
 -1.5934927e-05
  1.4240864e-05
 -1.7535900e-05
 -1.7916089e-01
 -1.8813904e-05
  1.4210091e-04
 -8.1042498e-02
  2.1484511e-01
 -2.5017846e-06
 -9.1352362e-05
 -2.3982282e-05
  8.2207234e-06
 -5.0935924e-01
  3.9558572e-06
  1.8153025e-05
 -1.3916815e-05
  2.5871494e-05
 -2.3524660e-01
  6.9326299e-05
  3.8404805e-06
 -1.1967061e-05
  5.9197018e-06
 -2.9109842e-01
 -3.8333172e-05
 -3.7921764e-06
  1.6522554e-05
  1.7165870e-05
 -1.2000666e-01
  1.0682131e-06
  2.1543672e-05
  2.1812271e-05
 -5.1704933e-06
 -3.2855471e-05
  2.5924736e-01
  6.3859038e-06
  5.8694291e-01
  2.6754411e-02
 -4.1220547e-04
 -2.5829622e-05
 -4.7186149e-06
 -3.6154588e-06
 -1.4544603e-04
  8.7533094e-02
  2.4975287e-05
  3.0049070e-05
  2.8634136e-06
  4.0547318e-05
  1.5821854e-02
  1.2332675e-05
 -2.0213844e-05
 -9.2461732e-06
 -2.0101090e-06
  3.8559657e-02
  5.3976114e-06
 -6.2919753e-05
  1.8519440e-05
 -3.2840075e-05
  7.9327729e-05
  2.3216902e-05
  1.6418642e-06
 -2.8112597e-06
 -3.0278199e-05
  2.6986436e-05
 -4.2011437e-05
 -2.9334282e-05
  1.0672795e-05
  5.0888058e-05
 -1.5938938e-05
 -2.0983821e-06
  1.3756156e-05
  4.7539972e-05
  8.9315154e-06
  2.3245217e-05
  1.9226369e-05
  5.8181295e-06
 -8.5777465e-06
 -3.8577537e-06
 -2.1280044e-05
 -5.7469210e-06
  2.5637379e-05
 -1.6100368e-05
  1.1963045e-06
  7.4480099e-06
 -4.8307647e-06
  3.1343423e-04
 -5.6143858e-06
  1.8595445e-05
  1.5277488e-05
  1.5948737e-05
 -1.7547474e-05
  1.5936555e-04
  9.0126823e-06
  4.9371334e-05
 -3.1992454e-06
  9.2135124e-06
 -1.6048020e-07
 -2.5529798e-05
 -3.9829956e-05
  2.4758912e-05
 -4.6734731e-05
 -4.0969812e-06
 -8.1297345e-05
  5.4796168e-05
 -6.7976030e-06
 -2.6553005e-05
  1.8067794e-05
  1.3253422e-04
  1.9186653e-05
  7.7753335e-05
  1.0353332e-05
  5.9137819e-06
 -7.2709895e-06
 -2.0137950e-05
 -8.6288483e-06
 -8.9275154e-06
 -1.6359285e-05
  8.6452801e-06
  2.5576202e-05
 -2.0576215e-04
 -3.5546214e-05
  8.1371973e-06
  4.2069778e-06
  2.8232311e-05
 -5.0605016e-05
  6.2245022e-06
 -1.8894607e-05
 -1.1134275e-05
  8.1558001e-06
 -3.9951843e-05
 -5.9033855e-06
  3.6175050e-05
  5.4124812e-06
  9.8139853e-06
 -1.5161691e-05
  6.1720195e-05
 -1.8785917e-05
  2.6572216e-04
 -4.4923636e-06
  6.2459774e-05
 -2.9800223e-05
  2.3147555e-05
  5.6596614e-06
 -4.9196927e-07
  1.3355189e-04
 -6.8971640e-05
 -1.2488253e-05
  1.2813321e-05
  1.7522059e-05
  2.3507784e-05
  3.4548975e-05
  1.3852534e-06
  2.1071934e-05
 -3.5289879e-05
 -4.3036096e-02
 -1.3096936e-04
  4.7547305e-06
 -1.2685533e-04
  1.2991382e-04
 -2.5159807e-05
 -1.5815994e-04
 -1.0447090e-05
 -2.8386810e-05
 -1.2545628e-03
  4.3759446e-05
  1.8293384e-05
 -2.1234348e-05
 -9.5923642e-06
 -2.7794994e-03
 -6.3794218e-06
 -5.3677436e-06
 -4.5112174e-05
 -2.0420954e-04
 -3.8316254e-02
  4.6374164e-05
 -1.4155584e-05
  1.9057283e-05
  1.2175256e-05
 -1.2367127e-04
 -1.5147068e-05
 -1.6701742e-05
  1.4108218e-05
 -1.7056744e-05
 -1.6018879e-04
  6.5915551e-06
 -3.0600761e-05
 -6.7511210e-05
 -2.3050517e-05
  7.5860194e-06
  6.5373065e-06
 -1.4938971e-04
 -4.7686494e-06
 -3.2354346e-05
  2.6521532e-06
  2.6023330e-05
  1.0099756e-05
  3.2551707e-05
  1.3590849e-05
 -9.7252678e-06
  2.1106651e-05
 -2.2348499e-05
  3.6064905e-06
  1.9042640e-05
 -9.7208504e-06
 -1.0257872e-05
  1.5436015e-05
 -1.7305461e-05
 -8.1973285e-06
  1.4776082e-06
 -1.5889544e-05
  1.2509724e-03
 -9.1415377e-06
  1.7778868e-05
  4.4736844e-05
  1.1541530e-05
  1.2206892e-04
  2.8631399e-05
  2.5812236e-05
  1.3722517e-04
 -3.9521925e-05
 -1.1478499e-05
 -3.0619744e-06
 -5.5972178e-06
 -5.7016066e-05
  8.6147491e-05
 -6.1338011e-05
 -1.6502683e-05
 -1.2660590e-05
  2.8951024e-05
  1.4477878e-05
  1.0719682e-04
 -5.1662279e-05
  1.2050880e-04
  1.0517520e-05
  2.2219581e-07
  1.2109739e-05
  1.5775584e-05
  1.6478221e-05
  2.2462995e-05
 -1.6017322e-05
 -2.7487333e-06
 -3.9250349e-06
  1.5880361e-05
 -1.4734464e-05
  1.8115465e-05
  4.1074118e-06
 -5.3158437e-06
 -7.2740081e-06
 -1.0387354e-05
 -2.8698549e-05
 -3.7162190e-06
  1.0165276e-05
  1.7368808e-05
 -2.1996899e-05
  3.3164833e-06
 -2.0606234e-05
  2.1319016e-05
  3.4468128e-05
 -4.8562180e-04
 -3.0001265e-05
  1.3518174e-06
 -2.6235880e-06
 -7.3430624e-06
 -6.9838636e-05
  2.5710906e-05
 -5.1221741e-05
 -1.3203508e-05
 -9.0697358e-06
 -2.4624394e-06
  2.1282860e-05
 -2.4857004e-06
 -1.7097236e-06
 -1.8135097e-05
  5.5244043e-05
 -8.3350778e-06
  1.1546902e-06
 -1.0688509e-05
  6.5826272e-05
 -4.6114877e-05
 -1.2505143e-04
 -4.0240561e-06
  1.3099042e-05
  3.0183298e-06
  2.7541303e-06
 -1.2215864e-05
 -5.9360405e-05
  2.0498114e-06
  2.3369923e-05
 -1.4116469e-07
  5.7335332e-05
 -3.7432903e-07
 -4.3592077e-05
 -3.5681780e-05
 -7.6037350e-06
 -2.6043899e-05
 -1.2338708e-05
  3.1168485e-05
 -1.2219537e-06
 -6.9613520e-06
  1.2889795e-05
 -4.7761855e-06
 -4.6578203e-05
 -3.4397303e-06
 -3.3177617e-05
  4.1070594e-05
  3.5153214e-05
 -5.8289785e-05
 -1.7015640e-05
 -3.8580888e-06
 -8.0482596e-06
 -4.9094117e-05
 -4.7604080e-06
  1.1487400e-06
 -3.7123602e-06
 -5.5465885e-06
 -3.1025957e-05
  1.0541723e-05
 -8.9686182e-06
  5.0476633e-06
 -1.1154419e-06
  1.0892333e-05
 -3.2400716e-05
  1.7220276e-05
  2.5945862e-06
 -9.1877405e-07
 -3.3142955e-05
  1.3394621e-06
  1.0086682e-06
  1.4471902e-05
 -5.1109819e-06
 -5.5376249e-06
 -3.6445851e-06
  7.7203558e-06
 -6.9580688e-06
  1.0453571e-01
  7.4347195e-06
 -6.0536946e-05
  6.8262950e-02
 -1.2853090e-01
 -5.0799558e-06
  1.0135669e-05
  3.4782479e-05
  6.7006213e-06
  3.1102094e-01
  2.2917131e-05
 -9.8875216e-06
 -2.0721302e-05
 -1.0911972e-05
  1.4413904e-01
  3.5879788e-05
 -1.9632223e-05
  4.8956481e-05
 -1.7598262e-05
  2.0033298e-01
  9.7682117e-05
  3.8813091e-06
 -1.9125799e-05
  3.1335752e-05
  6.6909492e-02
  2.2058000e-05
  1.7830185e-05
  1.7019931e-05
  4.5236171e-05
  1.8096305e-05
  2.0097308e-02
  1.5540898e-05
 -6.7673434e-05
  6.7748517e-02
 -2.2063468e-02
  1.5679327e-06
 -2.8207547e-05
 -4.2710399e-06
 -2.2928650e-06
  1.1069398e-01
  1.6704578e-05
 -5.8864030e-06
  9.4485267e-06
  8.7210691e-07
  1.5305687e-02
  1.0608181e-06
 -2.1565916e-06
  2.9522998e-06
  3.1258431e-05
  2.6588144e-02
  6.2734625e-06
  1.9891624e-05
 -1.4158434e-05
 -2.8020089e-05
  1.9454654e-05
 -1.6496555e-05
 -1.4002723e-05
  1.7926093e-04
  1.5019557e-05
 -7.5965495e-06
  2.9728293e-01
 -8.9955274e-06
  1.7196256e-04
  1.6187659e-01
 -4.8520785e-02
  1.1226055e-05
 -5.1220104e-05
  2.6501028e-05
  1.0309510e-04
  5.5846798e-01
  3.0238089e-06
  1.0199062e-05
  2.9083421e-05
  4.7775593e-06
  3.0750293e-01
  3.2857522e-05
  2.2474576e-06
 -6.1657574e-06
 -8.2987053e-06
  1.9097003e-01
 -3.3258757e-06
 -6.6178609e-06
 -7.5144839e-05
 -1.2348351e-05
  1.8916893e-01
 -2.0592423e-05
 -1.6788813e-07
  2.1238360e-05
 -7.2594245e-05
  1.1058095e-05
  1.3527039e-03
  3.3504119e-05
 -6.2436616e-06
 -3.7165591e-05
  1.9073883e-05
 -1.9699595e-05
 -7.2122575e-06
  1.9465862e-05
  4.1238080e-05
  1.9680194e-04
 -2.9219083e-05
 -2.2058808e-05
 -1.4492858e-04
 -4.7282833e-06
  4.1007202e-06
 -2.3014045e-06
 -1.2293103e-05
 -1.5920819e-05
 -2.1902670e-05
  5.3248139e-05
 -7.1588338e-06
  5.1781512e-06
  3.6190035e-05
  2.1024309e-05
 -6.3132502e-06
  9.6248214e-06
 -2.3238301e-05
  4.3198943e-05
 -6.8012836e-05
  9.3916506e-06
 -5.0354007e-05
 -1.4995899e-05
  3.9801212e-06
  1.2560040e-05
 -7.6342536e-07
 -1.1645525e-06
 -8.7064705e-05
  9.7680258e-06
 -2.8154514e-05
 -5.3600717e-05
  2.0929849e-06
 -4.5204404e-05
 -1.0066771e-05
  3.7743739e-06
  1.7133552e-06
  4.6317700e-06
 -5.9450326e-06
 -8.2504966e-06
  1.8101472e-06
  1.8712935e-05
  1.6178068e-05
 -8.5765095e-07
  1.3430677e-05
  4.9769433e-06
  2.4741794e-05
 -1.4166325e-05
  6.2635254e-06
  3.5726567e-05
 -1.5376037e-05
 -1.3316150e-05
  8.4524445e-02
  3.3146137e-07
 -2.9963772e-05
  2.2392863e-02
  1.8591635e-01
  1.8685521e-05
  1.0011692e-05
 -2.3533825e-05
  7.4071399e-06
 -5.2269328e-01
 -2.6257858e-06
  3.0888619e-05
 -1.6144668e-05
  1.5341898e-04
 -3.0390969e-01
  7.9445872e-06
  2.4208641e-05
  1.8614639e-05
 -7.6873939e-06
 -2.7569726e-01
 -7.2482435e-06
  1.0498305e-06
 -7.3939677e-06
  1.0861529e-04
 -1.6002706e-01
  7.0926585e-06
 -2.0568756e-05
  2.3492834e-05
  1.7696915e-05
  1.8654106e-05
 -1.6572484e-01
  4.5269244e-05
  6.2396190e-05
 -1.8442404e-01
  3.4661338e-02
  2.3980040e-06
  3.9279817e-06
  2.7122601e-06
  1.5937741e-05
 -1.5515374e-01
  2.3564119e-06
  5.2247222e-05
  7.4789932e-05
 -4.7443380e-05
 -4.2997129e-02
 -1.3528197e-05
  3.5326552e-06
 -5.6154557e-02
 -1.6836287e-06
 -7.9454541e-02
 -2.1740475e-06
  5.2509375e-05
 -1.7902725e-05
  1.0791498e-05
 -2.2463273e-04
  4.3245977e-06
 -4.8679917e-06
 -2.5050342e-05
 -1.0245689e-06
 -2.4049832e-05
  1.2408980e-04
 -1.8996408e-06
  2.7360744e-05
  5.2312193e-06
 -1.3841630e-05
  3.9773859e-05
 -2.8451901e-05
 -7.4198879e-06
  9.1815864e-06
 -2.7859801e-06
 -7.3013857e-06
  4.9485425e-06
 -8.7979752e-06
 -3.1836982e-05
 -4.9339252e-07
 -9.4734260e-06
 -1.5610989e-05
 -1.7188071e-05
 -1.4883787e-05
  2.4682027e-05
 -5.3372394e-05
 -1.5407182e-04
  1.1246667e-05
 -5.5349174e-05
 -4.6067606e-05
 -1.3527960e-04
 -5.5186133e-06
  8.3231744e-06
 -8.1805238e-06
 -1.1212160e-04
  2.0702440e-05
 -2.5746458e-05
 -3.5404421e-06
 -4.3455661e-06
  1.6534706e-05
  1.8802556e-06
 -4.0504774e-06
  2.5098877e-06
 -4.8659182e-05
 -2.4891968e-05
 -4.2203033e-06
 -3.6918966e-05
  1.7070099e-05
  2.0394244e-05
 -4.6762107e-05
  9.0054069e-05
 -4.6416740e-06
  6.4017811e-05
 -2.1125867e-05
 -2.1726257e-05
  2.0355510e-05
 -2.7013773e-06
  1.0775620e-05
 -2.6842832e-05
  1.4209177e-05
  2.5805341e-05
 -1.7310380e-05
  1.7086624e-05
  2.9173714e-05
 -3.1491390e-06
  2.0965643e-04
  1.2257058e-05
 -3.9599468e-05
  1.2372748e-05
  3.4923869e-06
  2.5504976e-05
 -2.6060868e-06
  7.8670992e-06
  2.2187728e-06
 -1.3917877e-02
 -4.7399090e-03
 -3.1439598e-05
 -2.1164145e-05
  1.8876872e-05
 -1.6288015e-05
  2.3142169e-05
  9.5283169e-05
 -7.9483889e-06
 -5.1519753e-05
  8.2993509e-05
  2.7245660e-05
  8.4770516e-05
 -1.5750899e-06
  2.5597196e-02
  2.0641180e-06
  5.5283890e-05
  5.1083532e-04
 -2.0633007e-07
 -5.4099951e-06
 -4.7656231e-05
  8.6883433e-02
  2.1466437e-01
 -9.4490006e-06
 -1.6484663e-01
 -4.9112394e-01
 -4.5782920e-02
 -5.3548447e-05
 -1.7159039e-01
  5.3047461e-05
 -5.0985348e-01
 -7.4145806e-01
  2.4411862e-01
 -1.1625764e-06
  3.5364810e-06
  1.4138641e-06
 -2.3332095e-01
  9.7699020e-05
 -8.9474042e-06
 -9.5006544e-06
  1.4646439e-05
 -6.4342776e-06
  4.8015729e-01
  2.4732217e-01
  7.9991007e-01
  3.8667604e-05
  2.4244082e-05
 -7.0193261e-01
 -3.1336701e-01
 -1.3663245e-05
 -2.2431582e-04
 -1.2173684e-03
  9.4284860e-06
  2.6475894e-01
 -1.1053076e-05
 -2.2300924e-06
 -3.5787782e-06
 -2.9473449e-05
 -3.9252525e-05
  2.2210848e-05
  9.7101627e-05
 -7.1431186e-06
  1.0993370e-05
  8.2863349e-05
 -6.4301377e-05
  2.5319841e-05
  1.0199020e-05
  8.7512262e-06
 -3.6199093e-05
 -1.4872682e-05
  1.3880433e-04
  1.8308168e-05
 -1.0537163e-04
 -7.5107782e-06
  3.1523759e-05
 -1.5177259e-05
 -1.6582535e-05
  5.1865369e-05
 -8.1334503e-07
 -1.9227004e-05
  8.0475038e-05
 -5.8174617e-05
 -3.3462466e-06
 -8.6501922e-07
 -5.0028198e-06
 -9.0356866e-07
 -2.5382160e-05
  2.3941361e-06
  1.4207161e-06
  2.5627318e-05
  5.5128380e-06
  1.9507068e-05
 -8.9271825e-06
 -3.8659295e-05
  1.8819712e-05
  5.2012143e-05
 -9.3628032e-08
  4.3193245e-06
  4.0852730e-05
 -9.6175763e-06
 -7.5805319e-06
 -7.8739295e-06
 -8.6411183e-06
 -1.0954202e-05
 -9.4507166e-05
  3.8775881e-05
 -5.8346609e-06
  4.0377217e-06
  4.7659660e-06
  2.1384170e-05
 -4.2187105e-05
  1.7436720e+00
  1.0385842e+00
 -5.5324179e-01
  1.0625134e+00
 -1.0566493e+00
 -1.3378469e-06
  1.1605213e-03
  3.0899566e-05
  1.4440117e-05
 -1.4818042e-05
  1.3767794e-06
 -1.9402560e-02
 -1.2651300e+00
  3.1213112e-05
 -1.3934993e-03
 -2.9696712e-02
 -2.0759805e-01
 -3.5141852e-01
 -6.8181235e-04
 -4.3536533e-02
 -6.4467378e-05
 -1.3439123e-05
  1.5828322e-01
 -1.2093139e-05
  9.1833539e-02
  4.0598102e-06
  8.6540713e-06
 -6.2191534e-01
  6.6193325e-06
  7.0448034e-02
 -1.1383354e-05
  6.2148615e-07
  1.3431466e-01
 -2.1448702e-01
  5.9660122e-02
  5.1176594e-05
 -1.8241013e-05
  8.3416498e-06
  4.2668635e-06
  2.1509989e-06
 -1.3828442e-05
  1.1949143e-04
  9.1982918e-05
  1.7564940e-05
  9.4281051e-05
  2.7535195e-04
 -5.0321714e-06
 -8.8220338e-07
  8.1991820e-06
  3.3387238e-05
 -3.0864701e-06
 -1.3740219e-05
  6.2248968e-02
 -5.8717859e-08
 -6.2671973e-07
 -1.2107621e-06
  1.2577630e-06
  9.7564480e-06
 -8.7135859e-06
 -5.8508981e-06
  3.3523746e-05
  5.6814164e-01
  3.0913600e-01
 -5.6044853e-01
 -6.9087368e-01
  4.2264335e-04
  6.2621646e-02
 -7.7033483e-06
  9.2994751e-06
 -2.3157297e-02
  3.4039280e-05
 -1.0862828e-01
 -1.2001011e+00
 -1.5618803e-05
 -2.0949811e-02
 -7.3656827e-02
  9.1650554e-06
  4.4373362e-05
 -2.8357859e-05
 -1.2584093e-01
 -7.5983624e-03
 -1.1540405e-05
 -1.2637797e-02
  3.0623955e-06
  8.1256203e-06
 -1.6453023e-05
  6.1456294e-06
  7.0665315e-02
 -7.8620315e-06
  1.4278523e-04
 -9.2415303e-06
  1.1527999e-05
  1.0554721e-01
 -6.2788400e-05
 -1.8436622e-05
 -1.8759216e-05
 -1.4435498e-05
 -1.1789162e-05
  5.1044326e-06
 -1.0027360e-05
  4.2334605e-06
  2.8676830e-05
 -2.9632258e-06
 -1.6908711e-05
 -7.7480445e-06
  1.8425408e-05
 -4.3888931e-06
 -4.7682920e-06
  4.3275868e-06
  5.1177658e-06
  1.2930494e-05
 -2.4616502e-06
  1.4631049e-05
 -4.3712134e-07
 -1.3666883e-05
  2.5475370e-05
 -1.4751564e-05
 -1.0362532e-04
  6.2598274e-06
 -6.4030014e-06
 -3.1722829e-01
  2.2118945e-02
  7.5045926e-03
  4.7581136e-01
 -3.1506872e-01
 -3.1647085e-06
  6.7729596e-03
 -5.6663634e-05
  4.0619038e-06
 -3.2670159e-02
  1.0721924e-05
 -4.0199369e-02
  1.6359459e-01
 -6.4548203e-07
 -6.4637483e-05
 -1.4028638e-03
 -1.8937691e-05
  2.6496547e-01
  4.0852187e-06
  1.5761966e-06
 -5.8004666e-02
 -1.7013138e-02
 -8.6686492e-01
  8.9246596e-06
  1.1747486e-01
 -1.6946255e-05
  8.4224419e-05
 -1.1850811e-01
 -6.6584122e-05
  2.0487294e-05
  3.8607239e-05
  1.5560454e-05
 -9.3790741e-06
 -1.0742951e-05
 -9.6448428e-05
 -1.7027227e-05
  7.6125548e-06
 -2.0951646e-05
 -2.0863697e-06
 -1.1342397e-05
  3.1961590e-06
  1.6546634e-05
 -1.6357617e-06
  6.9065231e-07
 -2.5178500e-05
  2.2114424e-05
  6.2265840e-06
  1.2797340e-06
 -5.7227289e-06
  1.0991550e-05
  1.4012209e-06
 -3.0029978e-05
  6.8657846e-06
 -2.0497942e-05
 -1.4727632e-05
  5.8879402e-07
 -4.1853191e-04
  2.9536421e-05
 -1.7761689e-05
  3.0281456e-06
  1.1062467e-02
 -5.3588539e-02
  6.1649927e-03
 -6.8640031e-05
  4.9973060e-06
 -1.9809131e-05
  1.8597393e-05
 -5.8378457e-05
 -2.4817331e-05
 -3.1818592e-05
 -7.8474557e-05
 -4.9623451e-04
 -2.3803525e-02
 -2.1490398e-06
 -5.3147737e-06
 -2.3619890e-04
  6.3520815e-06
 -5.0100185e-05
 -3.9058455e-06
 -3.9585295e-05
 -3.2241718e-05
  2.2185915e-05
 -2.1974302e-03
 -8.8688279e-07
  4.0836626e-06
  1.4404514e-05
  1.9088486e-05
  2.0093961e-01
 -2.5719603e-06
 -1.1421130e-05
 -1.8140385e-05
 -5.2934975e-05
 -1.8261965e-06
 -6.4633391e-06
  1.4667740e-05
  9.4050961e-07
 -2.1515170e-05
  6.9411893e-05
 -1.5280531e-05
  1.0409198e-05
 -1.1730433e-05
  5.2390883e-06
  3.9127463e-05
  2.1638887e-05
  5.8672190e-06
  4.0438397e-05
 -5.5226806e-06
 -1.9520519e-05
  8.0268610e-06
 -2.1031983e-05
  8.4428939e-06
 -4.6316086e-06
 -3.1824777e-06
  1.6206826e-05
  2.5661506e-05
  2.3271793e-06
  7.8533725e-05
  8.7210101e-06
 -6.4971784e-05
 -1.2241478e-05
  6.9660132e-06
  3.3239819e-06
 -2.7579752e-05
 -1.0190893e-05
  4.2384592e-05
 -7.6747292e-06
 -1.2755394e-04
 -5.8966799e-04
 -4.6505211e-06
  1.2192229e-05
  2.1441589e-05
  2.8644836e-05
  1.1692395e-05
 -8.7634220e-09
 -2.5844370e-06
  3.3806420e-05
 -3.4243883e-05
  2.5287695e-06
  1.4687885e-05
  3.0783101e-06
  2.7676491e-05
  6.9219033e-07
 -2.0881747e-04
  8.0290511e-06
  9.0687663e-06
  7.2032315e-05
 -1.8381585e-05
 -2.0964808e-06
  1.6355081e-04
 -1.1324304e-06
  1.6584102e-04
 -7.5386206e-06
 -4.1074360e-05
 -2.4040934e-05
 -6.0247239e-06
 -6.6514721e-04
  4.5671026e-05
 -1.0875102e-04
 -3.0674106e-05
 -3.3378423e-05
 -3.1135871e-06
 -1.6562444e-06
 -7.2286798e-06
 -5.5808200e-06
 -4.0955711e-06
 -1.3224239e-05
  3.7786785e-06
 -3.8288435e-06
 -1.7473230e-05
  1.1112306e-05
 -1.1408188e-04
  1.0333810e-04
  1.0330879e-05
  4.5817856e-06
  4.2792806e-05
  1.8494973e-05
  2.4986457e-07
 -7.8239718e-06
 -1.9236597e-06
 -1.6209038e-06
 -1.6556630e-03
  1.7675991e-03
 -4.4915330e-02
  3.2331220e-05
  4.1521350e-01
 -3.1427223e-06
 -1.6622195e-07
  3.8853941e-06
  4.6752692e-05
  7.9857462e-05
  5.1888514e-06
  2.9637573e-05
  4.1100927e-04
 -4.9489470e-05
  4.8688698e-06
  5.7675043e-06
 -3.6653462e-06
  1.9861964e-05
  1.0655630e-06
  5.5759396e-05
  9.8192859e-06
  7.5843695e-06
  4.6783227e-02
  4.0696441e-06
  3.8779464e-05
  5.1829497e-06
  2.2128597e-05
 -5.5223471e-01
 -1.6726447e-06
  3.9460490e-05
  9.4230437e-01
  1.0574421e+00
  6.6993427e-01
 -1.4545225e-01
  6.3841248e-01
 -3.1131145e-05
 -9.0405279e-05
  1.5993342e-01
  5.2900985e-05
 -5.0027087e-05
 -1.4066574e-01
 -1.0262908e-04
 -1.8732071e+00
  2.1577885e-07
 -7.0536837e-02
  2.8646532e-02
 -5.4133976e-01
 -8.5963532e-02
 -9.7820464e-07
 -6.2621713e-01
  4.0668560e-06
 -5.1577081e-05
  7.4007416e-01
  1.2134795e-05
  2.0398593e-05
  4.5375043e-04
 -9.7273132e-06
  3.7059528e-01
 -5.2869280e-05
  1.7286951e-04
  3.6443412e-01
  1.0009941e-01
 -3.2689434e-01
  9.0178255e-05
 -1.9346278e-02
 -5.8400456e-06
  1.7480274e-01
 -1.8982333e-01
 -7.6020020e-05
 -1.0735797e-02
  5.4834804e-06
 -2.1267135e-01
  5.4065204e-01
 -5.7401863e-05
 -5.7982076e-02
 -2.6795819e-01
  2.7065755e-06
 -4.5852695e-02
 -1.8896510e-05
 -2.2541851e-06
 -4.3418884e-05
 -4.1416621e-05
 -1.3522123e-04
 -3.5555906e-06
  4.2225995e-05
 -2.2075130e-06
 -1.8172866e-05
  1.6001640e-01
 -1.1390126e-05
  6.8652436e-02
  2.1174835e-01
  4.6269223e-01
  6.4951682e-01
  7.4443370e-02
 -2.6854864e-01
  1.2027137e-05
  6.9770380e-04
 -3.5650641e-01
  1.1466170e-06
 -8.2803711e-02
  4.9264767e-05
 -1.5173990e-01
 -6.2413126e-02
  2.4520014e-06
 -2.8834797e-02
 -1.2057111e-01
  5.9010731e-06
 -1.0561993e-02
  7.3292276e-06
 -1.1991171e-01
 -5.7623420e-05
 -7.4788302e-05
  9.1622878e-06
  5.4763968e-06
 -2.1431269e-04
 -1.9437341e-05
 -1.4949032e-05
  1.4203680e-01
 -9.4859730e-05
  8.0223545e-06
 -1.6498410e-05
  5.6042776e-02
  4.2382804e-01
  2.1257878e-03
 -2.6657042e-01
 -6.9412832e-05
  2.0612082e-01
 -2.9059842e-01
 -3.1060841e-05
 -2.9348367e-01
  9.0986636e-05
 -2.6569558e-02
 -3.0903877e-05
 -5.8291257e-06
 -1.1383190e-01
 -2.6066828e-01
  2.8312003e-05
 -1.3194137e-03
 -9.7041075e-06
 -9.9603817e-02
 -2.5026700e-02
  2.3376306e-05
 -6.5272063e-02
 -6.8423024e-06
 -8.2804923e-05
  1.6126942e-05
  2.9982309e-06
  8.5056461e-02
  1.2063976e-04
  6.3792489e-02
  7.0877381e-02
 -1.1986725e+00
  1.1931367e-02
  6.3025957e-01
  4.2215848e-01
  6.1142573e-06
  6.0991746e-01
 -7.7110553e-01
 -1.4374322e-04
 -3.5985792e-01
 -2.8706414e-01
 -2.6103389e-01
  8.0705959e-01
  1.4470668e-04
 -1.0083990e+00
 -7.0260686e-01
  5.5660687e-02
  9.1940492e-02
 -3.7742295e-06
 -2.6426214e-01
 -2.8893676e-01
  1.4288442e-01
  6.0495180e-01
 -1.1231649e-04
 -9.9585938e-01
 -1.4042774e-05
 -6.8951067e-06
  8.0467552e-02
 -1.1426029e-07
  4.0217996e-01
  3.9257887e-01
 -7.0113254e-01
  3.6545256e-01
  2.0083822e-01
 -2.2116075e-01
  2.0325077e-05
 -3.5189772e-01
  5.9853733e-01
 -4.5505487e-05
  2.2765355e-01
  1.2486137e-01
  2.8701624e-01
 -2.6956820e-03
 -2.9039824e-05
  1.0009553e+00
  3.6540493e-01
  4.2152699e-02
  2.5884882e-01
  3.4797238e-05
  5.1085334e-02
  2.7902593e-06
  3.5038844e-02
 -4.1461736e-01
 -6.6830271e-06
  5.4292163e-06
  7.9322606e-05
  5.7161610e-06
 -6.4038724e-01
  1.3772491e-06
 -2.5068033e-01
 -2.5344843e-03
  3.0978164e-01
  1.9805554e-02
  4.3587374e-05
  2.0729212e-06
 -2.9459363e-05
 -4.2163389e-05
  2.9316538e-05
  6.5469649e-05
  3.2164783e-03
 -1.3372532e-05
  8.4434792e-02
  3.3373027e-03
  2.2609429e-02
  5.8335263e-02
  4.7062353e-05
  2.7627480e-06
  3.6931044e-04
 -2.5289743e-05
  4.6240184e-02
  1.5955820e-05
  3.9245262e-07
  7.8370713e-02
 -4.0172530e-05
  2.1499986e-06
  3.3580051e-05
 -2.1631295e-05
  1.5185025e-01
  2.7033402e-05
 -1.6652959e-05
 -3.4830856e-04
 -5.0045113e-05
 -3.2064465e-05
  1.7623843e-06
  2.4293337e-05
 -1.2976468e-05
 -8.1407379e-06
  2.4485030e-06
 -3.3113063e-06
 -3.0645806e-06
 -3.5527035e-05
  6.3232633e-06
 -5.8344922e-06
  6.5165868e-06
 -2.0772244e-05
 -5.8294936e-06
  2.4653027e-06
  3.2614855e-05
  2.8259619e-05
  2.3182698e-05
 -5.6074082e-06
 -2.9735697e-06
 -7.0979288e-05
  1.7732601e-06
 -4.8375725e-05
 -1.5401960e-05
 -2.9651515e-06
  2.9343055e-05
  9.6933672e-06
 -8.4256917e-06
 -1.7333550e-02
 -1.4801180e-05
 -1.0177925e-05
  9.9423778e-06
 -6.4935542e-05
  6.5779336e-06
  4.6266152e-05
  5.4222386e-05
 -1.0587151e-05
 -5.9773556e-06
  7.6308124e-06
 -2.7476159e-05
  8.7875836e-03
  2.3907782e-05
  2.9651814e-05
  1.8512714e-04
 -9.0322810e-06
  3.4142839e-05
  4.7230173e-05
 -2.4896067e-06
  5.9997237e-06
 -2.5048368e-07
  1.3079961e-05
 -2.0529242e-05
  1.3475979e-05
 -2.5865484e-06
  1.7501730e-04
  5.0285848e-06
 -5.5615837e-06
 -4.1887301e-06
 -2.2629968e-06
  4.9438603e-07
 -4.7590498e-07
 -1.8741071e-05
 -9.2291339e-06
 -2.7191387e-05
  1.3047066e-05
 -1.1797560e-05
 -3.5460880e-06
  1.4521166e-06
 -1.1405132e-05
 -5.8484300e-05
  1.5288506e-06
 -8.0061312e-05
 -3.1372212e-05
  2.6653133e-05
  2.5360916e-05
 -1.0335011e-06
  2.0804178e-05
 -3.2743450e-05
 -2.8253346e-06
  1.8062212e-05
  1.0149846e-05
  1.3339616e-06
 -8.8765146e-06
  1.1316380e-05
 -9.5793825e-05
  2.4616464e-05
 -7.0705250e-06
  2.7007759e-06
 -7.2246552e-02
 -1.8785449e-06
 -3.4816472e-05
  2.1393684e-05
  4.7037909e-05
 -2.9525943e-06
 -1.4752737e-04
 -4.3237533e-06
  5.3864071e-05
  1.2075264e-04
 -6.0823189e-05
 -9.0984040e-06
  2.8366201e-05
 -4.6319681e-05
  7.5994576e-06
  1.1695885e-04
  8.5916508e-06
  5.0968074e-06
  6.6114726e-06
 -6.5349109e-06
 -5.4604066e-06
 -4.2976512e-06
 -3.7107434e-06
 -3.2467826e-05
  1.7712719e-05
  1.4624812e-03
 -2.8749373e-05
 -3.0231120e-02
  7.3349383e-04
 -9.4971065e-06
 -1.1308553e-05
 -3.7404735e-07
 -1.5205906e-05
  2.1576995e-04
 -7.6562901e-06
  1.6255268e-05
 -3.1812315e-06
  8.7407192e-05
 -8.1354319e-06
  6.5797693e-05
  2.8914013e-05
  3.8820745e-05
  1.8223968e-06
 -2.0924326e-05
 -3.6566751e-05
 -1.1166927e-05
 -7.9113352e-06
 -1.7379711e-05
 -2.3516408e-05
  5.6499221e-06
  4.6369918e-05
  1.8475304e-05
  8.4333415e-06
 -1.8831182e-07
 -2.7629633e-06
  2.7603366e-05
 -1.1042193e-04
  6.3439693e-05
  2.1480817e-05
 -6.0341761e-05
 -7.7935512e-04
  1.2824912e-05
 -7.2725711e-06
  3.2325428e-05
 -1.2320982e-05
 -1.2964276e-05
 -1.4237795e-04
 -2.5742662e-05
  8.7893641e-06
  9.3848581e-07
  1.3895919e-05
  4.1767519e-02
  5.4964862e-06
  8.7489007e-06
  5.4649358e-06
  1.8017284e-04
 -2.2686877e-06
  1.5785628e-05
  2.2011434e-05
  9.2353381e-05
 -1.5583395e-05
 -1.4430943e-05
  2.1168539e-06
 -6.2726167e-06
 -6.9838215e-06
 -1.1661494e-05
 -4.1563344e-06
 -9.3314693e-06
 -9.9116451e-06
 -7.6728402e-06
  2.6643513e-05
 -6.4915912e-06
 -1.8859284e-05
 -1.3180470e-05
 -1.9838400e-05
  3.4912846e-05
  2.9587954e-06
 -3.4557320e-06
  2.6881420e-05
 -1.2350505e-05
 -4.5897550e-06
  9.6201381e-07
  1.0312498e-06
 -3.4722947e-05
 -1.1342491e-05
  4.1461990e-05
 -7.8606390e-06
  6.4170905e-05
 -2.3329434e-05
 -5.8055980e-06
  1.0897172e-05
  1.6834914e-05
  3.0479016e-05
  3.9526447e-05
  5.0310432e-06
 -1.9721463e-05
  7.4144067e-05
 -8.2043125e-06
 -1.6475411e-05
  7.0381197e-06
 -6.6908352e-02
 -2.9137749e-03
  1.4475137e-01
 -6.5128841e-02
  5.3991276e-05
  1.2303459e-05
 -2.0402333e-01
  1.1813230e-01
 -5.7296231e-05
  1.3468702e-01
  3.0008892e-02
  2.4950705e-01
  1.4857540e-01
 -1.5045561e-05
  1.7201155e-01
  3.2018510e-01
  5.5829469e-06
  3.3946022e-02
  4.8208494e-06
  8.5788384e-02
  1.1890346e-02
  4.1341511e-04
  2.7572399e-02
  8.6419204e-05
  2.1894523e-03
  1.9795938e-05
  3.1199932e-06
 -6.3042760e-02
  3.2906835e-05
 -1.6555622e-01
 -6.0149515e-01
  7.1734577e-02
  1.7095866e-02
 -6.9039285e-01
  1.5848933e-01
  8.1795597e-06
  5.2688520e-02
 -6.6626519e-02
  2.7339272e-06
 -1.3443646e-01
  3.3630764e-05
 -3.6854990e-02
 -1.0770642e-02
 -7.7561035e-06
 -1.1469842e-01
 -1.3642880e-01
 -2.4179737e-06
 -9.0221874e-03
  1.6867883e-05
 -1.1521343e-01
 -2.8312258e-02
 -3.6866335e-05
 -1.6975397e-02
 -2.9211235e-06
 -2.0477315e-03
 -1.7821219e-05
 -5.3731786e-05
  1.9109742e-01
 -2.7284550e-05
  4.9284633e-02
 -1.6066770e-06
 -5.8843118e-05
  1.9734469e-05
 -7.2694115e-06
  9.1630191e-06
 -2.0542709e-04
  6.2729782e-06
  4.4626551e-05
 -8.7764492e-05
 -2.0501720e-05
 -1.7393357e-05
  1.2629175e-05
 -4.4275941e-07
 -1.8172825e-05
  2.0718202e-05
  1.0174511e-05
  8.0906148e-06
 -2.2720669e-05
 -8.3656494e-07
 -7.2902594e-06
  1.8687098e-05
 -2.5122542e-06
  8.7540730e-06
  4.4393335e-05
  5.5446626e-06
  3.2356005e-05
 -9.4216201e-05
 -1.7786112e-01
 -2.2729268e-05
  5.1646944e-06
  1.4243781e-05
  5.3401596e-05
 -3.0708393e-01
  8.6639684e-06
 -3.9478588e-01
  1.1137801e-06
 -4.8014364e-04
  1.5139837e-05
  1.4260340e-05
  5.3914655e-06
 -4.4434350e-05
  9.8731027e-07
 -7.5264036e-04
 -9.4487977e-01
 -1.1150569e-01
 -1.0895877e-01
 -7.9950802e-03
 -8.8595563e-01
 -1.0705613e+00
 -1.5811383e-05
 -4.5310280e-05
  6.3907264e-06
  1.4384347e-04
  1.2602202e-05
  5.6191995e-05
  4.3868936e-06
 -6.7831006e-06
 -2.0474828e-05
 -1.3635175e-01
  3.8488005e-07
  1.5882219e-01
 -1.7138951e-02
 -3.2514539e-01
  1.4015937e-01
 -2.6306683e-01
 -4.9214896e-02
 -3.7435028e-01
 -7.3917768e-06
 -1.4587794e-01
 -2.8494063e-05
  6.0392244e-06
 -1.5407567e-06
  1.3767287e-01
  4.3006352e-01
 -3.9401686e-01
 -2.9155773e-01
 -4.8667908e-01
 -6.0980457e-01
  4.0784243e-01
  2.4331808e-01
  1.7206743e-05
  2.9537712e-06
 -7.1871020e-02
  1.1912300e-01
 -1.3608050e-05
  1.5526061e-01
 -5.5866553e-06
  4.1656569e-01
 -4.1953301e-01
 -3.3934659e-05
  2.2883296e+00
 -4.1073044e-03
  7.8103912e-01
 -9.3881367e-03
  6.0844171e-01
  1.4057411e-01
 -2.1706472e-01
 -1.4357257e+00
 -4.5753238e-01
  3.8059959e-01
  1.3467575e-06
  7.6090914e-06
  8.2427732e-06
  2.2011181e-02
  1.9400458e-01
  1.3855416e-02
 -7.7003548e-05
  2.2295246e-01
  2.5778025e-04
  1.3907568e-05
  2.4747896e-01
  1.1981973e-01
 -1.4235525e-02
 -5.7840443e-01
  1.6389914e-01
 -8.7040407e-06
  6.6515639e-02
 -1.3506304e-01
 -1.7022096e-01
 -1.2440381e-03
 -4.7033170e-01
  2.5619785e-03
  2.4729580e-01
 -5.9261501e-02
  2.4343245e-02
  1.9689795e-01
 -2.0753927e+00
 -3.0638625e-05
  2.5795469e-01
  2.3157749e-02
 -2.1445963e-01
  9.6188784e-01
  6.3312721e-01
 -1.7013641e-01
 -6.0329027e-02
 -8.6073607e-02
  1.4143910e-01
 -2.0754243e-01
  6.5437704e-01
  8.4929399e-02
 -3.3440804e-01
  1.0847852e-01
 -4.6936271e-01
 -2.0668606e-01
 -6.8172051e-07
 -1.9696433e-02
 -2.4578995e-01
 -4.7032750e-01
 -8.8222861e-02
  2.2646113e-01
 -2.3840436e-01
  3.0329973e-01
  3.5645437e-01
 -5.7163462e-02
  1.4715041e-01
  7.8474182e-01
  1.0705813e-01
  5.5638314e-03
  1.6545404e-01
 -3.4275043e-01
  2.6684323e-01
  9.1022037e-02
  1.3697277e-01
 -6.1436778e-01
  3.3946818e-01
  2.4758773e-01
  2.6732150e-01
  2.0851439e-01
  6.2461019e-01
 -8.6982918e-01
  4.0706351e-01
  5.8672625e-01
  6.0914759e-02
 -5.9432548e-01
  7.0576511e-02
  3.0676241e-05
 -7.5101798e-07
 -4.7302408e-05
  7.3658913e-01
 -1.1784397e+00
  6.6108572e-01
  5.4746248e-05
  2.4478784e-05
 -1.0338145e-01
  2.1479100e-05
 -4.4385029e-05
 -5.8626174e-06
 -7.8633057e-06
  1.8571445e-01
 -6.2788583e-02
  9.8696073e-06
  1.1439461e+00
  1.3448453e-01
 -1.8749804e-05
  1.6679236e-05
 -1.0528098e-05
  3.2378818e-04
  1.0150804e-03
 -7.0419800e-03
  1.0517129e+00
 -7.9140979e-01
  1.4831521e-01
  1.8941426e-05
 -2.8939494e-05
 -9.9862536e-06
  5.8310753e-01
  3.8053232e-01
  7.5517076e-01
 -1.2235593e-05
 -3.5314310e-01
 -1.7275082e+00
  7.5655524e-05
 -1.1998965e-05
 -5.0771632e-05
 -5.7630384e-01
  3.5014936e-01
  3.6055058e-02
  1.1199442e-01
  2.8389806e-01
 -3.2084090e-01
 -3.3192886e-05
 -7.3070373e-07
 -7.7979221e-06
  6.3385747e-02
  9.5781779e-01
  1.0152294e-02
  1.4142361e-01
 -1.3520990e-01
  1.7472297e-01
 -2.7888525e-05
 -1.8420884e-06
  4.0182899e-06
  7.0364410e-01
 -5.1434362e-01
  8.0960548e-01
 -7.5184602e-01
 -2.5822759e-01
  4.9579957e-01
 -1.0700458e-04
  2.5305215e-05
 -2.8497376e-05
  6.9425082e-01
  4.8588553e-01
  1.7646231e-01
  1.5933608e-01
  2.4879934e-01
 -6.1379436e-02
  1.9025812e-05
 -1.9087280e-05
 -3.9456122e-06
  8.4691063e-02
  1.2080483e-04
 -4.0169373e-01
  1.0300343e+00
 -2.4989161e-01
 -1.7858255e-01
  1.8564746e-05
  7.5934618e-06
  1.9121628e-05
 -4.4268033e-01
  7.3670015e-02
 -5.2590132e-01
 -2.0007041e-05
 -9.0337239e-02
 -5.7246176e-05
  1.7981083e-06
 -4.7573831e-05
 -1.3137247e-05
  1.6207910e-05
 -4.6953014e-06
 -9.4901887e-05
  3.2570712e-02
  4.1959160e-05
  8.2381535e-04
 -8.0532709e-06
  2.5620898e-06
  6.3493690e-06
  7.1043760e-06
 -1.0589919e-05
 -2.5858410e-06
  2.9168531e-01
 -7.0272422e-01
  3.3956507e-01
  4.0997506e-07
 -2.7463848e-06
  4.1943782e-05
  1.7055124e-01
 -1.4745009e+00
  8.0708320e-05
 -1.4718214e-01
 -3.6316603e-01
 -8.3323956e-02
  3.2119822e-06
 -4.8392252e-05
 -2.7545400e-06
  6.4454971e-06
 -1.6482998e-02
 -2.3113699e-01
  6.5260828e-01
 -3.9405939e-03
 -8.9347430e-02
  3.8058715e-05
  2.5403604e-05
  2.5463316e-06
 -2.7304279e-07
 -1.6556872e-02
 -6.6533859e-05
  1.9760875e-01
  7.1464462e-04
 -5.0653554e-02
  1.6463313e-05
  1.2087293e-05
 -5.2319294e-05
 -6.8369169e-05
  5.6222096e-02
  1.8747419e-01
 -1.2176014e-02
 -2.9632279e-01
  1.8197512e-02
  1.2493239e-05
  1.0022625e-06
  2.0128553e-05
 -6.9135211e-02
 -2.4201705e-01
 -3.3075112e-01
  8.3189261e-01
 -6.2057644e-01
  3.3752039e-01
 -2.6322221e-05
  5.1078983e-05
 -6.7445567e-06
  2.4118226e-05
 -2.6316583e-01
 -1.0066022e-01
  7.2722964e-02
  5.7120383e-01
 -2.7735537e-01
  3.1536910e-01
 -5.6055278e-01
  6.3794903e-02
 -1.9990110e-03
  6.3525170e-01
 -5.4506316e-05
  5.3082144e-06
  8.8608431e-05
 -4.3039605e-02
  1.7561479e-05
  4.0121302e-02
  4.3840051e-02
 -1.8861128e-05
  4.0678689e-05
 -7.4987097e-06
 -1.1624338e-03
 -4.7834601e-02
  6.6488719e-01
 -1.4821700e-05
 -1.8349220e-01
  9.5518656e-02
 -3.0520355e-04
  1.4149654e-05
 -6.9358692e-05
 -7.0842057e-02
 -9.3915117e-01
  1.0978560e+00
  8.5757766e-03
  3.0682305e-01
 -2.1818893e-01
  1.7349703e-05
  5.8371824e-01
  2.9145938e-04
  1.9120231e-01
  1.1595600e+00
 -4.0923277e-01
 -1.0356271e-01
  7.0363350e-02
  3.2578585e-01
 -2.1529165e-03
  6.0912356e-05
 -2.5223067e-05
 -1.9990620e-01
  2.8971121e-01
 -1.4169805e-02
  2.9690702e-02
 -4.2061281e-01
 -5.3444062e-03
 -4.2677420e-01
 -4.1934461e-05
 -4.7168785e-05
  9.0723351e-02
 -7.7251112e-01
  8.4865797e-01
 -2.4986786e-01
 -3.1088799e-01
 -7.8083716e-02
 -1.4239434e-05
 -1.4871800e-06
  1.9219932e-01
  8.3710670e-02
 -3.5435903e-01
 -4.6114862e-02
 -4.2021763e-01
  6.9417793e-01
  1.8825205e-01
 -1.7800777e-01
  7.2738904e-01
 -2.1560811e-01
 -3.5133272e-01
 -5.3022557e-01
 -9.0528643e-01
 -1.0463954e-01
  3.3734724e-01
 -2.2274752e-01
 -6.4433855e-01
  4.7406581e-01
  1.2578459e-02
  5.2069671e-02
  7.5841343e-01
  9.5272459e-02
 -1.3841336e-04
  3.3691433e-01
 -1.6429530e-01
  2.3711962e-01
 -1.0506583e-01
 -2.0263578e-01
 -2.4593285e-06
 -1.4856812e-06
 -3.7310281e-05
 -2.0390074e-04
 -1.2442506e-03
  5.4429761e-06
  1.9195966e-05
 -7.5340913e-06
 -4.0715859e-06
 -1.8443363e-05
 -4.6303921e-06
  8.7149328e-06
  4.5820601e-05
  1.7544904e-04
 -9.6414588e-02
  9.7054966e-05
  1.0222634e-01
 -1.6849339e-05
  6.1537508e-02
  9.2370558e-01
  2.0602332e-04
 -1.6876187e-03
  6.3681515e-04
  3.0704314e-01
  8.5293852e-02
 -5.7185590e-01
 -6.0714496e-04
 -2.3463412e-05
 -2.4817370e-01
 -2.0356690e-06
 -5.2039202e-02
 -3.5898544e-02
 -3.0650124e-01
  5.0411625e-05
 -9.0375878e-02
  3.8051356e-02
  2.3521770e-05
  2.1963187e-06
  4.8812180e-06
 -5.3910270e-02
 -5.9784167e-02
 -3.0380758e-02
  4.1452739e-02
  1.6776228e-01
  2.9706754e-04
  9.3631614e-05
  2.7348539e-01
  8.0916308e-02
  5.3062536e-02
  1.1639106e-01
  9.4231218e-03
  2.5573361e-05
 -5.9828848e-02
  8.9116621e-01
 -1.8300249e-01
  6.1316475e-02
  6.8744846e-02
 -2.5440699e-01
  3.0852536e-02
 -1.9671750e-01
 -3.2693103e-01
 -1.0727519e+00
  3.2903665e-01
  5.3111643e-01
 -2.2664893e-01
  3.0843228e-01
 -5.1759936e-05
 -1.2177020e-01
  1.2864140e-01
  5.4717302e-01
 -2.6721701e-01
 -2.7566203e-01
 -3.6264912e-05
  1.0396445e+00
  1.8529261e-02
  1.3071691e-05
  3.2680891e-05
 -4.1796698e-06
  4.3712029e-01
 -6.0902387e-01
 -9.8862864e-02
 -3.9352763e-06
  1.0071430e-05
 -7.1579501e-07
  1.2420334e-05
  1.5489974e-05
 -1.9706576e-05
 -5.4832426e-06
 -7.4711834e-06
  9.5114237e-06
 -9.1958595e-03
  5.0425023e-01
  2.9372767e-04
 -3.9579791e-06
  7.0927535e-06
  2.0543568e-05
  3.8124463e-01
 -4.2550534e-01
 -2.2561958e-02
 -9.3383078e-06
  1.4086781e-01
 -5.3636211e-01
  1.1035102e-06
 -4.0896484e-06
 -8.1835724e-06
  1.4435376e-01
 -4.9076546e-02
 -1.7088789e-05
 -6.2187079e-05
  8.0375679e-02
  4.8975180e-06
  1.1300056e-05
  1.5792664e-05
 -2.8711418e-05
  3.4332074e-02
 -5.9007101e-02
 -1.0832300e-01
 -2.9178507e-05
  5.7967299e-01
  6.2029684e-01
 -1.9843690e-05
 -3.5298090e-06
 -1.5418467e-05
  1.0571361e+00
 -2.6505789e-01
 -4.3091294e-04
 -5.1938008e-05
  4.0287420e-04
 -4.4063467e-01
  1.0680856e-06
 -9.9192948e-05
 -4.4368444e-05
 -7.6816104e-06
 -8.2359999e-02
 -1.7302706e-05
 -1.5392179e-05
  1.4286542e-01
 -1.2952955e-01
 -5.8383212e-06
 -1.8829078e-05
  6.6012981e-06
  6.2871689e-01
 -1.7006183e-01
 -1.5685332e-01
  7.3434248e-06
  4.3391290e-01
 -2.4312167e-01
  1.8539620e-06
 -1.5215001e-05
 -3.9935116e-05
 -3.0088231e-01
 -3.3775461e-01
  7.5896834e-03
 -5.7508973e-05
 -5.7615900e-01
  1.9726748e+00
  1.4288039e-05
  5.3878907e-06
  2.3124307e-05
  4.3492677e-05
  4.7897398e-01
 -6.0839748e-01
  6.8210742e-05
  4.5024699e-05
 -5.1748395e-01
  1.9810130e-05
  8.8162597e-06
 -9.0621452e-06
  6.8879912e-05
  1.3660337e-05
  2.6456310e-06
  5.1670854e-06
 -6.5257716e-01
 -2.4527478e-01
  3.8067265e-05
 -1.1883380e-05
 -1.2169070e-06
 -2.2988580e-01
  4.4765344e-01
 -6.8349189e-01
 -4.9806378e-05
 -4.1526267e-01
  2.2173221e-01
 -5.4478696e-05
  2.3823937e-05
 -1.4861352e-04
  2.0985037e-01
  3.4472618e-05
  2.4899734e-06
 -1.0285280e-05
  5.2526081e-03
  1.6684154e-01
 -1.1445793e-05
  1.0291852e-05
 -2.6203887e-04
 -1.7835860e-04
  2.8491125e-01
 -5.9234577e-01
  5.9263828e-05
 -9.1559410e-01
 -8.7667567e-01
  1.6911780e-04
  2.2685704e-06
  3.4296388e-09
 -1.4120016e-01
  7.6104559e-02
 -5.7900947e-02
  5.2974232e-05
 -5.6665325e-05
  1.9170313e+00
  2.5414047e-05
 -6.0822396e-07
 -1.5397289e-05
  6.3979900e-01
  2.1023570e-02
 -2.9428706e-01
 -7.4531577e-08
 -4.3619135e-01
  1.2662598e+00
 -2.0794920e-05
 -1.3299853e-05
 -4.7538947e-06
 -7.5255281e-01
  3.3370835e-01
 -4.1562206e-01
 -1.4845469e-05
 -4.9845341e-01
 -4.4864708e-01
  9.0891808e-06
  7.4000195e-06
 -4.2138243e-05
  5.2545148e-01
 -4.9152481e-05
  4.2161641e-01
  2.0136491e-05
 -4.5802038e-02
  4.2773241e-01
 -1.2009491e-05
 -5.3751037e-06
 -3.3637828e-06
  9.5209259e-01
 -6.0814049e-02
  7.3086172e-01
  2.2680819e-05
 -1.0086652e-06
  1.0987503e-04
 -7.1816062e-06
  4.0486102e-06
  4.0160630e-05
 -2.5328134e-06
  9.1567708e-06
  2.6173251e-05
  4.5743554e-06
 -1.5450220e-01
  2.8534055e-01
  1.3874794e-05
  8.6293963e-05
  2.5441481e-05
  1.0566131e+00
 -2.8209091e-04
  7.0433430e-02
 -3.2330506e-06
  1.8158758e-05
  8.2615942e-01
  7.0094029e-05
 -3.1767711e-05
  2.1915001e-05
  2.8009000e-01
 -2.3542036e-06
  3.3678544e-01
  5.1897969e-05
 -1.5918224e-01
 -8.6273409e-05
  8.5402862e-06
 -3.8377770e-05
  6.1623839e-05
  9.2408948e-02
  2.3878627e-05
 -6.5512345e-06
  1.2546115e-05
  9.5232681e-05
  6.5965432e-01
 -6.0473712e-06
  2.6657344e-05
 -1.7780341e-05
  8.2895166e-01
 -9.1917418e-02
  2.7016333e-01
  1.8566372e-05
 -3.5131305e-01
  9.4243506e-04
  2.3999091e-06
 -9.4386951e-06
 -5.9922722e-06
  6.5228754e-01
  2.3668026e-05
  1.6756773e-01
  1.1709671e-05
  7.6134324e-02
  1.8153885e-01
  9.9451418e-06
 -7.2713392e-06
 -4.2483560e-05
  1.7843812e+00
 -1.7744252e-01
  8.2839948e-01
 -3.9310733e-05
 -2.6365498e-01
  8.0677432e-01
 -1.5039445e-05
 -1.9673755e-06
 -4.3071963e-05
  9.5800048e-01
 -1.8006549e-05
  5.9907258e-01
 -5.7493858e-06
 -1.8604647e-01
 -4.2189941e-01
  5.1840179e-05
 -2.2034317e-05
  8.9618334e-06
  2.2161537e-05
  4.6364890e-05
 -1.2698149e-05
 -3.6024969e-05
 -5.5833393e-06
 -1.7445505e-04
  2.1100095e-05
  7.4614582e-06
 -2.2077136e-04
 -4.3431240e-07
 -2.7139147e-05
 -6.0453644e-05
  4.8183203e-05
 -1.8102759e-01
 -9.2379284e-01
 -6.5736940e-06
  2.0258265e-06
  4.4970122e-05
 -1.2415579e-06
 -7.0641354e-06
  1.2312515e-05
  2.7236447e-05
  2.0294085e-05
 -1.1264919e+00
  1.3709866e-05
 -2.1918700e-05
  1.6556046e-06
  4.2710985e-06
 -3.8289713e-06
  8.0091908e-05
  2.6378433e-05
 -1.7345826e-01
 -2.5167292e-06
 -1.4570879e-05
  3.8579059e-05
 -4.6623099e-05
  1.3656967e-05
 -9.0747526e-06
  2.2618153e-05
 -8.2105535e-06
 -2.4475906e-02
  5.9801519e-01
  4.3354312e-06
 -1.3110761e-05
 -6.9316302e-05
  2.6644704e-05
  1.2923527e-05
  3.6419297e-06
  6.7006667e-06
 -5.4381311e-02
 -1.2800893e+00
  4.1445095e-05
 -2.9238859e-05
 -2.5106800e-05
  5.3406887e-07
 -1.0793496e-04
  2.9055826e-05
 -1.0775771e-05
 -2.3342001e-01
 -5.9512554e-04
  7.9133461e-06
 -1.3414249e-05
  1.6887658e-05
  1.3757586e-03
  4.3220894e-06
  2.2581144e-05
 -3.4565139e-05
 -3.0818726e-05
 -1.5919250e-01
 -1.9094034e-06
 -7.9123074e-06
 -7.1984609e-06
  4.3970478e-05
 -1.5070735e-04
  2.5901134e-06
  5.8291866e-05
 -4.8852209e-05
 -1.0461310e-05
  8.4280437e-05
  1.0819318e+00
 -8.4945107e-01
 -1.2751960e+00
 -7.3514086e-01
 -3.9931619e-01
 -1.7540764e-05
 -4.3567243e-06
  2.1463811e-05
  8.5898118e-06
  7.3203839e-05
 -2.8571922e-05
  1.1390272e-01
 -3.8975530e-05
 -1.2263122e-04
 -1.1554452e-04
  2.9808671e-05
  8.6588498e-06
  2.2129851e-04
  6.6199726e-01
 -4.4905767e-01
 -1.0805101e+00
 -3.3808628e-01
 -1.5242799e-01
  2.6087589e-06
 -3.2046672e-05
  3.2009386e-05
  4.7987953e-05
  2.0167066e-01
 -4.4381216e-01
  1.1230505e+00
 -2.4645203e-01
 -1.5160481e+00
 -4.6934329e-06
 -2.7309729e-06
  9.2992914e-06
  1.9067080e-05
  4.6273929e-01
 -4.7974306e-04
 -3.1110583e-05
  3.1442218e-05
 -3.2086413e-02
  1.7246675e-05
 -1.1472700e-05
  7.8474704e-06
  3.4629263e-06
  5.6719792e-01
 -8.7473100e-01
  8.6284262e-01
 -6.1192894e-01
  7.7199012e-01
 -1.4185985e-05
 -1.4540065e-05
  3.3862423e-05
 -7.1542386e-06
  2.6268876e-01
 -8.4439816e-05
  1.9991500e+00
 -1.5548809e-06
 -9.1723126e-01
  8.9840933e-06
 -2.2953793e-05
 -3.0866202e-05
  1.0985296e-05
  1.2022870e-01
 -2.3725951e-01
  7.9528904e-01
 -3.6586118e-01
  2.5276719e-02
  3.8961738e-05
 -1.0852116e-04
 -5.7612873e-05
 -5.3803442e-06
  3.2298818e-01
 -4.4237977e-01
  9.9081671e-01
 -3.2984668e-01
 -1.0647260e+00
  1.0430375e-01
  1.0430375e-01
  1.0430375e-01
  1.0430375e-01
  1.0430375e-01
  3.9246675e-01
  3.9246675e-01
  3.9246675e-01
  3.9246675e-01
  3.9246675e-01
  2.5644276e-01
  2.5644276e-01
  2.5644276e-01
  2.5644276e-01
  2.5644276e-01
  3.7853405e-01
  3.7853405e-01
  3.7853405e-01
  3.7853405e-01
  3.7853405e-01
  1.2220341e-01
  1.2220341e-01
  1.2220341e-01
  1.2220341e-01
  1.2220341e-01
  5.3432608e-01
  5.3432608e-01
  5.3432608e-01
  5.3432608e-01
  5.3432608e-01
